tree
version=v4
num_class=1
num_tree_per_iteration=1
label_index=0
max_feature_idx=14
objective=regression
feature_names=Temperature Humidity Wind_Speed hour day_of_week is_weekend month hour_sin hour_cos lag_1 lag_15 lag_60 lag_1440 rolling_mean_60 rolling_std_60
feature_infos=[9:41] [4.2199999999999998:100] [0:59.399999999999999] [0:23] [0:6] [0:1] [1:12] [-1:1] [-1:1] [0:7.1367202778500003] [0:7.1367202778500003] [0:7.1367202778500003] [0:7.1367202778500003] [0.027664777783611101:2.8887713194319442] [0.0081123140478186889:1.6879839535384198]
tree_sizes=2622 2772 2787 2788 2788 2798 2797 2786 2795 2797 2792 2805 2776 2791 2801 2796 2795 2797 2809 2816 2792 2810 2798 2820 2788 2812 2808 2811 2813 2820 2812 2817 2803 2813 2827 2829 2832 2834 2823 2808 2839 2824 2816 2818 2828 2833 2837 2831 2811 2830 2817 2809 2826 2820 2824 2852 2838 2827 2820 2851 2837 2856 2837 2817 2851 2843 2793 2826 2833 2827 2819 2844 2854 2851 2829 2849 2810 2834 2323 2872 2818 2836 2855 2865 2862 2811 2335 2328 2872 2516 2342 2814 2848 2834 1991 2818 2861 2860 2833 2834 1920 2853 2344 2168 2857 2149 2451 2083 2875 2847 2858 1649 2892 2842 2539 1732 2871 2884 2843 2847 2082 2835 2872 2465 2590 2866 2879 2866 2260 2858 1917 2858 2063 2266 2865 2873 2837 2521 2874 2851 2860 2835 2866 2840 1656 2853 2831 2860 2850 2142 1725 2855 2862 2856 2883 2862 2424 2622 2869 2848 2870 2889 2826 2839 2901 2834 2890 2839 1973 2605 2095 2860 2838 2833 2882 2873 2862 2845 2848 1752 2158 2869 2850 2844 2076 2838 2551 2061 2833 2339 2875 2910 2854 2801 2618 2563 2069 1909 2809 2824 2847 2850 2855 1811 2250 2489 2850 1724 2886 2874 2888 2873 2844 1984 2866 2866 2716 2879 2853 2850 2841 2350 2854 2859 2899 2851 2899 2913 2856 1836 2858 2851 2873 2885 2280 2869 2858 2874 2890 2011 2861 2882 2870 2895 2844 2509 2881 1754 2864 2881 2861 1733 2862 2865 2880 2879 2901 2884 2098 2868 2886 2861 2068 2858 1730 2007 2878 2874 2606 2867 1981 1829 2883 2121 2868 2551 2879 1948 2874 2881 2516 2157 2642 2908 2892 1835 2898 2913 2876 2344 2852 2072 2442 2886 2894 2876 2364 2877 2478 2839 2874 2883 2867 2590 2330 2891 2876 2890 2870 2888 2868 2882 2867 2891 2863 2879 2821 2865 2639 2527 2851 1989 2703 2876 2726 2877 1914 2895 2863 2919 2888 2866 2875 2872 2257 1474 2885 2017 2879 2865 1482 2865 2277 2877 2911 2876 2637 2893 2889 2881 2858 2445 2882 2869 2355 2874 2407 2884 2860 1921 2890 2884 1378 2593 2894 2832 2895 2889 2895 2021 2901 2873 2853 2879 2863 2433 2872 2175 2857 2890 1470 2858 2873 2854 2867 2909 2898 2892 2915 2888 2375 2083 1825 2864 2888 2869 2859 2784 2873 2510 2895 2108 2080 2891 2844 2701 2899 2630 2872 2783 2885 2889 2877 2909 2901 2116 2903 2878 2863 2902 2890 2892 2895 2875 1810 2895 2874 2089 2891 2874 2895 2178 2856 2705 2887 2921 2912 2898 2895 1923 2886 2607 1816 2910 2897 2899 1916 2899 2890 2896 2861 1736 2888 2852 2881 2910 2814 2533 2540 2858 2843 2873 1915 2893 2877 2876 2862 2866 2883 2882 2358 2432 2870 2912 2866 2853 2437 2338 2892 2210 2901 1843 2928 2877 2896 1665 2881 2883 2845 2897 2868 2869 2852 2901 2887 2210 2009 2896 1757 2899

Tree=0
num_leaves=31
num_cat=0
split_feature=9 9 9 9 9 9 9 6 7 3 7 8 0 9 13 0 6 9 9 14 3 3 9 7 12 11 10 12 6 8
split_gain=2012.22 388.908 167.64 99.3828 78.759 44.485 32.8599 29.9809 26.6108 21.879 21.3629 19.9058 25.1747 16.3441 15.3377 14.0758 12.8111 11.1563 8.76371 7.87977 7.85397 8.33735 7.81171 7.38603 7.03267 7.00267 6.55118 6.06741 6.16581 6.04902
threshold=1.0626395833166669 2.5380456944666672 0.55675736110000007 3.3149022222500002 1.9285006945000001 4.4899437500416672 0.24573472242500002 4.5000000000000009 0.98296291314453421 21.500000000000004 0.91597561503675362 0.78656609248549303 27.100000000000005 1.3051431945250005 1.707298016215278 21.300000000000001 4.5000000000000009 2.1601613888166669 0.77503583338333348 1.2385024591282459 8.5000000000000018 11.500000000000002 0.42961861110833338 -0.91597561503675329 1.7228394443916668 1.755305555491667 0.53856041661666676 0.22571583338333331 2.5000000000000004 -0.5
decision_type=2 2 2 2 2 2 2 2 2 2 2 2 2 2 2 2 2 2 2 2 2 2 2 2 2 2 2 2 2 2
left_child=2 4 6 7 11 19 -1 20 22 16 14 13 -13 -2 18 -12 29 -18 -4 24 -3 -22 -8 -15 -5 -16 -10 -25 -29 -6
right_child=1 3 10 5 9 -7 8 -9 26 -11 15 12 -14 23 25 -17 17 -19 -20 -21 21 -23 -24 27 -26 -27 -28 28 -30 -31
leaf_value=1.1404592576293759 1.1911807647780686 1.2413522221880293 1.1688339253308568 1.2556581874487041 1.2016639415686334 1.3603824954922632 1.1518212214325869 1.2558293204729669 1.2108208910574696 1.2613198557373013 1.2273062232320173 1.1987051392517432 1.2316790721403512 1.1913635075639006 1.2167827333238823 1.185965491185726 1.2188055527016677 1.2344382980105484 1.1777772876539212 1.2985806020581239 1.1974088200113604 1.2296914619853279 1.1592781816880235 1.1832038307007995 1.2885862794347207 1.1846795691241543 1.1729392297218422 1.2221371306869124 1.2058149096123547 1.2193648267167263
leaf_weight=434 314 69 675 34 86 22 851 281 25 38 29 105 129 92 26 71 221 236 461 45 30 60 598 27 31 49 21 64 603 110
leaf_count=434 314 69 675 34 86 22 851 281 25 38 29 105 129 92 26 71 221 236 461 45 30 60 598 27 31 49 21 64 603 110
internal_value=1.18823 1.22102 1.16195 1.25743 1.21074 1.29548 1.15257 1.24601 1.15609 1.22444 1.17574 1.20364 1.21688 1.20082 1.17391 1.19795 1.22229 1.22688 1.17246 1.2825 1.22866 1.21893 1.1549 1.20468 1.27136 1.19581 1.19353 1.20644 1.20738 1.2116
internal_weight=5837 2597 3240 572 2025 132 1929 440 1495 691 1311 1334 234 1100 1211 100 653 457 1136 110 159 90 1449 786 65 75 46 694 667 196
internal_count=5837 2597 3240 572 2025 132 1929 440 1495 691 1311 1334 234 1100 1211 100 653 457 1136 110 159 90 1449 786 65 75 46 694 667 196
is_linear=0
shrinkage=1


Tree=1
num_leaves=31
num_cat=0
split_feature=9 9 9 9 9 9 9 6 7 3 7 8 6 9 13 0 6 9 9 14 3 3 6 10 9 12 11 14 8 3
split_gain=1816.03 350.989 151.295 89.693 71.08 40.1477 29.7727 27.0578 24.1926 19.7458 19.28 17.965 22.8615 15.0622 13.8422 12.7592 11.562 10.0685 7.90925 7.11149 7.08821 7.52446 6.80691 6.80477 6.41662 6.34699 6.31991 5.45925 5.45924 8.06892
threshold=1.0626395833166669 2.5380456944666672 0.55675736110000007 3.3149022222500002 1.9285006945000001 4.4899437500416672 0.25557541673333334 4.5000000000000009 0.98296291314453421 21.500000000000004 0.91597561503675362 0.78656609248549303 4.5000000000000009 1.5277323612000002 1.707298016215278 20.700000000000006 4.5000000000000009 2.1601613888166669 0.77503583338333348 1.2385024591282459 8.5000000000000018 11.500000000000002 7.5000000000000009 0.11512444444166665 0.42961861110833338 1.7228394443916668 1.755305555491667 0.90208075292960743 -0.5 9.5000000000000018
decision_type=2 2 2 2 2 2 2 2 2 2 2 2 2 2 2 2 2 2 2 2 2 2 2 2 2 2 2 2 2 2
left_child=2 4 6 7 11 19 23 20 24 16 14 13 -13 22 18 -12 28 -18 -4 25 -3 -22 -2 -1 -8 -5 -16 -9 29 -6
right_child=1 3 10 5 9 -7 8 27 -10 -11 15 12 -14 -15 26 -17 17 -19 -20 -21 21 -23 -24 -25 -26 -27 -28 -29 -30 -31
leaf_value=-0.052423272574885507 0.0086075134925945943 0.050465766038151762 -0.018426617218112503 0.06405643316752771 -0.011161528885364534 0.16354452398690311 -0.034336758602660104 0.057659413845547097 0.0066422065243471502 0.069435015536452593 0.039368599137434596 0.011185688706188414 0.042452744882126962 0.018349309782900804 0.027124751244600006 -0.0013487753080757888 0.029046428417555184 0.043897537017385163 -0.0099304229784842758 0.10483272102144031 0.0087195334055771428 0.039388042067488034 -0.0075924558684582243 -0.040098356150803066 -0.027504573470405164 0.095338117307232281 -0.0033732560862387928 0.071623398634520441 0.029577738623589873 0.02256658003955591
leaf_weight=178 524 69 675 34 25 22 808 149 43 38 26 114 120 502 26 74 221 236 461 45 30 60 74 302 598 31 49 132 110 61
leaf_count=178 524 69 675 34 25 22 808 149 43 38 26 114 120 502 26 74 221 236 461 45 30 60 74 302 598 31 49 132 110 61
internal_value=1.12453e-10 0.0311511 -0.024969 0.0657367 0.0213817 0.101885 -0.0338762 0.0548922 -0.030301 0.0343975 -0.0118628 0.0146397 0.0272201 0.0119635 -0.0136052 0.00923774 0.0323586 0.0367157 -0.0149788 0.0895534 0.0384088 0.0291652 0.00660284 -0.0446688 -0.0314309 0.0789754 0.00719939 0.064219 0.0221994 0.0127619
internal_weight=5837 2597 3240 572 2025 132 1929 440 1449 691 1311 1334 234 1100 1211 100 653 457 1136 110 159 90 598 480 1406 65 75 281 196 86
internal_count=5837 2597 3240 572 2025 132 1929 440 1449 691 1311 1334 234 1100 1211 100 653 457 1136 110 159 90 598 480 1406 65 75 281 196 86
is_linear=0
shrinkage=0.05


Tree=2
num_leaves=31
num_cat=0
split_feature=9 9 9 9 9 9 9 6 7 3 7 9 13 0 3 8 0 11 9 1 3 0 14 3 3 10 7 13 12 9
split_gain=1638.97 316.768 136.544 80.9479 64.1497 36.2333 26.8698 24.4197 21.8338 17.8206 17.4002 16.4371 12.4926 11.55 11.061 10.8911 13.1611 8.87694 7.1381 6.76344 6.43382 9.23152 6.41812 6.39711 6.79083 6.14131 6.108 8.86472 6.03321 5.81694
threshold=1.0626395833166669 2.5380456944666672 0.55675736110000007 3.3149022222500002 1.9285006945000001 4.4899437500416672 0.25557541673333334 4.5000000000000009 0.98296291314453421 21.500000000000004 0.91597561503675362 1.3209636111000003 1.707298016215278 21.300000000000001 6.5000000000000009 0.78656609248549303 28.250000000000004 1.7089851389416668 0.77503583338333348 59.035000000000004 7.5000000000000009 34.250000000000007 1.2385024591282459 8.5000000000000018 11.500000000000002 0.11512444444166665 0.25881904510252091 1.8545411388862501 2.1123612500250006 0.4195211111583334
decision_type=2 2 2 2 2 2 2 2 2 2 2 2 2 2 2 2 2 2 2 2 2 2 2 2 2 2 2 2 2 2
left_child=2 4 6 7 11 22 25 23 29 14 12 26 18 -12 -6 20 -17 -16 -4 -19 -13 -22 -5 -3 -25 -1 27 28 -2 -8
right_child=1 3 10 5 9 -7 8 -9 -10 -11 13 15 -14 -15 17 16 -18 19 -20 -21 21 -23 -24 24 -26 -27 -28 -29 -30 -31
leaf_value=-0.049802108008540083 0.004327454694828166 0.047942476547525634 -0.017505286971745256 0.075026620167952321 0.038089347254965156 0.15536729832264512 -0.032815932812660521 0.061008059761728899 0.0063100958892772369 0.065963266637960552 0.035364242373355503 0.020862920844637416 0.0068394172872261461 -0.0020841907657368083 0.019267606028299897 0.015026099920346911 0.042371807246341965 0.044498955414164813 -0.009433901704200838 0.020758275406114992 0.0078681944687388761 0.024996454280453051 0.099591088559892446 0.0082835562216738868 0.037418641699866077 -0.038093438261305755 -0.00048360062224605074 0.042586460093124993 0.033698555771261456 -0.026361031027587408
leaf_weight=178 139 69 675 65 287 22 762 281 43 38 29 285 75 71 238 88 88 80 461 48 383 99 45 30 60 302 211 21 20 644
leaf_count=178 139 69 675 65 287 22 762 281 43 38 29 285 75 71 238 88 88 80 461 48 383 99 45 30 60 302 211 21 20 644
internal_value=9.02922e-11 0.0295936 -0.0237205 0.0624499 0.0203127 0.096791 -0.0321824 0.0521475 -0.028786 0.0326776 -0.0112697 0.0139077 -0.012925 0.00877585 0.0307407 0.0174816 0.028699 0.0249782 -0.0142298 0.0355962 0.0149076 0.0113862 0.0850757 0.0364884 0.0277069 -0.0424354 0.0052884 0.0120545 0.00802193 -0.0298593
internal_weight=5837 2597 3240 572 2025 132 1929 440 1449 691 1311 1334 1211 100 653 943 176 366 1136 128 767 482 110 159 90 480 391 180 159 1406
internal_count=5837 2597 3240 572 2025 132 1929 440 1449 691 1311 1334 1211 100 653 943 176 366 1136 128 767 482 110 159 90 480 391 180 159 1406
is_linear=0
shrinkage=0.05


Tree=3
num_leaves=31
num_cat=0
split_feature=9 9 9 9 9 9 9 6 7 8 9 7 0 8 0 13 10 7 1 14 3 0 6 13 3 0 8 7 14 12
split_gain=1479.36 289.237 119.31 73.0555 59.3804 32.7006 29.7477 22.4944 21.2705 16.2582 15.7589 12.0604 11.8743 9.82923 11.8779 9.25613 8.21188 7.09535 6.77095 6.59761 6.18985 19.483 6.18562 6.14348 6.12659 8.02802 6.08847 6.05489 5.79235 5.72816
threshold=1.0452462500250002 2.5380456944666672 0.60961388892500012 3.3149022222500002 1.9285006945000001 4.4899437500416672 0.3076080555666667 5.5000000000000009 0.98296291314453421 0.78656609248549303 1.3209636111000003 0.91597561503675362 20.700000000000006 0.78656609248549303 28.250000000000004 1.707298016215278 0.11512444444166665 0.12940952255126045 74.605000000000018 1.0249066075745776 21.500000000000004 27.900000000000002 4.5000000000000009 1.3577258796373615 8.5000000000000018 24.300000000000001 0.78656609248549303 -0.91597561503675329 1.2385024591282459 1.7228394443916668
decision_type=2 2 2 2 2 2 2 2 2 2 2 2 2 2 2 2 2 2 2 2 2 2 2 2 2 2 2 2 2 2
left_child=2 4 6 7 10 28 16 24 23 22 -2 15 -13 27 -15 20 -1 18 -11 -18 -4 -22 -6 -8 -3 -26 -25 -12 29 -5
right_child=1 3 11 5 9 -7 8 -9 -10 17 13 12 -14 14 -16 -17 19 -19 -20 -21 21 -23 -24 26 25 -27 -28 -29 -30 -31
leaf_value=-0.047190159892236724 0.0049052880012041078 0.046559955725260983 -0.013488395853631466 0.057102277436677153 0.019333551871055867 0.14759893701835111 -0.027710270945552125 0.060441557551619778 0.0092291519045829776 0.045105109140276912 0.0020540208686245505 0.042373603135347368 -0.0013815716097968214 0.014274794946752743 0.04025321636952206 0.0079429514976518782 -0.035965256928146061 0.03507847439706032 0.076776930313833341 -0.0079986107620325965 -0.014842983980973563 0.031259256935763084 0.030735317909676454 -0.022045014048064197 0.012078171573215869 0.040089982712422229 0.0025264070429388556 0.015792129029178533 0.094611534277598067 0.086819882546701754
leaf_weight=179 414 103 822 34 176 22 1217 228 43 45 91 20 69 88 88 62 509 76 27 22 75 33 367 135 41 68 31 676 45 31
leaf_count=179 414 103 822 34 176 22 1217 228 43 45 91 20 69 88 88 62 509 76 27 22 75 33 367 135 41 68 31 676 45 31
internal_value=-5.33602e-11 0.0278924 -0.0227162 0.0593274 0.0191127 0.0919514 -0.0295663 0.0495402 -0.0254027 0.0310438 0.0130373 -0.00918087 0.00845105 0.0166075 0.027264 -0.0107628 -0.0379286 0.0457343 0.056982 -0.0348066 -0.0120098 -0.000756188 0.0270397 -0.0264795 0.037816 0.0295534 -0.0174564 0.0141622 0.0808219 0.0712753
internal_weight=5837 2620 3217 572 2048 132 2136 440 1426 691 1357 1081 89 943 176 992 710 148 72 531 930 108 543 1383 212 109 166 767 110 65
internal_count=5837 2620 3217 572 2048 132 2136 440 1426 691 1357 1081 89 943 176 992 710 148 72 531 930 108 543 1383 212 109 166 767 110 65
is_linear=0
shrinkage=0.05


Tree=4
num_leaves=31
num_cat=0
split_feature=9 9 9 9 9 9 9 7 6 3 9 7 13 3 0 7 0 7 3 4 9 9 3 0 11 9 9 10 0 14
split_gain=1335.12 261.036 108.21 65.9326 53.5908 29.5123 22.1144 20.5079 20.3012 14.801 14.2368 12.1825 9.73055 9.32987 9.08015 7.94374 7.81035 6.99964 10.45 10.0737 6.37688 5.91452 5.97611 13.095 5.87989 5.75405 5.62575 5.47535 5.40698 5.2276
threshold=1.0452462500250002 2.5380456944666672 0.55675736110000007 3.3149022222500002 1.9285006945000001 4.4899437500416672 0.22916680554166666 0.98296291314453421 5.5000000000000009 21.500000000000004 1.3051431945250005 0.91597561503675362 1.707298016215278 6.5000000000000009 21.300000000000001 -0.91597561503675329 34.70000000000001 1.0000000180025095e-35 7.5000000000000009 4.5000000000000009 0.4195211111583334 0.6832648611333334 21.500000000000004 28.900000000000002 1.755305555491667 2.1601613888166669 2.7207668055500003 0.57709263889166673 26.100000000000005 1.2385024591282459
decision_type=2 2 2 2 2 2 2 2 2 2 2 2 2 2 2 2 2 2 2 2 2 2 2 2 2 2 2 2 2 2
left_child=2 4 6 8 10 29 -1 20 26 13 -2 12 21 25 -13 -12 -15 28 -19 -20 -8 -4 -23 -24 -14 -6 -3 -9 -17 -5
right_child=1 3 11 5 9 -7 7 27 -10 -11 15 14 24 16 -16 17 -18 18 19 -21 -22 22 23 -25 -26 -27 -28 -29 -30 -31
leaf_value=-0.040155544013856619 0.0043356357706597409 0.026711741009707093 -0.017644888057980063 0.067711526006460188 0.027662100134129893 0.14021898613057354 -0.030279517290742488 0.020728385517442671 0.057419479383960408 0.059826418443730003 0.0016685918537879608 0.030695868815694541 0.025662590080872179 0.019071495238944445 -0.0030638510658257249 0.0097877837649289652 0.038300303344931313 0.019183909619138295 -0.0029728386138802073 0.019018950096021097 -0.023720829733155716 -0.01174478587595411 -0.010599371278658509 0.033664471128334601 -0.0043498938605981939 0.041831943180843975 0.043125691510611727 -0.013788215890526773 0.026848683903761241 0.089880955484178335
leaf_weight=365 391 93 413 65 149 22 873 27 228 38 92 28 25 302 69 58 64 362 137 84 644 627 55 24 47 138 119 20 233 45
leaf_count=365 391 93 413 65 149 22 873 27 228 38 92 28 25 302 69 58 64 362 137 84 644 627 55 24 47 138 119 20 233 45
internal_value=-5.34815e-11 0.0264978 -0.0215804 0.056361 0.0181571 0.0873539 -0.0290737 -0.0264874 0.0470632 0.0294916 0.0123855 -0.010358 -0.0117458 0.0277263 0.00668122 0.0156437 0.0224339 0.0171148 0.0139535 0.00538603 -0.0274952 -0.0128922 -0.0101119 0.00284787 0.00607111 0.0344755 0.0359252 0.00604047 0.0234482 0.0767808
internal_weight=5837 2620 3217 572 2048 132 1929 1564 440 691 1357 1288 1191 653 97 966 366 874 583 221 1517 1119 706 79 72 287 212 47 291 110
internal_count=5837 2620 3217 572 2048 132 1929 1564 440 691 1357 1288 1191 653 97 966 366 874 583 221 1517 1119 706 79 72 287 212 47 291 110
is_linear=0
shrinkage=0.05


Tree=5
num_leaves=31
num_cat=0
split_feature=9 9 9 9 9 9 9 8 7 8 6 7 9 0 13 12 1 13 14 0 9 6 8 13 9 3 13 3 14 12
split_gain=1204.95 233.18 101.498 59.678 52.8464 24.4118 22.8556 18.848 17.3518 13.2437 17.775 11.8714 11.4768 10.6634 9.61989 9.42655 8.02812 7.94822 7.28665 7.27324 6.24823 6.03445 5.83739 5.63781 5.61657 6.01401 5.43708 5.43379 5.4073 4.93395
threshold=1.0626395833166669 2.6496222221666668 0.60961388892500012 1.9285006945000001 4.4899437500416672 0.3076080555666667 3.120803749991667 0.78656609248549303 0.98296291314453421 0.78656609248549303 4.5000000000000009 0.91597561503675362 1.5277323612000002 20.700000000000006 1.094707833342778 1.7001361111666669 57.410000000000004 1.707298016215278 1.0249066075745776 24.100000000000005 0.20121680549999998 7.5000000000000009 -0.60355339059327384 1.9139502708384726 2.2407890278083338 14.500000000000002 1.3577258796373615 21.500000000000004 0.92589336422570356 0.33531194447500007
decision_type=2 2 2 2 2 2 2 2 2 2 2 2 2 2 2 2 2 2 2 2 2 2 2 2 2 2 2 2 2 2
left_child=2 3 5 9 6 18 14 19 26 12 -11 17 21 -13 -3 -9 -8 -4 20 22 -1 -2 29 -18 -21 -26 -7 -28 -17 -5
right_child=1 4 11 7 -6 8 16 15 -10 10 -12 13 -14 -15 -16 28 23 -19 -20 24 -22 -23 -24 -25 25 -27 27 -29 -30 -31
leaf_value=-0.040764058273414089 0.006837611089560304 0.031569691965003213 -0.010753323247856848 0.016601648955838755 0.13320803980935703 -0.025059546731950391 0.039780556270852689 0.035947733948037762 0.0083502640211304945 0.0085902213325122542 0.036160389538466307 0.040467065714654471 0.015203650331401093 -9.0661796767422024e-05 0.051501734975968771 0.048417549027186452 0.064916741610928017 0.0073210653376120788 -0.0059500313617966392 0.022910312384229678 -0.031114620054561889 -0.0084154888635148885 0.023019793141977735 0.085660857001417567 0.040186332430593663 0.023764038458714224 -0.019400122115830726 0.0051123038555185001 0.08087321526947476 -0.015459326220055422
leaf_weight=290 524 87 947 24 22 1217 20 122 43 114 120 21 502 71 199 33 77 65 22 273 398 74 73 57 137 94 139 27 21 24
leaf_count=290 524 87 947 24 22 1217 20 122 43 114 120 21 502 71 199 33 77 65 22 273 398 74 73 57 137 94 139 27 21 24
internal_value=-8.21486e-11 0.0253744 -0.0203387 0.0184049 0.0575819 -0.0267009 0.0538006 0.0291928 -0.0229292 0.0119272 0.0227288 -0.00802913 0.00962945 0.00916708 0.0454385 0.0436463 0.0693303 -0.00959242 -0.0342762 0.0251228 -0.035182 0.0049501 0.0141146 0.0737407 0.0277656 0.0335037 -0.0239017 -0.0154132 0.0610392 0.000571161
internal_weight=5837 2597 3240 2135 462 2136 440 801 1426 1334 234 1104 1100 92 286 176 154 1012 710 625 688 598 121 134 504 231 1383 166 54 48
internal_count=5837 2597 3240 2135 462 2136 440 801 1426 1334 234 1104 1100 92 286 176 154 1012 710 625 688 598 121 134 504 231 1383 166 54 48
is_linear=0
shrinkage=0.05


Tree=6
num_leaves=31
num_cat=0
split_feature=9 9 9 9 9 9 0 9 7 7 3 8 0 9 9 13 4 3 9 13 13 3 0 12 6 0 12 8 14 13
split_gain=1087.77 213.259 89.1585 53.7709 43.4857 23.9755 17.1892 15.9379 13.8466 13.4803 13.4362 11.4717 15.3637 9.33787 9.21513 9.06845 8.69551 8.5185 8.06173 6.66126 5.95238 5.39344 11.8182 5.11938 7.80008 5.44447 4.88367 4.70982 4.69162 4.5568
threshold=1.0452462500250002 2.5380456944666672 0.52351138885000015 3.3149022222500002 1.9010456944166665 4.4899437500416672 28.250000000000004 0.22916680554166666 0.98296291314453421 0.91597561503675362 21.500000000000004 0.78656609248549303 27.100000000000005 0.6832648611333334 1.3051431945250005 0.91398281480236132 4.5000000000000009 8.5000000000000018 2.1439973610916669 0.96887284953958341 1.707298016215278 21.500000000000004 28.900000000000002 0.22571583338333331 2.5000000000000004 34.500000000000007 1.7228394443916668 0.25881904510252057 0.90208075292960743 1.5668002986334724
decision_type=2 2 2 2 2 2 2 2 2 2 2 2 2 2 2 2 2 2 2 2 2 2 2 2 2 2 2 2 2 2
left_child=2 4 7 6 11 26 17 29 -9 13 15 14 -13 -4 -2 -6 19 -3 -17 -11 21 -15 -23 -16 -25 -26 -5 -20 -8 -1
right_child=1 3 9 5 10 -7 28 8 -10 16 -12 12 -14 20 23 18 -18 -19 27 -21 -22 22 -24 24 25 -27 -28 -29 -30 -31
leaf_value=-0.037609718711830158 0.0018334859863626297 0.039386491172869381 -0.016402645343551348 0.059210128958026569 0.010481669462163641 0.12654763446189463 0.044250171562496401 -0.025367914755603412 0.0041159662168200424 0.030220608379787364 0.054656869956316093 0.0064513724943785697 0.032217369253736583 -0.010619880348790075 -0.0095374580886628899 0.020809573675368859 -0.016458457322983906 0.016354400966235479 0.027110616289330331 0.00099719671102670529 0.0089527572657228729 -0.0095317365923388436 0.032518914388492706 0.028621053763165857 0.0090762834597655842 0.022270907048432792 0.080294663304427888 0.039574578187470753 0.057375145075286953 -0.013618200378758567
leaf_weight=344 334 96 564 57 99 22 151 1385 41 39 39 103 132 627 27 289 29 69 178 39 49 55 24 69 555 91 53 132 124 21
leaf_count=344 334 96 564 57 99 22 151 1385 41 39 39 103 132 627 27 289 29 69 178 39 49 55 24 69 555 91 53 132 124 21
internal_value=-3.72342e-11 0.0239176 -0.0194791 0.05091 0.0163788 0.0788988 0.0425133 -0.0269065 -0.0245202 -0.0101505 0.0260961 0.010916 0.0209242 -0.0115352 0.00873022 0.0245003 0.00691775 0.0297549 0.0268172 0.0156089 -0.00789904 -0.00906864 0.00324314 0.0118347 0.0126417 0.010935 0.069369 0.0324179 0.0501683 -0.0362294
internal_weight=5837 2620 3217 572 2048 132 440 1791 1426 1426 737 1311 235 1319 1076 698 107 165 599 78 755 706 79 742 715 646 110 310 275 365
internal_count=5837 2620 3217 572 2048 132 440 1791 1426 1426 737 1311 235 1319 1076 698 107 165 599 78 755 706 79 742 715 646 110 310 275 365
is_linear=0
shrinkage=0.05


Tree=7
num_leaves=31
num_cat=0
split_feature=9 9 9 9 9 9 8 9 7 7 9 9 12 8 13 4 1 0 7 13 0 13 3 4 0 13 14 9 3 12
split_gain=981.711 192.66 80.4655 49.6197 42.9711 18.826 15.815 14.3839 12.4966 12.1659 11.0205 8.71243 8.34427 8.17428 8.05503 7.8477 6.92474 6.47081 6.27034 7.45504 6.1258 6.01179 5.17373 9.2329 5.07002 4.96515 4.85338 4.57758 5.21174 4.35781
threshold=1.0452462500250002 2.6496222221666668 0.52351138885000015 1.9285006945000001 4.4899437500416672 3.120803749991667 0.78656609248549303 0.22916680554166666 0.98296291314453421 0.91597561503675362 1.403422222166667 0.77503583338333348 1.7001361111666669 1.0000000180025095e-35 1.094707833342778 4.5000000000000009 57.410000000000004 34.250000000000007 0.25881904510252091 1.7364331388962502 24.100000000000005 0.96887284953958341 8.5000000000000018 4.5000000000000009 25.050000000000004 1.9139502708384726 0.86192798135269089 2.2407890278083338 14.500000000000002 2.0398449999666672
decision_type=2 2 2 2 2 2 2 2 2 2 2 2 2 2 2 2 2 2 2 2 2 2 2 2 2 2 2 2 2 2
left_child=2 3 7 10 5 14 20 -1 -9 11 18 -4 -8 17 -3 21 -7 -12 19 29 22 -11 -5 -24 -15 -18 -14 -22 -29 -2
right_child=1 4 9 6 -6 16 12 8 -10 15 13 -13 26 24 -16 -17 25 -19 -20 -21 27 -23 23 -25 -26 -27 -28 28 -30 -31
leaf_value=-0.034417915403689832 0.0047822842743373726 0.028335499086941798 -0.014052225503872546 0.023811561238359324 0.12022025368430399 0.035265793558210135 0.03231300633614425 -0.024099518977082925 0.0039101681422169616 0.028709577988737668 0.0058953230806036445 -0.0056208923981959881 0.042002510150958752 0.0072529952048272315 0.046574477454057739 -0.01563553476128085 0.058525134620631671 0.021535015203768298 -8.9556353682431806e-05 0.032115157826670578 0.020630529319360894 0.00094733686687854628 -0.011089148931205273 0.027786787211274106 0.021866082504444023 0.077992440235653993 0.072064659476280213 0.036414994855826027 0.021127253079271699 0.024883709191494893
leaf_weight=365 207 87 835 55 22 20 122 1385 41 39 311 484 29 72 199 29 77 84 279 35 273 39 42 24 338 57 25 137 94 31
leaf_count=365 207 87 835 55 22 20 122 1385 41 39 311 484 29 72 199 29 77 84 279 35 273 39 42 24 338 57 25 137 94 31
internal_value=-2.31145e-11 0.0227218 -0.0185051 0.0164482 0.0520253 0.0486155 0.0263166 -0.0255612 -0.0232942 -0.00964301 0.0106232 -0.0109584 0.0395561 0.0143545 0.0410263 0.00657186 0.0627099 0.00922123 0.00518183 0.0105691 0.0225884 0.0148285 0.0124857 0.00304756 0.0192999 0.066806 0.0559202 0.0250138 0.030194 0.00740054
internal_weight=5837 2620 3217 2158 462 440 801 1791 1426 1426 1357 1319 176 805 286 107 154 395 552 273 625 78 121 66 410 134 54 504 231 238
internal_count=5837 2620 3217 2158 462 440 801 1791 1426 1426 1357 1319 176 805 286 107 154 395 552 273 625 78 121 66 410 134 54 504 231 238
is_linear=0
shrinkage=0.05


Tree=8
num_leaves=31
num_cat=0
split_feature=9 9 9 9 9 9 0 9 8 9 7 3 10 12 7 0 7 13 0 3 1 7 3 4 9 13 3 0 7 7
split_gain=886.518 141.45 121.861 38.7814 25.9184 19.0962 17.1011 14.9706 14.273 9.3285 9.24495 8.04157 7.97024 7.53071 7.07095 8.80758 6.89769 5.93856 5.62726 7.54192 6.13249 5.55041 8.5504 8.90873 5.39868 5.248 5.08036 14.9404 4.77905 4.72449
threshold=1.3051431945250005 2.6496222221666668 0.60961388892500012 4.4899437500416672 1.9285006945000001 0.4008656944666667 28.050000000000004 0.95596208330833343 0.78656609248549303 3.3149022222500002 0.98296291314453421 8.5000000000000018 0.11512444444166665 1.7001361111666669 0.91597561503675362 21.300000000000001 -0.91597561503675329 1.7819368958236115 28.900000000000002 8.5000000000000018 63.405000000000008 1.0000000180025095e-35 7.5000000000000009 4.5000000000000009 2.1439973610916669 1.8545411388862501 21.500000000000004 27.900000000000002 0.12940952255126045 0.25881904510252091
decision_type=2 2 2 2 2 2 2 2 2 2 2 2 2 2 2 2 2 2 2 2 2 2 2 2 2 2 2 2 2 2
left_child=2 4 5 6 16 12 11 14 18 -8 25 -3 -1 -10 17 -16 -2 26 19 -6 -21 -18 -23 -24 -20 -7 -4 -28 -15 -9
right_child=1 3 7 -5 8 10 9 29 13 -11 -12 -13 -14 28 15 -17 21 -19 24 20 -22 22 23 -25 -26 -27 27 -29 -30 -31
leaf_value=-0.036792840549479365 -0.00018605621678390258 0.040173095581402266 -0.011569892476999254 0.11420924230055376 0.024387603318866562 -0.019259777647394505 0.046659440460872836 0.0073101215877185467 0.030697355625509726 0.065299759242607627 0.0074864107263939716 0.014110523992744478 -0.025457061656030996 0.069144540101289759 0.03530947735533118 -0.0039502449743449687 0.019847071458124699 0.010352912952972426 0.018145886268730295 0.01196625324605842 -0.017218242018398913 0.016123383689011853 -0.0042182522251042976 0.016462872205634735 0.030171063543640932 0.0060222170714821135 -0.01259929178947849 0.028641584073193373 0.039313494632470199 -0.0021423063575962769
leaf_weight=184 92 83 734 22 119 910 213 259 122 98 35 46 986 25 20 50 291 37 159 99 22 362 137 84 226 21 70 32 29 270
leaf_count=184 92 83 734 22 119 910 213 259 122 98 35 46 986 25 20 50 291 37 159 99 22 362 137 84 226 21 70 32 29 270
internal_value=-4.58277e-11 0.0247912 -0.0153158 0.049424 0.0183507 -0.022944 0.0461847 -0.00424666 0.0250008 0.0525332 -0.0177411 0.0308795 -0.0272398 0.0375783 -0.00802331 0.00726682 0.0128365 -0.00924933 0.0214589 0.0154499 0.00665998 0.0142073 0.0113922 0.00364245 0.0252048 -0.0186895 -0.0101169 0.000339022 0.0531242 0.00248563
internal_weight=5837 2229 3608 462 1767 2136 440 1472 801 311 966 129 1170 176 943 70 966 873 625 240 121 874 583 221 385 931 836 102 54 529
internal_count=5837 2229 3608 462 1767 2136 440 1472 801 311 966 129 1170 176 943 70 966 873 625 240 121 874 583 221 385 931 836 102 54 529
is_linear=0
shrinkage=0.05


Tree=9
num_leaves=31
num_cat=0
split_feature=9 9 9 9 9 9 9 6 6 8 0 9 7 7 0 10 6 14 0 13 7 1 8 12 14 11 9 11 13 8
split_gain=800.191 155.982 68.3907 39.4505 31.3041 17.5707 17.2442 13.3645 10.5619 10.4346 15.5263 9.21371 8.47466 8.31901 8.07702 6.9609 6.06661 6.52166 6.08583 5.92955 5.64686 6.1842 5.06389 7.0102 4.96363 5.32094 4.88489 4.61658 4.60303 6.76906
threshold=1.0626395833166669 2.5380456944666672 0.60961388892500012 3.3149022222500002 1.7684799999916669 4.4899437500416672 0.39347597232500003 5.5000000000000009 3.5000000000000004 0.78656609248549303 27.100000000000005 2.1233687500500005 0.98296291314453421 0.91597561503675362 20.700000000000006 0.11512444444166665 2.5000000000000004 0.70354591063988392 34.70000000000001 1.707298016215278 -0.70710678118654735 59.470000000000006 0.91597561503675351 1.7001361111666669 0.76609464212469436 0.69402430562500006 1.5061579167000001 1.755305555491667 1.3577258796373615 0.78656609248549303
decision_type=2 2 2 2 2 2 2 2 2 2 2 2 2 2 2 2 2 2 2 2 2 2 2 2 2 2 2 2 2 2
left_child=2 4 6 7 9 -5 15 -3 24 16 -11 20 28 19 -15 -1 17 -2 26 -4 21 -10 -13 -24 25 -6 -18 -21 -8 -30
right_child=1 3 13 5 8 -7 12 -9 11 10 -12 22 -14 14 -16 -17 18 -19 -20 27 -22 -23 23 -25 -26 -27 -28 -29 29 -31
leaf_value=-0.034953198306586435 0.038743280874634231 0.027505078801735885 -0.0087812300265430847 0.059549800394610934 0.0096259459118300597 0.10849877826192163 -0.019230716803917594 0.044944720135760709 0.021616825589444489 0.0042704902516071041 0.033409189683523903 0.02708195210676282 0.0071120905237538473 0.035166204543340775 -0.00013183923126657454 -0.0243187960891172 -0.00020036903724634844 0.0099821726038847886 0.015661609254418573 0.024246547270255783 0.020846755163476009 -0.013265828357112628 0.029752375399146009 0.066494776627847127 0.0011063120911369124 0.03339192333498172 0.0085786744499973099 -0.003364911166633048 -0.014510369571857154 0.015572751704198513
leaf_weight=184 27 212 947 110 72 22 854 228 24 89 94 260 35 21 71 940 442 73 109 24 388 27 34 21 83 35 247 41 100 23
leaf_count=184 27 212 947 110 72 22 854 228 24 89 94 260 35 21 71 940 442 73 109 24 388 27 34 21 83 35 247 41 100 23
internal_value=3.07285e-11 0.020678 -0.0165743 0.0437341 0.0141654 0.067708 -0.0217968 0.036542 0.0208179 0.00835596 0.0192379 0.0234727 -0.0170622 -0.00646987 0.00792532 -0.0260597 0.00613837 0.0177477 0.00468357 -0.00777853 0.0187908 0.00314954 0.0299977 0.0437813 0.0102822 0.0173999 0.00294684 0.00683009 -0.0179282 -0.00888507
internal_weight=5837 2597 3240 572 2025 132 2136 440 944 1081 183 754 1012 1104 92 1124 898 100 798 1012 439 51 315 55 190 107 689 65 977 123
internal_count=5837 2597 3240 572 2025 132 2136 440 944 1081 183 754 1012 1104 92 1124 898 100 798 1012 439 51 315 55 190 107 689 65 977 123
is_linear=0
shrinkage=0.05


Tree=10
num_leaves=31
num_cat=0
split_feature=9 9 9 9 9 9 1 9 0 8 9 7 3 10 3 14 7 7 0 7 9 13 12 8 3 0 0 13 8 7
split_gain=723.4 115.665 98.891 30.8534 22.162 15.8093 13.8658 12.2876 11.505 11.4882 11.3309 10.9267 8.06812 6.5732 6.57039 6.18315 5.97078 5.71112 7.2862 5.22053 6.31374 4.99638 4.98019 4.84195 4.58009 13.4483 4.47833 4.24453 4.38748 4.22087
threshold=1.3051431945250005 2.6745601388750004 0.60961388892500012 4.4899437500416672 1.9285006945000001 0.3076080555666667 56.285000000000004 0.95596208330833343 28.050000000000004 0.91597561503675351 3.120803749991667 0.98296291314453421 8.5000000000000018 1.3684590278416668 9.5000000000000018 1.0249066075745776 -0.91597561503675329 0.91597561503675362 21.300000000000001 -0.70710678118654735 2.2598163888833338 1.7819368958236115 0.22571583338333331 -0.70710678118654757 21.500000000000004 27.900000000000002 29.100000000000005 1.3577258796373615 0.78656609248549303 0.37940952255126054
decision_type=2 2 2 2 2 2 2 2 2 2 2 2 2 2 2 2 2 2 2 2 2 2 2 2 2 2 2 2 2 2
left_child=2 4 5 6 16 15 23 17 12 19 -8 27 -6 -11 -14 -1 -2 21 -19 -10 -21 24 -18 -3 -4 -26 -12 -7 -29 -24
right_child=1 3 7 -5 8 11 10 -9 9 13 26 -13 14 -15 -16 -17 22 18 -20 20 -22 -23 29 -25 25 -27 -28 28 -30 -31
leaf_value=-0.027637528436868477 -0.00050662502680611594 0.041339810149123274 -0.010562442362361478 0.10307384387335994 0.022258751056544096 -0.019466503164574087 0.039272336380963682 0.0022355661394747087 0.013544591080875412 0.03626704283646847 0.044079641392454509 0.0071500224516142241 -0.013573688947979144 0.069582938700914393 0.012111725810394493 -0.00070988251404328776 -0.0078617027245594991 0.031962183415889737 -0.0037461407631635664 0.021392642320364481 0.034698123006414214 0.0095930721868786057 0.017635410260965611 0.016738113979420936 -0.011530265479315339 0.027596960388473236 0.063992419489659377 -0.014838686460517003 0.0060198454997472221 0.010502253040281044
leaf_weight=688 92 30 734 22 154 1217 192 529 94 57 40 43 34 20 93 22 28 20 50 222 149 37 364 60 70 32 96 135 31 482
leaf_count=688 92 30 734 22 154 1217 192 529 94 57 40 43 34 20 93 22 28 20 50 222 149 37 364 60 70 32 96 135 31 482
internal_value=3.3839e-11 0.0223946 -0.0138352 0.045361 0.016746 -0.020707 0.0423235 -0.00386369 0.0227752 0.0270318 0.0470937 -0.0176717 0.0145649 0.0449205 0.00523532 -0.0268032 0.0116094 -0.00728523 0.00645624 0.0240696 0.0267364 -0.00838706 0.0128847 0.0249387 -0.00918283 0.000744943 0.0581357 -0.0184435 -0.0109434 0.0135714
internal_weight=5837 2229 3608 440 1789 2136 418 1472 823 542 328 1426 281 77 127 710 966 943 70 465 371 873 874 90 836 102 136 1383 166 846
internal_count=5837 2229 3608 440 1789 2136 418 1472 823 542 328 1426 281 77 127 710 966 943 70 465 371 873 874 90 836 102 136 1383 166 846
is_linear=0
shrinkage=0.05


Tree=11
num_leaves=31
num_cat=0
split_feature=9 9 9 9 9 9 6 9 3 9 3 7 10 11 1 14 7 7 4 14 12 8 8 13 13 13 8 3 7 3
split_gain=652.868 104.589 89.2491 28.4245 18.8924 14.5459 13.4542 11.1456 11.0007 8.34738 6.88215 6.73335 6.2041 6.11661 6.67397 5.63417 5.38862 4.52966 6.53138 4.5924 4.49462 4.3709 4.29885 4.887 4.24722 4.21951 4.02295 3.93379 3.85104 5.52339
threshold=1.3051431945250005 2.6496222221666668 0.60961388892500012 4.4899437500416672 1.9285006945000001 0.4008656944666667 3.5000000000000004 0.99145194446666685 21.500000000000004 3.120803749991667 6.5000000000000009 0.98296291314453421 0.11512444444166665 1.7089851389416668 59.035000000000004 1.2061075877330285 -0.91597561503675329 0.91597561503675362 4.5000000000000009 1.0158339090246595 0.22571583338333331 0.91597561503675351 -0.78656609248549325 1.054207421296389 0.74481439815180561 1.8545411388862501 -0.78656609248549325 5.5000000000000009 1.0000000180025095e-35 7.5000000000000009
decision_type=2 2 2 2 2 2 2 2 2 2 2 2 2 2 2 2 2 2 2 2 2 2 2 2 2 2 2 2 2 2
left_child=2 4 5 6 16 12 -3 17 10 -8 15 25 -1 26 -15 -6 -2 19 -19 -4 -18 24 -14 -24 -9 -7 -12 -25 -22 -30
right_child=1 3 7 -5 8 11 9 21 -10 -11 13 -13 22 14 -16 -17 20 18 -20 -21 28 -23 23 27 -26 -27 -28 -29 29 -31
leaf_value=-0.031849229311489542 -0.00048129395705156797 0.022319786047027973 -0.0084893333085481089 0.097920151478187611 0.023741386733718617 -0.016451449768955483 0.037540301467365061 0.021186847701668742 0.046016038564402006 0.053169073415349946 0.022965914287293953 0.0063989841725145061 -0.026026099677244327 0.032340690374131439 0.010447700855521751 0.050505510788588295 -0.0074686177058278444 0.013987077313608357 -0.01765958688034595 0.0084394670864899792 0.017613264641210019 0.018832094192897022 -0.021957519421823793 0.0089351986907422552 -2.6426375233789994e-05 0.0062182417460939013 0.0083598114144082161 -0.014739615982724028 0.014240958969392604 0.0039222128991455328
leaf_weight=184 92 89 868 22 309 910 204 25 43 147 60 35 379 92 56 21 28 56 23 42 286 38 444 20 420 21 220 143 356 204
leaf_count=184 92 89 868 22 309 910 204 25 43 147 60 35 379 92 56 21 28 56 23 42 286 38 444 20 420 21 220 143 356 204
internal_value=2.20758e-11 0.0212748 -0.0131435 0.0424562 0.0157367 -0.0196716 0.039683 -0.00367051 0.0214144 0.0440857 0.0200188 -0.0151307 -0.0234208 0.0158353 0.0240569 0.0254446 0.0110289 -0.006711 0.00477349 -0.007708 0.0122405 0.00255526 -0.021848 -0.0192392 0.00116533 -0.0159401 0.0114897 -0.0118347 0.0128928 0.010482
internal_weight=5837 2229 3608 462 1767 2136 440 1472 801 351 758 966 1170 428 148 330 966 989 79 910 874 483 986 607 445 931 280 163 846 560
internal_count=5837 2229 3608 462 1767 2136 440 1472 801 351 758 966 1170 428 148 330 966 989 79 910 874 483 986 607 445 931 280 163 846 560
is_linear=0
shrinkage=0.05


Tree=12
num_leaves=31
num_cat=0
split_feature=9 9 9 9 9 9 0 6 9 3 1 3 1 8 3 8 12 9 7 10 8 0 7 0 13 3 0 3 0 3
split_gain=589.214 94.3913 80.5881 25.6531 17.4423 13.983 12.4398 11.6721 9.39321 7.66833 7.48146 7.12085 7.81546 6.89029 6.67101 6.23973 9.70062 6.177 5.97743 5.5992 5.32682 4.90474 4.58794 6.58846 4.72199 4.59498 13.6358 3.96342 5.69148 7.59119
threshold=1.3051431945250005 2.6496222221666668 0.62432041669166682 4.4899437500416672 2.1601613888166669 0.4008656944666667 28.050000000000004 4.5000000000000009 0.99145194446666685 21.500000000000004 69.340000000000018 6.5000000000000009 59.035000000000004 -0.5 8.5000000000000018 0.91597561503675351 1.7783388888916667 3.3149022222500002 0.98296291314453421 0.11512444444166665 -0.78656609248549325 25.050000000000004 0.91597561503675362 21.300000000000001 1.7819368958236115 21.500000000000004 27.900000000000002 17.500000000000004 26.100000000000005 21.500000000000004
decision_type=2 2 2 2 2 2 2 2 2 2 2 2 2 2 2 2 2 2 2 2 2 2 2 2 2 2 2 2 2 2
left_child=2 4 5 6 9 19 14 13 22 11 -11 21 -13 20 -3 -9 -17 -8 27 -1 -6 -2 24 -24 25 -4 -27 -7 -29 -30
right_child=1 3 8 -5 7 18 17 15 -10 10 -12 12 -14 -15 -16 16 -18 -19 -20 -21 -22 -23 23 -25 -26 26 -28 28 29 -31
leaf_value=-0.030256768077126017 0.0037430896558798854 0.033109801912298766 -0.009348381791120958 0.093024143451740121 0.017315963562577964 -0.017330165493736144 0.038333756864582465 0.025153234720141884 0.0024274992744494268 0.0091852198325422917 0.038037942518603131 0.013087310627488477 0.002565645371864763 0.022034558059301143 0.0093718744530949909 0.028346568127957789 0.069502913714809864 0.0535020350003425 0.0060790358377354487 -0.020755564765182928 -0.0091320822689127425 0.017652485704190077 0.030240026228129865 -0.003114500821551733 0.010541157079084467 -0.010377425828316649 0.029021624568122208 -0.017636476937623231 -0.010079966168288117 0.014215019454316394
leaf_weight=184 75 83 728 22 32 627 213 256 483 39 53 340 367 86 46 41 22 98 35 986 47 409 20 57 36 70 32 160 149 41
leaf_count=184 75 83 728 22 32 627 213 256 483 39 53 340 367 86 46 41 22 98 35 986 47 409 20 57 36 70 32 160 149 41
internal_value=4.18852e-11 0.0202111 -0.0124863 0.0403334 0.0149499 -0.0185272 0.0376989 0.023038 -0.00324272 0.0118988 0.0258069 0.0108244 0.00762557 0.0122417 0.0246451 0.0286223 0.0427186 0.0431135 -0.0142235 -0.0222498 0.00158105 0.0154971 -0.00614697 0.00554901 -0.00718691 -0.00795584 0.00198306 -0.0149508 -0.0106884 -0.00483736
internal_weight=5837 2229 3608 462 1767 2182 440 484 1426 1283 92 1191 707 165 129 319 63 311 1012 1170 79 484 943 77 866 830 102 977 350 190
internal_count=5837 2229 3608 462 1767 2182 440 484 1426 1283 92 1191 707 165 129 319 63 311 1012 1170 79 484 943 77 866 830 102 977 350 190
is_linear=0
shrinkage=0.05


Tree=13
num_leaves=31
num_cat=0
split_feature=9 9 9 9 9 9 1 0 8 9 7 3 1 3 1 4 7 14 4 1 0 12 7 0 7 12 13 13 1 3
split_gain=531.765 85.5402 72.7708 25.8801 18.1576 12.0821 10.8591 10.7218 14.1951 9.11277 8.45184 6.92066 6.75202 6.42657 7.05345 6.24722 5.95019 5.39371 5.09268 4.797 4.5839 4.4619 4.24107 5.80375 3.98631 5.07288 4.52683 3.85215 3.76632 3.74646
threshold=1.3051431945250005 2.8552650000750006 0.60961388892500012 2.1601613888166669 4.4899437500416672 0.3076080555666667 56.285000000000004 28.050000000000004 -0.60355339059327384 0.95596208330833343 0.98296291314453421 21.500000000000004 69.340000000000018 6.5000000000000009 59.035000000000004 4.5000000000000009 -0.70710678118654735 1.0249066075745776 4.5000000000000009 73.63000000000001 28.250000000000004 0.33531194447500007 0.91597561503675362 21.300000000000001 0.25881904510252091 2.3260730556083336 1.6592695462920835 1.7364331388962502 64.950000000000017 21.500000000000004
decision_type=2 2 2 2 2 2 2 2 2 2 2 2 2 2 2 2 2 2 2 2 2 2 2 2 2 2 2 2 2 2
left_child=2 3 5 11 6 17 -3 8 15 22 -7 13 -13 20 -15 21 28 -1 -8 -20 -2 -5 27 -24 25 26 -11 29 -9 -4
right_child=1 4 9 7 -6 10 18 16 -10 24 -12 12 -14 14 -16 -17 -18 -19 19 -21 -22 -23 23 -25 -26 -27 -28 -29 -30 -31
leaf_value=-0.023865374101009112 0.0098963804559955831 0.017096742894500496 -0.0091956337463518934 0.0069303087890148166 0.088372933441265067 -0.015782070619946235 0.040870829697021029 0.0121728131283276 0.023363523675422923 0.0015307478754349598 0.0067271261540956286 0.0087259591998866733 0.036136045313949858 0.012432945173795281 0.0024373631480141041 0.018849856608236831 0.031747174202324528 0.001284581558270888 0.074048694223165512 0.045331813090226873 0.019628548550826963 -0.02283238014754127 0.028350761234760286 -0.0035186063461005689 -0.0023066238784317477 0.029933357469382738 0.021484367713106401 0.0077576445779058995 0.036164741865580989 0.0010344867768021775
leaf_weight=688 244 40 730 20 22 1383 165 74 171 205 43 39 53 340 367 24 316 22 26 33 240 34 20 50 270 21 33 41 21 102
leaf_count=688 244 40 730 20 22 1383 165 74 171 205 43 39 53 340 367 24 316 22 26 33 240 34 20 50 270 21 33 41 21 102
internal_value=2.53962e-11 0.0192005 -0.011862 0.0154426 0.0447307 -0.0177568 0.0410938 0.0234882 0.0153007 -0.00330812 -0.0151033 0.0113038 0.0245166 0.0102832 0.00724429 -0.00237562 0.0284486 -0.0230861 0.045379 0.0579867 0.0147222 -0.0118092 -0.00625466 0.00558693 0.00194442 0.00637602 0.00429743 -0.00720416 0.0174763 -0.00794146
internal_weight=5837 2229 3608 1943 286 2136 264 660 249 1472 1426 1283 92 1191 707 78 411 710 224 59 484 54 943 70 529 259 238 873 95 832
internal_count=5837 2229 3608 1943 286 2136 264 660 249 1472 1426 1283 92 1191 707 78 411 710 224 59 484 54 943 70 529 259 238 873 95 832
is_linear=0
shrinkage=0.05


Tree=14
num_leaves=31
num_cat=0
split_feature=9 9 9 14 9 9 9 7 13 8 0 0 3 13 3 9 9 14 11 7 0 13 8 0 3 6 13 9 12 14
split_gain=479.953 96.6464 41 25.5001 20.0946 17.2499 7.52636 8.36259 7.44451 6.74017 11.6881 6.40984 5.95208 5.90082 5.68286 5.62235 5.54992 5.16431 4.36751 4.14187 5.36936 4.01811 13.3898 3.72287 4.42088 3.86923 3.70866 3.57808 3.30275 3.20712
threshold=1.0452462500250002 2.5380456944666672 0.50792111115000005 0.88230242873779863 1.7684799999916669 4.4899437500416672 0.21867388061666662 0.98296291314453421 0.91398281480236132 0.78656609248549303 27.100000000000005 24.300000000000001 21.500000000000004 0.73084091898986114 8.5000000000000018 0.64078777790833341 2.1439973610916669 0.7667636871417548 0.69968680553333351 0.91597561503675362 21.300000000000001 1.1417800625088892 0.91597561503675351 34.70000000000001 7.5000000000000009 7.5000000000000009 1.5668002986334724 3.3149022222500002 0.44836611110833341 1.0631120540022194
decision_type=2 2 2 2 2 2 2 2 2 2 2 2 2 2 2 2 2 2 2 2 2 2 2 2 2 2 2 2 2 2
left_child=2 4 6 11 9 27 26 -8 17 13 -11 14 16 28 -3 -4 -10 18 -6 21 -21 -17 -23 24 -15 -26 -1 -5 -2 -18
right_child=1 3 15 5 8 -7 7 -9 12 10 -12 -13 -14 23 -16 19 29 -19 -20 20 -22 22 -24 -25 25 -27 -28 -29 -30 -31
leaf_value=-0.026136123644830141 0.037346339076757433 0.025022120633247227 -0.011024442938374733 0.037852161245620145 0.0037488136688868206 0.09001816408265205 -0.017250864272327703 0.0051507840582797693 0.013286359641627062 0.0018266091683063279 0.026917602286971723 0.029658854548426823 0.034228962462825273 0.0074514930870537583 0.00059718087847743717 -0.0088198978909043504 0.020087287156800908 -0.011992110728340992 0.028623107567429543 0.027841225976035711 -0.0012400878220796586 -0.0044259282801834537 0.031992327690952359 0.012174472237079913 0.0012073258361084461 -0.012062512574687836 -0.0039465765515342352 0.05156831912463531 0.0098349013327000048 0.035961124073300099
leaf_weight=322 20 55 529 140 60 21 1337 43 463 89 97 242 52 272 42 466 274 34 25 21 65 387 27 110 429 63 20 72 24 36
leaf_count=322 20 55 529 140 60 21 1337 43 463 89 97 242 52 272 42 466 274 34 25 21 65 387 27 110 429 63 20 72 24 36
internal_value=-2.76035e-11 0.0158873 -0.012939 0.0340583 0.0108122 0.0467923 -0.0181984 -0.0165528 0.0161682 0.00623238 0.0149117 0.025306 0.0178546 0.00447382 0.0144464 -0.00688093 0.016753 0.0044771 0.0110648 -0.00461186 0.00586116 -0.00563536 -0.00205082 0.00357437 0.00233614 -0.000491861 -0.0248385 0.0425105 0.0223401 0.0219307
internal_weight=5837 2620 3217 572 2048 233 1722 1380 944 1104 186 339 825 918 97 1495 773 119 85 966 86 880 414 874 764 492 342 212 44 310
internal_count=5837 2620 3217 572 2048 233 1722 1380 944 1104 186 339 825 918 97 1495 773 119 85 966 86 880 414 874 764 492 342 212 44 310
is_linear=0
shrinkage=0.05


Tree=15
num_leaves=31
num_cat=0
split_feature=9 9 9 13 3 9 9 3 9 1 9 0 7 10 9 3 7 3 0 1 0 3 14 13 7 0 7 12 7 13
split_gain=434.494 70.1505 59.0136 19.7914 18.2864 12.8955 11.431 8.31288 6.55281 6.37056 5.29551 5.11881 5.04086 4.99501 4.53804 5.44731 4.52138 4.26163 10.6035 3.9837 3.91602 3.85653 3.8431 3.77434 4.15435 4.4568 3.60493 3.57489 3.53222 4.50207
threshold=1.3051431945250005 2.6496222221666668 0.63021500004166675 1.9652840879625002 18.500000000000004 1.9285006945000001 0.42961861110833338 21.500000000000004 0.95596208330833343 58.110000000000007 3.5270245833916669 24.100000000000005 0.98296291314453421 0.11512444444166665 2.2407890278083338 14.500000000000002 -0.91597561503675329 21.500000000000004 26.850000000000005 66.230000000000018 33.300000000000004 1.5000000000000002 1.2385024591282459 1.7819368958236115 0.91597561503675362 21.850000000000005 0.25881904510252091 0.22571583338333331 0.25881904510252091 1.6592695462920835
decision_type=2 2 2 2 2 2 2 2 2 2 2 2 2 2 2 2 2 2 2 2 2 2 2 2 2 2 2 2 2 2
left_child=2 5 6 9 10 16 13 11 23 20 -5 -7 17 -1 -13 26 -2 -8 -19 -15 -3 -21 27 24 -4 -26 -16 -18 29 -10
right_child=1 3 8 4 -6 7 12 -9 28 -11 -12 14 -14 19 15 -17 22 18 -20 21 -22 -23 -24 -25 25 -27 -28 -29 -30 -31
leaf_value=-0.026369488984346393 -0.0016126614448654911 0.011367275253672836 -0.0070520404189763691 0.035747835008231435 0.093964439275718875 0.0070955817099838036 -0.013288965546329759 0.038897010848619219 0.0031667760690791652 0.032677015182215406 0.059734704187422084 0.014168361114601097 0.01066091537475586 -0.019413978890869165 0.036270183402424057 0.012725510348149754 -0.0081084196322730607 -0.015966464327384699 0.019197764555509721 0.0033831090412356638 0.034048294820464578 -0.014675400817183069 0.028975557055897438 0.010967631599701502 0.025721124345436691 -0.0025510839186608791 0.022304716647436568 0.010059852340931597 -0.0023151518631439778 0.022005380833571828
leaf_weight=187 92 71 774 76 21 126 783 43 222 235 33 337 25 804 72 94 28 53 36 33 26 284 26 34 20 46 129 820 270 37
leaf_count=187 92 71 774 76 21 126 783 43 222 235 33 337 25 804 72 94 28 53 36 33 26 284 26 34 20 46 129 820 270 37
internal_value=-2.58679e-11 0.0173558 -0.0107223 0.034703 0.051241 0.0128202 -0.0158231 0.017511 -0.00270576 0.0282272 0.0430099 0.0162978 -0.0114759 -0.0188044 0.0181324 0.0226609 0.00893069 -0.0121105 -0.00174273 -0.0175424 0.0174467 -0.0127955 0.0100405 -0.0053642 -0.00602525 0.00601625 0.0273073 0.00945996 0.00168645 0.00585801
internal_weight=5837 2229 3608 462 130 1767 2205 801 1403 332 109 758 897 1308 632 295 966 872 89 1121 97 317 874 874 840 66 201 848 529 259
internal_count=5837 2229 3608 462 130 1767 2205 801 1403 332 109 758 897 1308 632 295 966 872 89 1121 97 317 874 874 840 66 201 848 529 259
is_linear=0
shrinkage=0.05


Tree=16
num_leaves=31
num_cat=0
split_feature=9 9 9 9 1 9 9 0 8 4 9 3 1 3 1 7 10 7 4 1 0 12 13 1 8 13 3 3 3 3
split_gain=392.131 63.6711 53.3359 18.642 14.3736 16.6723 10.9267 8.28541 11.9391 5.64986 5.49584 5.35656 5.7602 5.29442 6.30247 4.90258 4.508 4.50055 4.33193 4.25813 4.00866 4.0048 3.9638 3.59529 3.49944 3.62428 3.48052 3.33576 3.73982 3.32025
threshold=1.3051431945250005 2.8552650000750006 0.64078777790833341 2.1601613888166669 56.285000000000004 4.4899437500416672 0.42961861110833338 28.050000000000004 -0.60355339059327384 4.5000000000000009 0.99145194446666685 21.500000000000004 69.340000000000018 6.5000000000000009 59.035000000000004 -0.70710678118654735 0.11512444444166665 0.98296291314453421 4.5000000000000009 73.63000000000001 25.050000000000004 0.33531194447500007 1.8545411388862501 66.230000000000018 0.91597561503675351 0.74481439815180561 1.5000000000000002 16.500000000000004 12.500000000000002 21.500000000000004
decision_type=2 2 2 2 2 2 2 2 2 2 2 2 2 2 2 2 2 2 2 2 2 2 2 2 2 2 2 2 2 2
left_child=2 3 6 11 -3 18 16 8 9 21 29 13 -13 20 27 -9 -1 22 -6 -20 -2 -5 -8 -18 25 -12 -25 28 -15 -4
right_child=1 4 10 7 5 -7 17 15 -10 -11 24 12 -14 14 -16 -17 23 -19 19 -21 -22 -23 -24 26 -26 -27 -28 -29 -30 -31
leaf_value=-0.02505101476681424 0.002238206454863151 0.011497035374244055 -0.0057981703008707546 0.0054484987258911141 0.035101472045802933 0.086905055716633803 -0.011956308059540861 0.014475155818815295 0.020271332639511894 0.016851203457918018 0.019175198137760165 0.0067725634984433271 0.03208958438711839 0.0075192696114970469 0.0015331840327222723 0.027428979217958976 -0.018443279926762431 0.010127869486808778 0.066020242884182012 0.038964336963765556 0.014812972913294108 -0.022748503702528337 0.0071498349400436773 0.003213953430002386 0.01648794769456512 -0.00042074010916708391 -0.013941630681330653 0.0027893573398814426 0.019791347610400745 0.0041028570460988891
leaf_weight=187 75 42 779 20 165 20 890 95 171 24 25 39 53 118 367 316 804 25 26 33 409 34 28 33 38 420 284 91 131 95
leaf_count=187 75 42 779 20 165 20 890 95 171 24 25 39 53 118 367 316 804 25 26 33 409 34 28 33 38 420 284 91 131 95
internal_value=-2.06651e-11 0.016488 -0.0101862 0.0132459 0.0385142 0.0431647 -0.0149063 0.0200743 0.0128769 -0.00333398 -0.00235652 0.0097332 0.0213574 0.00883528 0.00607702 0.0244348 -0.0178641 -0.0108035 0.0392593 0.0508873 0.0128644 -0.0123052 -0.0113735 -0.0166653 0.00192383 0.000680155 -0.0121557 0.0109817 0.0139757 -0.00472197
internal_weight=5837 2229 3608 1943 286 244 2251 660 249 78 1357 1283 92 1191 707 411 1308 943 224 59 484 54 918 1121 483 445 317 340 249 874
internal_count=5837 2229 3608 1943 286 244 2251 660 249 78 1357 1283 92 1191 707 411 1308 943 224 59 484 54 918 1121 483 445 317 340 249 874
is_linear=0
shrinkage=0.05


Tree=17
num_leaves=31
num_cat=0
split_feature=9 9 9 13 3 9 9 3 7 4 9 3 1 14 9 3 11 1 14 0 7 6 8 14 8 14 13 0 9 7
split_gain=353.898 57.77 48.2124 16.6558 15.6833 10.6499 8.6356 7.13319 6.19584 6.34859 5.96927 5.37687 5.08242 4.54156 4.38763 4.22621 4.43083 5.17958 4.30435 3.97017 3.79811 3.62672 7.89006 3.62553 3.46668 3.44992 3.35659 3.74749 3.3401 3.26604
threshold=1.3051431945250005 2.6496222221666668 0.60961388892500012 1.9652840879625002 18.500000000000004 1.9285006945000001 0.3076080555666667 21.500000000000004 0.91597561503675362 4.5000000000000009 0.95596208330833343 5.5000000000000009 64.950000000000017 1.0249066075745776 3.5270245833916669 6.5000000000000009 1.7089851389416668 59.035000000000004 1.2061075877330285 31.050000000000004 -0.91597561503675329 4.5000000000000009 0.91597561503675351 0.73049496467594344 -0.78656609248549325 1.2385024591282459 1.1332221226855557 22.900000000000002 0.00072240324999995004 0.78656609248549325
decision_type=2 2 2 2 2 2 2 2 2 2 2 2 2 2 2 2 2 2 2 2 2 2 2 2 2 2 2 2 2 2
left_child=2 5 6 12 14 20 13 15 21 11 29 -10 26 28 -5 18 24 23 -7 -14 -2 -8 -23 -18 -17 -22 27 -3 -1 -4
right_child=1 3 10 4 -6 7 8 -9 9 -11 -12 -13 19 -15 -16 16 17 -19 -20 -21 25 22 -24 -25 -26 -27 -28 -29 -30 -31
leaf_value=-0.030668609719427805 -0.0016503326985833197 0.022449939049637088 -0.0062228226177133417 0.032344182317396379 0.08614313630830675 0.017449846299377219 -0.014850747810514554 0.035621028718386974 -0.0063475245024476731 -0.016795239979174079 0.0015367029636058718 0.020815021750566209 0.027850632367663105 0.0033822664483027023 0.054178232981851607 0.018363047527770203 0.040333178767870216 0.0064167464348429352 0.040843175067788083 0.050754881328681403 0.0084801320331846577 -0.011137937005647511 0.016028641729519285 0.018969274820188904 0.0048043148483107381 0.026970515908816686 0.025196598790999915 -0.0032901461461498855 -0.018589537215377205 0.0026068765227682889
leaf_weight=63 92 26 823 76 21 309 942 43 35 41 529 38 191 22 33 60 29 56 21 21 848 341 29 63 220 26 63 31 625 120
leaf_count=63 92 26 823 76 21 309 942 43 35 41 529 38 191 22 33 60 29 56 21 21 848 341 29 63 220 26 63 31 625 120
internal_value=-1.3848e-11 0.0156636 -0.00967689 0.0314058 0.0465773 0.0115477 -0.014475 0.0158105 -0.0122317 -0.00105085 -0.00271443 0.00779188 0.0254651 -0.0189805 0.0389545 0.0146867 0.0114084 0.0184058 0.0189385 0.0301194 0.008013 -0.0132032 -0.00900866 0.0257035 0.00770976 0.00903019 0.0172424 0.00845095 -0.0196956 -0.00509921
internal_weight=5837 2229 3608 462 130 1767 2136 801 1426 114 1472 73 332 710 109 758 428 148 330 212 966 1312 370 92 280 874 120 57 688 943
internal_count=5837 2229 3608 462 130 1767 2136 801 1426 114 1472 73 332 710 109 758 428 148 330 212 966 1312 370 92 280 874 120 57 688 943
is_linear=0
shrinkage=0.05


Tree=18
num_leaves=31
num_cat=0
split_feature=9 9 9 9 13 3 9 0 8 8 9 7 4 4 3 0 0 3 3 1 7 12 7 12 0 1 7 7 0 6
split_gain=319.393 52.2041 43.6154 15.3871 12.3778 11.8987 7.13219 7.1174 10.6031 6.34557 6.2018 5.68121 5.80795 5.02811 4.65874 5.2602 4.87325 4.65797 4.54119 5.59065 4.20626 3.86767 4.65155 3.58966 3.5829 3.30307 3.25386 5.4395 5.24569 4.78001
threshold=1.3051431945250005 2.8552650000750006 0.55675736110000007 2.1601613888166669 1.9652840879625002 16.500000000000004 0.8803609722000002 28.050000000000004 -0.60355339059327384 1.0000000180025095e-35 0.25557541673333334 0.91597561503675362 4.5000000000000009 4.5000000000000009 21.500000000000004 28.250000000000004 30.700000000000006 5.5000000000000009 6.5000000000000009 59.035000000000004 -0.70710678118654735 2.2783898611666671 1.0000000180025095e-35 0.33531194447500007 28.250000000000004 64.950000000000017 0.78656609248549325 0.25881904510252091 21.300000000000001 4.5000000000000009
decision_type=2 2 2 2 2 2 2 2 2 2 2 2 2 2 2 2 2 2 2 2 2 2 2 2 2 2 2 2 2 2
left_child=2 3 10 14 9 -6 26 8 13 -3 -1 -12 17 23 18 -16 -17 -13 24 -20 25 -8 -23 -5 -2 -9 27 29 -28 -4
right_child=1 4 6 7 5 -7 21 20 -10 -11 11 12 -14 -15 15 16 -18 -19 19 -21 -22 22 -24 -25 -26 -27 28 -29 -30 -31
leaf_value=-0.019247641668868408 0.0073809983978357146 0.012310335257986808 -0.0082134979208703159 0.0045457706600427628 0.040301070161986835 0.083117265850305558 -0.00041657202599074865 0.0079980415163083459 0.018446101417100569 0.032907235130711691 -0.013609352382942806 -0.0056252124082101021 -0.016840860365136042 0.015242803405271843 0.0043365918099880219 0.040553526655504747 0.010522410823878918 0.019656364465398452 0.0099808676474083986 0.0010819245805318038 0.024963345960916546 0.027166873187725916 -0.0022635717466473579 -0.022149796258000769 0.015985177060550391 0.030466083827472869 0.019140032341238112 -0.014881676228983063 -0.0045730613529422256 0.00020517836059702357
leaf_weight=480 244 53 449 20 86 20 613 74 171 127 1334 38 42 24 35 35 22 35 340 367 316 29 25 34 240 21 32 175 86 270
leaf_count=480 244 53 449 20 86 20 613 74 171 127 1334 38 42 24 35 35 22 35 340 367 316 29 25 34 240 21 32 175 86 270
internal_value=-7.42011e-11 0.0148804 -0.00919305 0.0119447 0.0348248 0.0483796 -0.00330058 0.0181485 0.0114776 0.0268426 -0.0143218 -0.0126901 -0.00202697 -0.00379936 0.0087534 0.019594 0.0289626 0.00649609 0.00791601 0.00536147 0.0221899 0.00071348 0.0135417 -0.0122625 0.0116475 0.0129647 -0.0059462 -0.00697624 0.00185761 -0.0050521
internal_weight=5837 2229 3608 1943 286 106 1679 660 249 180 1929 1449 115 78 1283 92 57 73 1191 707 411 667 54 54 484 95 1012 894 118 719
internal_count=5837 2229 3608 1943 286 106 1679 660 249 180 1929 1449 115 78 1283 92 57 73 1191 707 411 667 54 54 484 95 1012 894 118 719
is_linear=0
shrinkage=0.05


Tree=19
num_leaves=31
num_cat=0
split_feature=9 9 9 9 9 9 13 3 13 12 13 10 8 0 9 0 12 7 7 4 3 13 1 9 3 14 10 8 4 13
split_gain=288.252 47.5673 39.6758 13.5206 8.72824 8.46168 8.00198 5.99366 5.93809 5.54578 4.98575 5.29706 4.7306 4.32595 3.72693 3.67411 3.43696 3.42118 3.31134 6.98888 4.52243 5.02616 4.22097 3.20897 4.22983 3.31494 3.15562 3.6156 4.16179 3.55453
threshold=1.3051431945250005 2.6496222221666668 0.64078777790833341 3.5270245833916669 1.9285006945000001 0.42961861110833338 1.9652840879625002 21.500000000000004 1.5043199953786113 1.9121618055666667 1.707298016215278 0.21167347219999996 0.1294095225512602 34.150000000000013 0.00072240324999995004 24.100000000000005 0.22571583338333331 -0.91597561503675329 0.91597561503675362 4.5000000000000009 17.500000000000004 1.3577258796373615 72.510000000000005 2.2407890278083338 14.500000000000002 0.73991243228122705 0.37867986110000001 -0.78656609248549325 4.5000000000000009 1.0447286134369447
decision_type=2 2 2 2 2 2 2 2 2 2 2 2 2 2 2 2 2 2 2 2 2 2 2 2 2 2 2 2 2 2
left_child=2 4 5 8 16 14 -5 15 -3 -8 11 -4 13 -12 -1 -6 -2 -18 20 22 -7 -22 -20 -17 -25 -26 -16 28 -28 -29
right_child=1 3 10 6 7 18 9 -9 -10 -11 12 -13 -14 -15 26 23 17 -19 19 -21 21 -23 -24 24 25 -27 27 29 -30 -31
leaf_value=-0.026985246439774832 -0.0094572544284164915 0.018363754479354951 0.020377641827023278 0.030275492294735851 0.0054343157041344854 -0.012901065423214271 0.045235034493872756 0.032420040515446384 0.030990276210276148 0.080256050378084198 -0.0073941192142665388 -0.0033418397726030962 0.023707368668607055 0.017442301328992472 -0.018489523539981487 0.011451436491808005 -0.0015323825179237045 0.0087215293545584369 0.025938961260880418 -0.020247997302562 -0.0084659466831534021 0.0071074443772886301 -0.0042000301714454381 0.022687232833754144 0.021236360319399916 0.0021032361762731203 -0.018860767951149396 -0.013480746466527872 0.00096347386756076906 -0.0047576960610673253
leaf_weight=66 30 199 24 42 126 535 26 43 175 20 50 1222 34 27 394 337 90 846 26 25 272 64 21 201 38 56 304 336 29 179
leaf_count=66 30 199 24 42 126 535 26 43 175 20 50 1222 34 27 394 337 90 846 26 25 272 64 21 201 38 56 304 336 29 179
internal_value=-3.65968e-11 0.0141364 -0.00873339 0.028421 0.0104016 -0.0128044 0.0460546 0.0142607 0.0242719 0.0604616 -0.00198038 -0.00288496 0.00817375 0.00131476 -0.0154073 0.0132305 0.00720164 0.00773558 -0.00919398 0.00111128 -0.0100458 -0.00549959 0.0124726 0.0147849 0.0185929 0.0098379 -0.0147921 -0.0130742 -0.0171343 -0.0104489
internal_weight=5837 2229 3608 462 1767 2251 88 801 374 46 1357 1246 111 77 1308 758 966 936 943 72 871 336 47 632 295 94 1242 848 333 515
internal_count=5837 2229 3608 462 1767 2251 88 801 374 46 1357 1246 111 77 1308 758 966 936 943 72 871 336 47 632 295 94 1242 848 333 515
is_linear=0
shrinkage=0.05


Tree=20
num_leaves=31
num_cat=0
split_feature=9 9 9 0 9 9 7 1 3 0 7 4 3 13 8 3 1 0 7 4 8 10 9 3 0 2 3 6 14 10
split_gain=261.315 56.8209 20.5728 19.4656 14.2254 11.8761 5.55622 7.0219 5.54403 18.7628 6.73626 10.3298 5.15921 4.53181 4.58748 4.36028 5.34841 4.35976 6.77629 7.65119 5.36374 7.09286 4.0535 4.04345 4.03287 3.95143 3.92458 3.7503 3.54637 3.40303
threshold=0.99145194446666685 2.4373455556166674 0.42961861110833338 28.050000000000004 4.4899437500416672 1.5277323612000002 -0.70710678118654735 64.950000000000017 21.500000000000004 26.250000000000004 0.91597561503675362 4.5000000000000009 8.5000000000000018 1.3711414976809724 0.1294095225512602 5.5000000000000009 74.77500000000002 24.100000000000005 0.78656609248549325 3.5000000000000004 0.91597561503675351 1.292158472241667 3.3149022222500002 22.500000000000004 34.150000000000013 9.3500000000000032 19.500000000000004 2.5000000000000004 0.78681101910453122 0.27571736108333339
decision_type=2 2 2 2 2 2 2 2 2 2 2 2 2 2 2 2 2 2 2 2 2 2 2 2 2 2 2 2 2 2
left_child=2 5 29 12 6 23 7 -5 10 -10 13 15 -3 -4 24 -12 -17 18 19 -7 -19 -22 -8 -2 -15 -21 -16 -20 -11 -1
right_child=1 3 8 4 -6 17 22 -9 9 28 11 -13 -14 14 26 16 -18 20 27 25 21 -23 -24 -25 -26 -27 -28 -29 -30 -31
leaf_value=-0.019534805542238617 0.0019854709218048634 0.018464715764663804 -0.0097669707525024352 0.0073316117050126195 0.070200604386627674 -0.020130408707847623 0.027737102119317569 0.038871575929224494 -0.011943805694834076 0.010720011873248343 -0.00068120378335671762 -0.016866165881409594 0.0027268828171224373 -0.01147950570901028 0.018093561585538272 0.034762603260817065 0.0048896421260874847 0.01012716843669818 0.028490071480387243 -0.0047965033135066431 0.014455215658614729 0.041314362481352875 0.040283784427311883 0.021658137040557687 0.0035246682153620688 0.025295639643445611 -0.0034073833677790719 0.0023384448713981189 0.031648921637263683 -0.013308979060677465
leaf_weight=279 801 120 1182 60 21 47 256 25 110 48 42 46 92 144 41 31 29 940 29 24 106 32 86 27 65 20 44 26 35 1029
leaf_count=279 801 120 1182 60 21 47 256 25 110 48 42 46 92 144 41 31 29 940 29 24 106 32 86 27 65 20 44 26 35 1029
internal_value=-3.04356e-11 0.0113563 -0.00985546 0.0241176 0.0300246 0.00725178 0.0280487 0.0166081 -0.0064134 0.00159821 -0.00736552 0.00280396 0.0116351 -0.00838523 -0.00283005 0.0116748 0.020324 0.0103803 0.00227177 -0.00610255 0.0114785 0.0206834 0.0308921 0.00262697 -0.00681314 0.00888174 0.00696366 0.0161275 0.0195455 -0.014637
internal_weight=5837 2712 3125 660 448 2052 427 85 1817 193 1624 148 212 1476 294 102 60 1224 146 91 1078 138 342 828 209 44 85 55 83 1308
internal_count=5837 2712 3125 660 448 2052 427 85 1817 193 1624 148 212 1476 294 102 60 1224 146 91 1078 138 342 828 209 44 85 55 83 1308
is_linear=0
shrinkage=0.05


Tree=21
num_leaves=31
num_cat=0
split_feature=9 9 9 0 9 9 7 1 3 3 7 4 7 13 10 13 9 7 0 7 8 10 3 9 4 0 13 0 13 13
split_gain=235.948 48.3145 21.4812 17.5677 12.8384 9.08678 5.01449 6.33727 4.65619 4.63218 4.38509 5.00122 4.21986 5.2986 8.78528 4.07117 4.0618 5.28417 4.01749 6.7733 5.64673 6.41024 3.7288 3.72588 3.54272 3.93079 3.51627 3.37835 3.36678 3.13074
threshold=1.0626395833166669 2.4373455556166674 0.50792111115000005 28.050000000000004 4.4899437500416672 1.5277323612000002 -0.70710678118654735 64.950000000000017 8.5000000000000018 22.500000000000004 0.91597561503675362 4.5000000000000009 0.25881904510252091 1.3711414976809724 0.95596208330833343 2.0582494814633336 0.20121680549999998 0.98296291314453421 25.050000000000004 0.78656609248549325 0.91597561503675351 1.292158472241667 18.500000000000004 3.5270245833916669 3.5000000000000004 23.900000000000002 0.81714690511013888 34.250000000000007 0.8654837592737501 1.5668002986334724
decision_type=2 2 2 2 2 2 2 2 2 2 2 2 2 2 2 2 2 2 2 2 2 2 2 2 2 2 2 2 2 2
left_child=2 5 16 8 6 9 7 -5 -3 15 12 -12 13 -4 -15 28 29 -18 19 24 -20 -22 27 -8 25 -7 -26 -16 -2 -1
right_child=1 3 10 4 -6 18 23 -9 -10 -11 11 -13 -14 14 22 -17 17 -19 20 -21 21 -23 -24 -25 26 -27 -28 -29 -30 -31
leaf_value=-0.019536802069742936 0.010807125117235746 0.01754147975346617 -0.0056763469241268467 0.006965031141104798 0.066690572719311433 -0.021763617212050841 0.027137602408143599 0.036927997489459817 0.0025905387136963727 0.02390236592339352 0.011166834799084991 -0.011329304911196233 -0.0099689934672821754 0.029784941728468295 -0.014184706503147028 0.017899774039458288 -0.012259306146286654 0.0053417043675753201 0.0097231964113889263 0.016235160763000155 0.014874883519713673 0.041635559200598249 0.0070568425310561546 0.041671993991789912 0.02166973765177483 0.0014608259046716351 -0.0038398463784583975 0.0038130415684215473 -0.00026647407908344292 0.00094979109242558472
leaf_weight=276 78 120 800 60 21 38 290 25 92 25 84 35 377 27 64 38 1382 44 900 67 98 29 87 52 22 35 35 44 572 20
leaf_count=276 78 120 800 60 21 38 290 25 92 25 84 35 377 27 64 38 1382 44 900 67 98 29 87 52 22 35 35 44 572 20
internal_value=-6.47943e-12 0.0112285 -0.00900009 0.0229118 0.0285233 0.00724757 0.0266463 0.0157777 0.0110533 0.00276057 -0.00466391 0.00455032 -0.00544767 -0.00377983 0.00305447 0.00199233 -0.0128226 -0.0117162 0.00986132 0.00332085 0.0111159 0.0209856 -0.000646677 0.0293475 -0.00333499 -0.0106286 0.00600596 -0.00685229 0.00106236 -0.0181526
internal_weight=5837 2597 3240 660 448 1937 427 85 212 713 1518 119 1399 1022 222 688 1722 1426 1224 197 1027 127 195 342 130 73 57 108 650 296
internal_count=5837 2597 3240 660 448 1937 427 85 212 713 1518 119 1399 1022 222 688 1722 1426 1224 197 1027 127 195 342 130 73 57 108 650 296
is_linear=0
shrinkage=0.05


Tree=22
num_leaves=31
num_cat=0
split_feature=9 9 9 6 9 9 3 0 7 4 7 1 1 10 9 0 1 7 8 10 4 13 12 8 6 1 0 0 6 9
split_gain=213.159 46.2198 16.9683 15.9467 14.1002 9.60437 4.96853 16.7788 5.58095 8.7823 4.03045 4.15807 4.00414 5.01813 3.87131 3.62579 6.48446 5.24525 5.09617 5.78524 4.27056 3.43319 4.80355 3.97478 9.15321 5.93906 3.59349 3.32223 4.16503 3.19784
threshold=0.99145194446666685 2.4373455556166674 0.42961861110833338 5.5000000000000009 4.4899437500416672 1.5277323612000002 21.500000000000004 26.250000000000004 0.91597561503675362 4.5000000000000009 -0.70710678118654735 64.950000000000017 74.660000000000011 0.54934555553333342 0.56333916674166684 25.050000000000004 44.885000000000012 0.78656609248549325 0.91597561503675351 1.292158472241667 3.5000000000000004 0.83072375232166673 0.42924597220833333 0.60355339059327384 5.5000000000000009 78.870000000000019 34.900000000000006 34.050000000000004 5.5000000000000009 3.3149022222500002
decision_type=2 2 2 2 2 2 2 2 2 2 2 2 2 2 2 2 2 2 2 2 2 2 2 2 2 2 2 2 2 2
left_child=2 5 -1 -3 10 21 8 -8 14 12 11 -5 13 -10 -4 16 -7 20 -17 -20 -18 22 -2 26 -25 -26 -23 -16 -29 -12
right_child=1 3 6 4 -6 15 7 -9 9 -11 29 -13 -14 -15 27 18 17 -19 19 -21 -22 23 -24 24 25 -27 -28 28 -30 -31
leaf_value=-0.013243635322411604 0.026871011664413594 0.012655649355528107 -0.011097385679625919 0.0020542233018204571 0.06926497928798199 -0.010888434983870208 -0.010996772018261255 0.018781084990330849 0.032262135322459716 -0.015557029090173867 0.025215499177083579 0.030687388750014918 0.00045633407271638215 0.00052213037386536606 -0.0066963622870658233 0.0092370365633525787 -0.008515214311833285 0.020324631229879622 0.014131139463992144 0.039553781242334635 0.015197353542692239 -0.002265403754338547 0.001635447497987612 -0.00082783760103796213 0.036551845342748697 0.0051910626379629739 0.0085486923083458299 -0.0038295359865654836 0.018957485254564935 0.036648139705149727
leaf_weight=1308 33 278 516 32 20 58 110 83 33 46 225 21 49 20 866 900 49 59 98 29 31 493 44 105 36 26 91 65 29 84
leaf_count=1308 33 278 516 32 20 58 110 83 33 46 225 21 49 20 866 900 49 59 98 29 31 493 44 105 36 26 91 65 29 84
internal_value=3.84478e-12 0.0102567 -0.00890116 0.0217662 0.0283963 0.0065548 -0.00577514 0.00180925 -0.00667649 0.00257993 0.0261384 0.0133994 0.0107593 0.0202848 -0.00760464 0.00936825 0.0031548 0.00901457 0.0105601 0.0199363 0.000673406 0.00239577 0.0124507 0.00136484 0.00816713 0.0234005 -0.000580331 -0.00572729 0.0032005 0.0283234
internal_weight=5837 2712 3125 660 382 2052 1817 193 1624 148 362 53 102 53 1476 1224 197 139 1027 127 80 828 77 751 167 62 584 960 94 309
internal_count=5837 2712 3125 660 382 2052 1817 193 1624 148 362 53 102 53 1476 1224 197 139 1027 127 80 828 77 751 167 62 584 960 94 309
is_linear=0
shrinkage=0.05


Tree=23
num_leaves=31
num_cat=0
split_feature=9 9 9 0 9 9 3 7 1 3 9 7 4 13 8 2 7 4 7 13 10 13 8 0 0 11 9 12 3 13
split_gain=192.45 39.2997 17.4748 14.7957 10.3081 7.34182 4.12653 4.0877 5.30907 4.00265 3.76042 3.70831 6.32374 4.16545 8.50075 4.27704 3.67699 4.03431 3.68336 4.49118 8.02048 3.5637 3.31044 5.20114 4.86843 3.7232 3.12482 3.03009 2.98721 2.94075
threshold=1.0626395833166669 2.4373455556166674 0.50792111115000005 28.050000000000004 4.4899437500416672 1.5277323612000002 8.5000000000000018 -0.70710678118654735 64.950000000000017 22.500000000000004 0.00072240324999995004 0.98296291314453421 3.5000000000000004 1.054207421296389 0.78656609248549303 11.100000000000001 0.91597561503675362 4.5000000000000009 0.25881904510252091 1.3829137523025001 0.95596208330833343 2.0582494814633336 1.0000000180025095e-35 34.500000000000007 24.100000000000005 2.2468479166666668 3.5270245833916669 0.33256124998333342 18.500000000000004 0.96887284953958341
decision_type=2 2 2 2 2 2 2 2 2 2 2 2 2 2 2 2 2 2 2 2 2 2 2 2 2 2 2 2 2 2
left_child=2 5 10 6 7 9 27 8 -5 21 -1 13 -13 -12 -15 -16 18 29 19 -4 -21 -2 23 -7 -24 -25 -9 -3 -22 -18
right_child=1 3 16 4 -6 22 -8 26 -10 -11 11 12 -14 14 15 -17 17 -19 -20 20 28 -23 24 25 -26 -27 -28 -29 -30 -31
leaf_value=-0.023279792047811276 0.00093297802114214456 1.2660332140512765e-05 -0.0051027057466238495 0.0062667015846818693 0.060027580814702178 0.0037171227032969296 0.0018282293250946248 0.024560814369269168 0.033691482082009318 0.022169929336756468 -0.013204938074539659 0.017498906772455265 -0.018050448969006538 -0.010492241366533511 -0.011327418826875234 0.015265485233868715 0.019082795337519862 -0.010041952872914928 -0.0091591226671784085 0.029050500547656646 -0.006158168625332556 0.016686089040319384 -0.0038847215454645306 0.0089129652360604855 0.012490493152177193 0.028292054821474427 0.037871335722649328 0.019875760005864627 0.0063833760844846793 0.00035088333534076814
leaf_weight=66 650 24 804 60 21 452 92 290 25 25 1121 29 22 409 21 54 44 35 377 26 106 38 49 68 616 39 52 96 86 40
leaf_count=66 650 24 804 60 21 452 92 290 25 25 1121 29 22 409 21 54 44 35 377 26 106 38 49 68 616 39 52 96 86 40
internal_value=-1.47548e-11 0.0101408 -0.00812826 0.0206779 0.0258277 0.00655042 0.00979516 0.0241457 0.0143328 0.00251719 -0.0115759 -0.0111094 0.00216389 -0.0115312 -0.00765468 0.00781947 -0.00421728 0.00422025 -0.00493499 -0.00337677 0.00298861 0.00180306 0.00889984 0.00606371 0.0112839 0.0159764 0.0265846 0.0159031 -0.000540602 0.0101628
internal_weight=5837 2597 3240 660 448 1937 212 427 85 713 1722 1656 51 1605 484 75 1518 119 1399 1022 218 688 1224 559 665 107 342 120 192 84
internal_count=5837 2597 3240 660 448 1937 212 427 85 713 1722 1656 51 1605 484 75 1518 119 1399 1022 218 688 1224 559 665 107 342 120 192 84
is_linear=0
shrinkage=0.05


Tree=24
num_leaves=31
num_cat=0
split_feature=9 9 9 14 9 8 0 3 0 3 7 4 10 13 7 3 10 4 3 1 3 13 10 13 0 8 6 1 0 4
split_gain=173.919 37.5885 14.0044 13.368 7.7579 6.89689 5.35797 4.34423 14.9202 5.23241 4.63822 7.35305 4.15005 5.39282 4.09501 4.02351 3.95315 3.7329 3.71776 4.43383 3.45847 3.34363 3.18525 3.10762 4.1183 3.75036 8.01593 5.35877 3.3506 3.15822
threshold=0.99145194446666685 2.4373455556166674 0.42961861110833338 0.90208075292960743 1.5277323612000002 0.78656609248549303 30.850000000000005 21.500000000000004 27.300000000000001 22.500000000000004 0.91597561503675362 4.5000000000000009 0.24098972227499998 1.1573527337993059 0.12940952255126045 17.500000000000004 1.7503865277500004 1.5000000000000002 5.5000000000000009 74.77500000000002 17.500000000000004 1.7819368958236115 0.72287541672500011 0.8654837592737501 22.900000000000002 0.60355339059327384 5.5000000000000009 78.870000000000019 34.900000000000006 2.5000000000000004
decision_type=2 2 2 2 2 2 2 2 2 2 2 2 2 2 2 2 2 2 2 2 2 2 2 2 2 2 2 2 2 2
left_child=2 4 -1 12 23 -5 -7 10 -9 -10 21 18 -3 17 -8 -15 -17 -14 -12 -20 22 -4 -19 24 -2 28 -27 -28 -25 -26
right_child=1 3 7 5 -6 6 14 8 9 -11 11 -13 13 15 -16 16 -18 20 19 -21 -22 -23 -24 25 29 26 27 -29 -30 -31
leaf_value=-0.011985255436840416 0.020794136069562971 0.035929349082566446 -0.0073485544506538027 0.022608162962837686 0.0084548476695661037 0.027575887383102595 0.067679465189576155 -0.0082459010294682923 0.010853799225085161 0.040282279123430666 -0.0015297007214810168 -0.014200295297347981 0.018000319927930834 0.014700237123480359 0.037505755006619124 0.047288886209328973 0.018590939896447316 -0.00050827454829561536 0.031012475947218555 0.0038133220411917385 -0.016679832720685572 0.0054417825945354305 0.018378611498117221 -0.0024801694557870391 -0.012113658610731364 -0.0011101970432287793 0.034399890052413361 0.0046105857069890666 0.0079823472785282429 0.013559426043344581
leaf_weight=1308 49 21 1423 152 1224 43 22 126 44 23 42 46 50 177 23 21 28 69 31 29 21 53 33 481 25 97 36 26 91 23
leaf_count=1308 49 21 1423 152 1224 43 22 126 44 23 42 46 50 177 23 21 28 69 31 29 21 53 33 481 25 97 36 26 91 23
internal_value=-3.09361e-11 0.00926464 -0.00804023 0.019644 0.00592626 0.0290574 0.0401971 -0.00520032 0.00189159 0.0209561 -0.00604314 0.00239535 0.0142648 0.0131246 0.0522573 0.0182104 0.0308901 0.00648071 0.00987966 0.0178662 0.00179794 -0.00688928 0.00560219 0.00218835 0.0105973 0.00107252 0.0078653 0.0219076 -0.000815678 0.000188028
internal_weight=5837 2712 3125 660 2052 240 88 1817 193 67 1624 148 420 399 45 226 49 173 102 60 123 1476 102 828 97 731 159 62 572 48
internal_count=5837 2712 3125 660 2052 240 88 1817 193 67 1624 148 420 399 45 226 49 173 102 60 123 1476 102 828 97 731 159 62 572 48
is_linear=0
shrinkage=0.05


Tree=25
num_leaves=31
num_cat=0
split_feature=9 9 9 0 9 9 3 0 7 4 7 1 3 3 1 13 3 14 14 8 0 0 11 3 9 13 12 8 0 6
split_gain=156.962 33.9236 12.6389 12.3955 8.64332 7.00151 3.92067 13.5457 4.186 6.63613 3.52875 4.66614 3.48594 3.35528 4.00153 3.21192 3.69423 2.99589 3.30367 2.98767 4.69402 4.39376 3.36019 2.89599 2.85336 2.81094 4.29698 3.13254 7.53893 3.1084
threshold=0.99145194446666685 2.4373455556166674 0.42961861110833338 28.050000000000004 4.4899437500416672 1.5277323612000002 21.500000000000004 26.250000000000004 0.91597561503675362 4.5000000000000009 -0.70710678118654735 64.950000000000017 8.5000000000000018 5.5000000000000009 74.77500000000002 1.3503285833302778 8.5000000000000018 0.78681101910453122 0.72631773851675197 1.0000000180025095e-35 34.500000000000007 24.100000000000005 2.2468479166666668 9.5000000000000018 0.00072240324999995004 0.83072375232166673 0.42924597220833333 0.60355339059327384 26.250000000000004 7.5000000000000009
decision_type=2 2 2 2 2 2 2 2 2 2 2 2 2 2 2 2 2 2 2 2 2 2 2 2 2 2 2 2 2 2
left_child=2 5 24 12 10 25 8 -8 15 13 11 -5 -3 -10 -15 -4 -17 18 -9 20 -7 -21 -22 -14 -1 26 -2 29 -29 -27
right_child=1 3 6 4 -6 19 7 17 9 -11 -12 -13 23 14 -16 16 -18 -19 -20 21 22 -23 -24 -25 -26 27 -28 28 -30 -31
leaf_value=-0.021516539607987259 0.02481591468394706 0.014314703690858247 -0.0077572861808675175 0.0051559550206487382 0.054692105629614421 0.0031085243422795082 -0.0097092770825309514 0.020020923617162876 -0.0014532159880868026 -0.0134902803875182 0.024101293651432709 0.030866580240428449 -0.012033435921849949 0.02946185273749213 0.0036226562055727018 0.016794225554864775 -0.0036180834084094888 0.028170788341334893 -0.0065860369591973725 -0.0041132278645373121 0.008044574782937108 0.01144322613330729 0.026454709529972233 0.0072459511662600565 -0.010847654394952966 0.00086203964515001337 0.00094803866125981915 -0.0059569808058299581 0.015772552502809536 -0.0098035616328633283
leaf_weight=66 33 120 1162 60 21 452 110 28 42 46 342 25 28 31 29 24 290 35 20 49 68 616 39 64 1242 505 44 66 101 79
leaf_count=66 33 120 1162 60 21 452 110 28 42 46 342 25 28 31 29 24 290 35 20 49 68 616 39 64 1242 505 44 66 101 79
internal_value=1.81516e-11 0.00880141 -0.00763821 0.0186618 0.0233754 0.00562995 -0.00494031 0.00179701 -0.00574099 0.00227558 0.0218353 0.0127179 0.0087008 0.00938568 0.0169729 -0.00654482 -0.00205791 0.0170463 0.00893469 0.00803211 0.00533778 0.010297 0.0147548 0.00137831 -0.011386 0.00207893 0.0111771 0.00114609 0.00718483 -0.000580739
internal_weight=5837 2712 3125 660 448 2052 1817 193 1624 148 427 85 212 102 60 1476 314 83 48 1224 559 665 107 92 1308 828 77 751 167 584
internal_count=5837 2712 3125 660 448 2052 1817 193 1624 148 427 85 212 102 60 1476 314 83 48 1224 559 665 107 92 1308 828 77 751 167 584
is_linear=0
shrinkage=0.05


Tree=26
num_leaves=31
num_cat=0
split_feature=9 9 9 14 9 3 9 13 1 3 14 0 7 7 3 4 0 11 14 11 4 7 0 10 2 4 0 3 1 13
split_gain=141.77 29.008 13.4067 9.02597 6.64089 5.47352 4.06538 4.03094 4.41326 3.89599 3.79929 3.74347 4.22779 5.1104 3.8558 5.03673 3.76059 4.06779 3.67459 6.26482 3.47779 3.2807 3.07266 2.9979 3.3011 2.98475 3.91391 2.92388 2.79983 2.74923
threshold=1.0626395833166669 2.5380456944666672 0.60961388892500012 0.90208075292960743 1.7817958333583335 18.500000000000004 0.3076080555666667 0.91398281480236132 29.055000000000003 21.500000000000004 1.0249066075745776 15.700000000000001 1.0000000180025095e-35 -0.91597561503675329 7.5000000000000009 4.5000000000000009 26.850000000000005 1.4635752777583335 0.7667636871417548 0.58192847220833344 1.5000000000000002 0.91597561503675362 23.900000000000002 2.0330745832833341 18.550000000000001 4.5000000000000009 16.100000000000005 3.5000000000000004 74.335000000000022 0.94480058798208355
decision_type=2 2 2 2 2 2 2 2 2 2 2 2 2 2 2 2 2 2 2 2 2 2 2 2 2 2 2 2 2 2
left_child=2 4 6 20 11 27 10 8 -6 -9 -1 -2 13 23 -14 -16 -15 -18 19 -10 -3 -8 -22 24 -13 26 -23 -5 -11 -24
right_child=1 3 -4 5 7 -7 21 9 18 28 -12 12 14 16 15 -17 17 -19 -20 -21 22 25 29 -25 -26 -27 -28 -29 -30 -31
leaf_value=-0.013034083668669134 0.023240388654496361 0.021032132351036195 -0.0025026069537054121 0.029999145298368404 -0.021003509238362313 0.046372551868359251 -0.0084564235376025712 0.0094102558586622934 0.0007660944803016416 0.013609239597073093 0.0080738171935081492 -0.010995888991024473 0.0036764402422957082 -7.8589844051748527e-05 -0.0091712041713374985 0.0050590476886320269 0.018310863951248299 0.0060352006785333494 -0.010539086941363556 0.032987267655235804 0.00067616352124229805 0.022491891168057918 0.030147971229797062 -0.015799377724215448 0.010287941859711949 -0.010409000952069354 -0.0019056640788524721 0.017662751410174576 0.037760808995170966 0.011267526783884908
leaf_weight=688 23 109 1104 90 20 30 1312 754 48 28 22 29 346 80 180 95 137 133 28 22 62 25 22 32 49 41 48 103 21 156
leaf_count=688 23 109 1104 90 20 30 1312 754 48 28 22 29 346 80 180 95 137 133 28 22 62 25 22 32 49 41 48 103 21 156
internal_value=-3.98227e-11 0.00870369 -0.00697638 0.0186465 0.00589516 0.0265039 -0.00928867 0.00903007 0.000401083 0.0102981 -0.01238 0.00327989 0.0028552 0.00648833 0.000163995 -0.0042553 0.00944281 0.012264 0.00476937 0.0108927 0.0136258 -0.00774949 0.0102621 -0.00291229 0.00237472 0.000386459 0.00644966 0.0234155 0.0239599 0.0136011
internal_weight=5837 2597 3240 572 2025 223 2136 921 118 803 710 1104 1081 460 621 275 350 270 98 70 349 1426 240 110 78 114 73 193 49 178
internal_count=5837 2597 3240 572 2025 223 2136 921 118 803 710 1104 1081 460 621 275 350 270 98 70 349 1426 240 110 78 114 73 193 49 178
is_linear=0
shrinkage=0.05


Tree=27
num_leaves=31
num_cat=0
split_feature=9 9 9 9 1 0 12 0 3 8 0 11 10 3 0 3 7 4 3 3 1 6 13 3 12 9 13 0 4 13
split_gain=128.06 28.1273 10.7109 10.4425 7.0288 9.27228 4.8202 4.58365 6.44401 4.31046 9.67649 4.39863 4.5512 3.55106 12.4372 4.7402 3.62238 5.80172 3.51983 3.49591 8.88942 4.07361 3.21468 3.3477 3.19546 2.95848 2.93021 3.55401 3.00408 2.89305
threshold=0.99145194446666685 2.2407890278083338 3.120803749991667 0.42961861110833338 56.285000000000004 32.050000000000004 1.7228394443916668 28.900000000000002 8.5000000000000018 0.78656609248549303 28.250000000000004 0.31250208333333335 1.9285006945000001 21.500000000000004 27.300000000000001 22.500000000000004 0.91597561503675362 4.5000000000000009 9.5000000000000018 7.5000000000000009 67.640000000000015 2.5000000000000004 0.96887284953958341 5.5000000000000009 2.4080576388750008 1.6090647222000001 0.73084091898986114 34.70000000000001 4.5000000000000009 1.7819368958236115
decision_type=2 2 2 2 2 2 2 2 2 2 2 2 2 2 2 2 2 2 2 2 2 2 2 2 2 2 2 2 2 2
left_child=3 9 7 -1 -4 6 -6 8 -3 19 -11 -12 -13 16 -15 -16 29 22 -10 21 26 -2 23 -18 -22 -23 -21 28 -28 -5
right_child=1 2 4 13 5 -7 -8 -9 18 10 11 12 -14 14 15 -17 17 -19 -20 20 24 25 -24 -25 -26 -27 27 -29 -30 -31
leaf_value=-0.010305856757102013 0.027093475210763843 0.014357090712217494 -0.0014741459116339685 -0.0063839185587770651 0.01474110698637863 0.061797272730618719 0.033698980196526174 0.015987083832453074 -0.014386140150683267 0.00091620067468316984 0.039233952645389814 0.01151949933759604 0.037089213244616989 -0.0072906767712935571 0.0097555922682989737 0.037765736197647844 0.0025835430106291406 -0.012492976236440566 0.0044217566677997276 0.015926934788962278 -0.0083654619644604328 0.00081241568524404372 -0.0019305853900022625 0.026269312843547339 0.01118883170268458 0.0084940648723537716 -0.0020270455286405479 0.0097525996625855843 0.0059382925293403775 0.005513442848053462
leaf_weight=1308 23 156 20 1423 60 20 76 405 35 166 21 134 20 126 44 23 26 46 86 51 228 201 41 35 23 333 282 168 204 53
leaf_count=1308 23 156 20 1423 60 20 76 405 35 166 21 134 20 126 44 23 26 46 86 51 228 201 41 35 23 333 282 168 204 53
internal_value=-7.02316e-12 0.00794991 0.0154351 -0.00689925 0.0264321 0.0300098 0.0253352 0.0125971 0.00764066 0.00448591 0.00956422 0.0177675 0.0148402 -0.00444695 0.00196494 0.019371 -0.00520895 0.00224843 -0.00101854 0.00334136 0.00150681 0.00649007 0.00889651 0.0161737 -0.00657363 0.00560266 0.00438368 0.00348352 0.00131643 -0.00595671
internal_weight=5837 2712 858 3125 176 156 136 682 277 1854 341 175 154 1817 193 67 1624 148 121 1513 956 557 102 61 251 534 705 654 486 1476
internal_count=5837 2712 858 3125 176 156 136 682 277 1854 341 175 154 1817 193 67 1624 148 121 1513 956 557 102 61 251 534 705 654 486 1476
is_linear=0
shrinkage=0.05


Tree=28
num_leaves=31
num_cat=0
split_feature=9 9 9 9 1 0 14 10 8 12 13 1 8 10 9 7 7 10 13 14 12 3 0 7 1 1 1 2 7 10
split_gain=115.583 20.8694 18.7549 6.72339 6.34349 8.36824 4.59813 4.59597 4.47557 4.35023 4.19434 4.21239 5.9013 3.93432 3.69154 3.35261 3.33188 5.07951 3.26128 3.5432 3.34548 3.09044 4.86422 3.05738 4.39798 3.75248 3.61497 4.08353 3.50828 5.46287
threshold=1.403422222166667 0.64078777790833341 3.120803749991667 2.1601613888166669 56.285000000000004 32.050000000000004 0.91794112790493232 0.20121680549999998 0.91597561503675351 1.7228394443916668 1.707298016215278 74.77500000000002 0.1294095225512602 0.24098972227499998 0.22916680554166666 -0.91597561503675329 0.98296291314453421 0.43086361113333332 0.88400096761236124 0.84248958293180776 1.3608963888333336 22.500000000000004 27.100000000000005 1.0000000180025095e-35 45.390000000000008 70.260000000000005 38.795000000000009 11.300000000000002 -0.60355339059327362 1.4181718056000003
decision_type=2 2 2 2 2 2 2 2 2 2 2 2 2 2 2 2 2 2 2 2 2 2 2 2 2 2 2 2 2 2
left_child=1 14 3 15 -4 9 13 -3 -8 -6 21 12 -12 -5 -1 -2 -16 -18 -15 -20 -21 -9 -23 25 -25 26 -17 -28 -27 -30
right_child=2 7 4 6 5 -7 8 10 -10 -11 11 -13 -14 18 16 23 17 -19 19 20 -22 22 -24 24 -26 28 27 -29 29 -31
leaf_value=-0.012869777008015003 -0.003409295997239257 0.023129167426377537 -0.0014004383236169817 0.031298971641808747 0.014004051888672014 0.058707410134375096 0.015180041729840206 -0.0023260017539129228 0.036614506606590651 0.032014031318555534 0.0050416493336524586 -0.010574564535636455 0.032075569706244603 0.0010037955795732243 -0.0077195695415595489 0.019396059988363787 0.024876399366185072 -0.0078776411969086226 0.012309175719046057 -0.010724052217389857 0.012953880099722974 -0.0010358450137765 0.029427937997970735 -0.0095127376572539408 0.0057163245095980366 0.0016971180392872721 -0.008806924957861291 0.0085195694069521953 0.0151902965830893 0.046185976692608433
leaf_weight=365 95 20 20 20 60 20 152 1307 29 76 80 26 27 110 1837 47 20 29 398 35 26 38 20 51 673 21 47 123 44 21
leaf_count=365 95 20 20 20 60 20 152 1307 29 76 80 26 27 110 1837 47 20 29 398 35 26 38 20 51 673 21 47 123 44 21
internal_value=-2.18402e-11 -0.00521176 0.0094986 0.00804633 0.0251105 0.0285093 0.0116443 -0.000681074 0.0186143 0.0240685 -0.000998968 0.00747694 0.0118633 0.00950239 -0.0082671 0.00557716 -0.00737634 0.00549135 0.00873625 0.0105893 -0.000631819 -0.00182483 0.00946891 0.00640842 0.00464356 0.0106255 0.00712256 0.0037293 0.0194642 0.0252043
internal_weight=5837 3769 2068 1892 176 156 770 1518 181 136 1498 133 107 589 2251 1122 1886 49 569 459 61 1365 58 1027 724 303 217 170 86 65
internal_count=5837 3769 2068 1892 176 156 770 1518 181 136 1498 133 107 589 2251 1122 1886 49 569 459 61 1365 58 1027 724 303 217 170 86 65
is_linear=0
shrinkage=0.05


Tree=29
num_leaves=31
num_cat=0
split_feature=9 9 9 9 3 0 3 8 0 1 8 3 14 11 3 3 12 9 13 8 7 4 7 12 13 1 12 12 6 1
split_gain=104.746 22.8973 8.78327 8.70084 5.93948 3.91709 5.62379 3.65356 6.20854 5.00745 4.49764 3.9423 3.62302 3.52373 3.15487 3.07653 2.84867 2.77043 2.8311 5.21985 2.94492 5.17198 2.68772 2.92101 2.72872 2.58797 3.06953 2.51619 2.46009 2.45763
threshold=0.99145194446666685 2.2407890278083338 0.50792111115000005 3.120803749991667 18.500000000000004 28.900000000000002 8.5000000000000018 1.0000000180025095e-35 28.250000000000004 58.875000000000007 0.91597561503675351 7.5000000000000009 1.2527810183523462 0.3544190277833334 9.5000000000000018 3.5000000000000004 2.3260730556083336 0.00072240324999995004 1.3371458009309725 0.78656609248549303 0.98296291314453421 3.5000000000000004 -0.70710678118654735 1.5496234721083335 1.8136909236108336 55.345000000000006 0.60548972223333342 0.33256124998333342 4.5000000000000009 67.640000000000015
decision_type=2 2 2 2 2 2 2 2 2 2 2 2 2 2 2 2 2 2 2 2 2 2 2 2 2 2 2 2 2 2
left_child=2 7 17 5 12 6 27 9 -9 -2 25 28 15 -12 -8 -5 29 -1 20 -20 -19 -22 23 24 -7 -10 -27 -3 -11 -13
right_child=1 3 -4 4 -6 22 14 8 10 11 13 16 -14 -15 -16 -17 -18 18 19 -21 21 -23 -24 -25 -26 26 -28 -29 -30 -31
leaf_value=-0.018678199037006408 0.0055828230709246765 -0.0008020076900720597 -0.0033029853050529469 0.020642384710566453 0.044117970118920012 0.017762268573176445 -0.013941320159605572 0.0021207378673022289 -0.0088675383732400147 0.020170907624065877 0.038480565063655381 -0.0011177437814365099 0.030281240097247066 0.015016067824908533 0.0038648388695058434 0.0018167578067411396 0.0093930853626636029 -0.009384077726285342 -0.0059557704234546533 0.017501630075275897 0.016712809357278306 -0.015436608081852848 0.016882653805279719 -0.0091185729684574272 -0.0023355693245927494 0.022641802139373293 0.0072300110156795694 0.015983234005330436 0.0024194989845240386 -0.0098784721761974222
leaf_weight=66 454 27 1403 60 30 57 35 457 22 25 20 149 52 80 86 34 34 1422 155 28 29 22 303 21 24 36 315 129 89 173
leaf_count=66 454 27 1403 60 30 57 35 457 22 25 20 149 52 80 86 34 34 1422 155 28 29 22 303 21 24 36 315 129 89 173
internal_value=-9.50706e-12 0.00718991 -0.00623969 0.0139434 0.023855 0.0113856 0.00680366 0.00406451 0.00627693 0.00183772 0.0102925 -0.00177989 0.0196914 0.019709 -0.0012857 0.0138331 -0.00437122 -0.00863238 -0.008232 -0.00236666 -0.00896069 0.00284443 0.0145194 0.00749907 0.0118074 0.00776802 0.00881071 0.0130781 0.00631235 -0.00582459
internal_weight=5837 2712 3125 858 176 682 277 1854 930 924 473 470 146 100 121 94 356 1722 1656 183 1473 51 405 102 81 373 351 156 114 322
internal_count=5837 2712 3125 858 176 682 277 1854 930 924 473 470 146 100 121 94 356 1722 1656 183 1473 51 405 102 81 373 351 156 114 322
is_linear=0
shrinkage=0.05


Tree=30
num_leaves=31
num_cat=0
split_feature=9 9 9 9 1 0 10 14 8 12 13 1 8 10 13 9 7 10 8 14 7 13 7 0 3 0 7 1 1 1
split_gain=94.6382 17.1383 15.2272 5.42599 5.40009 7.35709 4.13336 3.96274 3.97698 3.95192 3.71739 3.74333 5.25663 3.57022 3.43269 4.47357 3.37156 5.94755 3.17378 2.99415 3.26294 3.1178 2.99169 2.95981 2.73626 4.28486 2.58657 4.00649 3.23963 3.09895
threshold=1.403422222166667 0.64078777790833341 3.120803749991667 2.1601613888166669 56.285000000000004 32.050000000000004 0.20121680549999998 0.91794112790493232 0.91597561503675351 1.7228394443916668 1.707298016215278 74.77500000000002 0.1294095225512602 0.24098972227499998 1.8545411388862501 0.20121680549999998 0.98296291314453421 0.43086361113333332 0.1294095225512602 0.84248958293180776 -0.5 0.88400096761236124 -0.91597561503675329 34.150000000000013 22.500000000000004 26.250000000000004 1.0000000180025095e-35 45.390000000000008 70.530000000000015 38.795000000000009
decision_type=2 2 2 2 2 2 2 2 2 2 2 2 2 2 2 2 2 2 2 2 2 2 2 2 2 2 2 2 2 2
left_child=1 14 3 22 -4 9 -3 13 -9 -6 24 12 23 -5 15 -1 -17 -18 -16 21 -21 -15 -2 -12 -8 -26 28 -28 29 -24
right_child=2 6 4 7 5 -7 10 8 -10 -11 11 -13 -14 19 18 16 17 -19 -20 20 -22 -23 26 -25 25 -27 27 -29 -30 -31
leaf_value=-0.013556671903426777 -0.0034207346851594361 0.021969916364178062 -0.0017980503104627133 0.02929377084597945 0.012041615900816397 0.054113069744780667 -0.0021607560989692419 0.013751869922577355 0.033957173238540521 0.029207306242498916 -0.0039347999200055545 -0.0099490477381130836 0.030279049222116119 0.0014502140764324437 -0.0067647976885465066 -0.0072336014323205597 0.026219215385970621 -0.0082435646845448411 0.020410331280436369 -0.01691945894078041 0.0061913921492218619 0.011136160957002218 0.018173536798109281 0.015396853377266477 -0.0033122838329290973 0.024014624820735592 -0.0092813656215559384 0.0052541005027999235 0.018667442510884844 0.0037555411398514276
leaf_weight=289 95 20 20 20 60 20 1307 152 29 76 44 26 27 105 22 1867 21 31 21 24 42 398 47 36 32 26 51 673 76 180
leaf_count=289 95 20 20 20 60 20 1307 152 29 76 44 26 27 105 22 1867 21 31 21 24 42 398 47 36 32 26 51 673 76 180
internal_value=-7.09583e-13 -0.00471597 0.00859501 0.00728643 0.0226622 0.0257982 -0.000610216 0.0105186 0.0169892 0.0216342 -0.000911687 0.00706778 0.0112027 0.00853024 -0.00748475 -0.00775723 -0.00688384 0.0056741 0.00650678 0.00780041 -0.00221255 0.00911424 0.00506824 0.00476444 -0.00168917 0.00893771 0.00585349 0.00423019 0.00973227 0.00674076
internal_weight=5837 3769 2068 1892 176 156 1518 770 181 136 1498 133 107 589 2251 2208 1919 52 43 569 66 503 1122 80 1365 58 1027 724 303 227
internal_count=5837 3769 2068 1892 176 156 1518 770 181 136 1498 133 107 589 2251 2208 1919 52 43 569 66 503 1122 80 1365 58 1027 724 303 227
is_linear=0
shrinkage=0.05


Tree=31
num_leaves=31
num_cat=0
split_feature=9 9 9 13 3 8 14 6 3 13 9 6 14 9 12 9 7 4 3 13 13 12 7 7 7 0 8 0 0 12
split_gain=85.7519 17.9206 8.46121 5.51178 6.77352 5.44338 10.2909 7.00992 4.9684 4.20005 3.94002 4.8999 4.21455 3.53074 3.28871 3.09097 3.08204 5.79968 2.93072 3.31427 2.78143 2.74529 3.34912 2.62384 3.92208 3.8073 5.94117 10.3454 3.68052 3.70387
threshold=1.0626395833166669 2.6496222221666668 0.55675736110000007 1.5143788472255557 18.500000000000004 0.78656609248549303 1.0249066075745776 4.5000000000000009 14.500000000000002 1.8858752291638889 1.7684799999916669 2.5000000000000004 0.70354591063988392 0.20121680549999998 2.7420675000166672 3.120803749991667 0.98296291314453421 3.5000000000000004 16.500000000000004 1.1332221226855557 0.95306593056458333 0.73799805559166676 -0.37940952255126059 0.78656609248549325 0.25881904510252091 24.500000000000004 0.91597561503675351 28.900000000000002 21.300000000000001 0.41481847221666662
decision_type=2 2 2 2 2 2 2 2 2 2 2 2 2 2 2 2 2 2 2 2 2 2 2 2 2 2 2 2 2 2
left_child=2 5 9 18 8 10 7 -7 -5 13 11 12 -2 -1 21 -6 -15 -18 -3 -20 -14 -9 -23 24 25 -4 -27 -28 29 -25
right_child=1 3 23 4 15 6 -8 14 -10 -11 -12 -13 20 16 -16 -17 17 -19 19 -21 -22 22 -24 28 -26 26 27 -29 -30 -31
leaf_value=-0.012878838345846711 0.028624584553418337 0.013254928321243489 -0.0076135622008961833 0.020315517624787227 0.025727778402644966 -0.00090410266661591064 0.042509038655249326 0.020919988590308972 -0.0032006288448778483 0.013706533448851628 0.0060962483117654202 5.555482958951139e-06 -0.0021948512312438754 -0.0072686395831822893 0.032562956783804109 0.052856080908150908 0.019245687300960226 -0.015514455623924735 -0.015583463722751253 0.010142705637601114 0.017876668793282337 -0.010451934628543401 0.010867611992211703 0.0011191783845424653 -0.0085592106669627587 -0.0013824502765653654 0.0018441524496302009 0.044393502473831177 -0.00067893208082144463 0.031184436327644754
leaf_weight=289 27 177 202 165 21 139 23 57 26 23 827 798 45 1567 20 21 30 20 21 31 28 21 150 20 262 607 50 20 129 21
leaf_count=289 27 177 202 165 21 139 23 57 26 23 827 798 45 1567 20 21 30 20 21 31 28 21 150 20 262 607 50 20 129 21
internal_value=2.64263e-12 0.00676914 -0.00542576 0.0156978 0.021112 0.00483703 0.0100156 0.00808444 0.0171144 -0.0075322 0.00360619 0.001313 0.0117464 -0.00778849 0.0131224 0.0392919 -0.00687871 0.00534163 0.0101891 -0.000246709 0.00550381 0.0114171 0.00824942 -0.00232635 -0.00318977 -0.00158932 0.000208169 0.0140011 0.00346867 0.0165185
internal_weight=5837 2597 3240 462 233 2135 410 387 191 1929 1725 898 100 1906 248 42 1617 50 229 52 73 228 171 1311 1141 879 677 70 170 41
internal_count=5837 2597 3240 462 233 2135 410 387 191 1929 1725 898 100 1906 248 42 1617 50 229 52 73 228 171 1311 1141 879 677 70 170 41
is_linear=0
shrinkage=0.05


Tree=32
num_leaves=31
num_cat=0
split_feature=9 9 0 9 8 9 14 1 12 3 0 3 7 4 1 10 14 7 13 12 14 13 14 8 12 6 3 13 2 9
split_gain=77.4909 17.4842 7.33432 6.30738 6.10436 3.72146 3.04914 2.88516 3.50731 2.6359 9.71753 3.3316 3.01291 5.32813 3.22133 4.76885 2.84001 2.42728 2.4075 2.37682 2.2153 3.25916 6.24773 2.7075 6.39613 3.67982 2.27654 2.204 2.18945 2.36047
threshold=0.95596208330833343 2.4373455556166674 30.850000000000005 0.42961861110833338 0.78656609248549303 1.5277323612000002 1.2848663552694866 58.305000000000007 0.56412583320833343 21.500000000000004 27.300000000000001 22.500000000000004 0.91597561503675362 4.5000000000000009 74.660000000000011 0.54934555553333342 0.73518671402524671 0.37940952255126054 1.7819368958236115 0.23067291667499998 0.58982230979436079 0.8420435671295835 0.70354591063988392 0.60355339059327384 1.6228865277750004 7.5000000000000009 8.5000000000000018 1.188321050932917 24.050000000000004 3.120803749991667
decision_type=2 2 2 2 2 2 2 2 2 2 2 2 2 2 2 2 2 2 2 2 2 2 2 2 2 2 2 2 2 2
left_child=3 5 7 -1 28 20 -6 8 17 12 -11 16 18 14 15 -14 -12 -3 -5 -7 -2 22 -22 25 27 -23 -27 -25 29 -4
right_child=1 2 4 9 6 19 -8 -9 -10 10 11 -13 13 -15 -16 -17 -18 -19 -20 -21 21 23 -24 24 -26 26 -28 -29 -30 -31
leaf_value=-0.0080857312810427122 -0.0049784754654353469 0.01718719497715172 0.013870747092353031 -0.0052491570601726403 0.025048764836879414 -0.0076029357020602085 0.047455485029654076 0.01144132543307798 -0.0097475056786362722 -0.0060973134147003297 0.023420559838414193 0.033563257144256071 0.029742361455282664 -0.012022899831866935 -0.0004993654125266605 -0.001381144393235445 -0.0023417652625104656 -0.0016658754118027226 0.0057087378325657205 0.0060004070133123687 0.033252231109266478 0.0015030477070654268 -0.00049550681142136461 -0.0081003542194460956 0.024271238773561469 -0.0016711369585736019 -0.018978485340056452 0.0073383193770599252 0.0056497604644391687 0.02710568915354088
leaf_weight=1308 119 38 113 1390 49 33 22 270 41 125 20 22 32 42 45 20 23 31 52 1191 24 488 32 41 41 38 38 53 48 48
leaf_count=1308 119 38 113 1390 49 33 22 270 41 125 20 22 32 42 45 20 23 31 52 1191 24 488 32 41 41 38 38 53 48 48
internal_value=1.07778e-11 0.00608707 0.0131849 -0.00545246 0.0193252 0.00385419 0.0319917 0.00866048 0.00183476 -0.00350762 0.00205673 0.0177376 -0.00417633 0.00285395 0.00929548 0.0177718 0.00964071 0.00871697 -0.004854 0.00563365 0.00136213 0.0023615 0.0139678 0.00143167 0.00779213 -9.07772e-05 -0.0103248 0.00060443 0.0150223 0.0178166
internal_weight=5837 2758 660 3079 280 2098 71 380 110 1771 190 65 1581 139 97 52 43 69 1442 1224 874 755 56 699 135 564 76 94 209 161
internal_count=5837 2758 660 3079 280 2098 71 380 110 1771 190 65 1581 139 97 52 43 69 1442 1224 874 755 56 699 135 564 76 94 209 161
is_linear=0
shrinkage=0.05


Tree=33
num_leaves=31
num_cat=0
split_feature=9 9 9 3 8 0 10 6 10 13 1 7 11 7 9 7 0 11 14 14 9 7 10 3 1 12 3 0 3 13
split_gain=69.9457 12.7344 11.4845 4.66566 4.18732 5.16319 5.03167 4.0855 3.71473 2.98061 3.28441 4.6799 3.56738 5.35168 2.78432 2.90999 2.81704 3.5082 2.76072 2.63749 3.55348 2.62772 5.17149 2.50082 2.47213 2.28961 2.21583 3.35701 2.15573 3.19378
threshold=1.3886812499500003 0.64078777790833341 3.120803749991667 18.500000000000004 0.78656609248549303 25.050000000000004 1.4494915277500002 6.5000000000000009 0.20121680549999998 1.707298016215278 74.77500000000002 0.25881904510252091 1.8454993055416669 -0.70710678118654735 2.7207668055500003 0.98296291314453421 34.500000000000007 2.2468479166666668 1.2527810183523462 1.2242827066983757 0.20121680549999998 0.98296291314453421 0.43086361113333332 3.5000000000000004 77.595000000000013 0.86169499998333343 22.500000000000004 26.250000000000004 13.500000000000002 1.3577258796373615
decision_type=2 2 2 2 2 2 2 2 2 2 2 2 2 2 2 2 2 2 2 2 2 2 2 2 2 2 2 2 2 2
left_child=1 19 4 18 14 -6 -7 25 -3 26 11 12 -11 -14 15 16 -2 -18 23 20 -1 28 -23 -4 -16 -8 -10 -28 -22 -30
right_child=2 8 3 -5 5 6 7 -9 9 10 -12 -13 13 -15 24 -17 17 -19 -20 -21 21 22 -24 -25 -26 -27 27 -29 29 -31
leaf_value=-0.011783306351206762 0.002664282638381294 0.020891862697899343 0.016884071385332693 0.037508068718016152 -0.0040687940405825015 0.0095072306597591 0.02639169768931774 0.038652816067995699 -0.0019384629644112886 0.035984493844166757 -0.0095579638647345401 -0.0019588004280295637 -0.0077532592881470923 0.02882431439589709 0.0079016155498469864 0.011975024458453325 0.0042390167936492635 0.020017446536062796 0.025102822034834674 0.011171752711137135 -0.0079071822010738022 0.024387955301929089 -0.0077478395594704546 -8.8974758160903177e-05 0.023062732451196229 0.006119671634708842 -0.0027902771282242614 0.021397644274223311 -0.0057533457511984984 0.0021580747051152174
leaf_weight=291 1086 20 60 30 52 276 26 29 1285 21 26 45 20 20 116 112 98 55 52 21 914 21 31 34 35 30 32 26 822 151
leaf_count=291 1086 20 60 30 52 276 26 29 1285 21 26 45 20 20 116 112 98 55 52 21 914 21 31 34 35 30 32 26 822 151
internal_value=1.04277e-11 -0.0040893 0.00732593 0.0195489 0.00620256 0.0106613 0.0127831 0.0234201 -0.000512104 -0.000802327 0.00636699 0.0102731 0.0192966 0.0105355 0.00497655 0.00425684 0.00355916 0.009911 0.0158587 -0.00646509 -0.00663118 -0.00585796 0.00523008 0.0107449 0.0114158 0.0155317 -0.00150698 0.00805258 -0.00616351 -0.00452557
internal_weight=5837 3746 2091 176 1915 413 361 85 1495 1475 132 106 61 40 1502 1351 1239 153 146 2251 2230 1939 52 94 151 56 1343 58 1887 973
internal_count=5837 3746 2091 176 1915 413 361 85 1495 1475 132 106 61 40 1502 1351 1239 153 146 2251 2230 1939 52 94 151 56 1343 58 1887 973
is_linear=0
shrinkage=0.05


Tree=34
num_leaves=31
num_cat=0
split_feature=9 9 14 13 9 0 3 2 12 4 7 1 7 3 4 14 1 12 2 0 11 1 0 3 3 13 6 12 3 0
split_gain=63.4368 14.4611 6.04599 5.9414 5.1893 3.44922 4.60296 3.62898 3.10872 2.97401 2.71357 4.32159 3.02837 4.30072 8.23159 3.23551 3.09532 2.67417 2.65495 2.90679 2.94772 2.69513 2.55289 2.45343 2.38546 2.32327 2.60604 2.26377 2.18012 8.76757
threshold=0.95596208330833343 2.2407890278083338 1.2848663552694866 2.4574213819605557 0.4237938889416667 28.050000000000004 8.5000000000000018 20.650000000000002 1.9329213888916665 4.5000000000000009 -0.91597561503675329 67.640000000000015 1.0000000180025095e-35 7.5000000000000009 4.5000000000000009 1.1924348097603159 63.730000000000011 2.4734620833583336 28.750000000000004 27.500000000000004 1.4511641666250001 35.685000000000009 24.300000000000001 10.500000000000002 21.500000000000004 1.270069784722639 2.5000000000000004 0.33256124998333342 21.500000000000004 27.300000000000001
decision_type=2 2 2 2 2 2 2 2 2 2 2 2 2 2 2 2 2 2 2 2 2 2 2 2 2 2 2 2 2 2
left_child=4 10 5 -4 -1 6 27 24 -9 22 11 -2 15 25 17 18 -16 23 19 21 -21 -12 -8 -15 -7 26 -14 -3 -6 -30
right_child=1 2 3 -5 28 7 9 8 -10 -11 12 -13 13 14 16 -17 -18 -19 -20 20 -22 -23 -24 -25 -26 -27 -28 -29 29 -31
