tree
version=v4
num_class=1
num_tree_per_iteration=1
label_index=0
max_feature_idx=14
objective=regression
feature_names=temperature humidity wind_speed lag_1 lag_15 lag_60 lag_1440 rolling_mean_60 rolling_std_60 hour day_of_week is_weekend month hour_sin hour_cos
feature_infos=[9:41] [4.2199999999999998:100] [0:59.399999999999999] [0:5.8559827777500004] [0:5.8559827777500004] [0:5.8559827777500004] [0:5.8559827777500004] [0.3209685740663889:3.2467206203722223] [0.1092114580553476:1.477845480671772] [0:23] [0:6] [0:1] [1:12] [-1:1] [-1:1]
tree_sizes=2628 2760 2786 2789 2782 2804 2785 2791 2797 2799 2793 2784 2787 2791 2798 2793 2793 2776 2778 2804 2804 2775 2782 2784 2785 2785 2801 2784 2787 2811 2798 2789 2822 2804 2784 2800 2794 2798 2795 2791 2799 2795 2775 2792 2805 2780 2817 2781 2789 2817 2805 2783 2814 2787 2819 2805 2807 2776 2802 2807 2786 2799 2813 2839 2822 2808 2810 2803 2803 2793 2815 2800 2796 2805 2820 2849 2811 2792 2792 2809 2802 2813 2834 2811 2815 2804 2813 2829

Tree=0
num_leaves=31
num_cat=0
split_feature=3 3 8 14 14 7 7 7 0 8 3 13 7 13 9 9 7 9 9 8 9 0 8 7 9 3 0 4 3 8
split_gain=2902.93 465.555 313.761 127.033 123.099 94.1802 70.8166 58.6706 48.8661 42.468 37.4746 36.8331 38.961 31.1974 30.3585 27.7229 24.8968 25.1236 23.1451 17.1298 16.3805 25.5545 15.3651 15.3164 14.7536 13.5947 12.1841 12.1306 11.4236 11.4029
threshold=1.0296995833250002 2.1935083333500001 0.66494727030189815 0.25881904510252057 0.25881904510252057 1.739166326394028 1.9961148171265279 1.1269360949058334 30.700000000000006 1.0815244766529148 0.55546152773333346 -0.60355339059327362 1.7831258194461113 -0.37940952255126059 8.5000000000000018 10.500000000000002 1.9076906296318057 22.500000000000004 2.5000000000000004 0.77857936326045307 8.5000000000000018 30.450000000000003 0.78657649771307148 2.7001924953713892 1.5000000000000002 0.3021848610666667 36.500000000000007 2.2641440277666671 0.46832833337499996 0.96912442983029812
decision_type=2 2 2 2 2 2 2 2 2 2 2 2 2 2 2 2 2 2 2 2 2 2 2 2 2 2 2 2 2 2
left_child=2 3 10 6 9 22 19 -5 18 29 -1 -9 24 -10 -4 -8 17 25 -7 -2 21 -11 -6 -17 -13 -16 -22 -23 -18 -3
right_child=1 4 14 7 5 8 15 11 13 20 -12 12 -14 -15 16 23 28 -19 -20 -21 26 27 -24 -25 -26 -27 -28 -29 -30 -31
leaf_value=1.1966412361218792 1.2176539567359494 1.251165597658237 1.2629964234080897 1.23927954324348 1.257299273145202 1.3359497743339088 1.2865547795340744 1.2626310069770761 1.3056741315570659 1.2801059214685651 1.2092193625447338 1.3124394016215752 1.3233513578372265 1.3598121758850821 1.1921116060897397 1.251316007256982 1.220139787803435 1.2771157064174301 1.3049229971468455 1.2410496046366508 1.277452870699519 1.3140843454590854 1.2964428113067394 1.290161949060963 1.2768011976771314 1.2268320756956346 1.3109473223748866 1.3581752326683427 1.2538128554609176 1.2764039707592598
leaf_weight=1832 98 78 94 68 29 99 111 93 32 38 875 37 103 158 30 203 30 24 153 388 102 39 185 29 135 468 37 26 157 105
leaf_count=1832 98 78 94 68 29 99 111 93 32 38 875 37 103 158 30 203 30 24 153 388 102 39 185 29 135 468 37 26 157 105
internal_value=1.23763 1.28069 1.20885 1.2601 1.30478 1.31837 1.24861 1.28195 1.33155 1.28382 1.20071 1.28983 1.29903 1.35069 1.2363 1.266 1.23276 1.22715 1.31711 1.23633 1.29757 1.31268 1.29114 1.25617 1.28447 1.22474 1.28637 1.33172 1.24841 1.26565
internal_weight=5856 2346 3510 1265 1081 656 829 436 442 425 2707 368 275 190 803 343 709 522 252 486 242 103 214 232 172 498 139 65 187 183
internal_count=5856 2346 3510 1265 1081 656 829 436 442 425 2707 368 275 190 803 343 709 522 252 486 242 103 214 232 172 498 139 65 187 183
is_linear=0
shrinkage=1


Tree=1
num_leaves=31
num_cat=0
split_feature=3 3 8 14 14 7 7 7 0 8 3 13 7 9 13 9 6 7 9 3 8 4 7 14 9 9 13 9 7 0
split_gain=2619.9 420.164 283.45 114.647 111.096 85.998 63.912 52.9502 38.5337 38.5099 37.9426 33.2418 35.2893 29.7501 27.6095 25.0199 23.9174 19.6082 21.6681 19.463 15.4596 14.5095 13.8231 13.5323 13.142 11.1982 10.9111 10.7765 15.9139 10.7022
threshold=1.0296995833250002 2.1935083333500001 0.73647693277625381 0.25881904510252057 0.25881904510252057 1.8389682129581948 1.9961148171265279 1.1269360949058334 30.700000000000006 1.0282021682896567 0.47175722220833333 -0.60355339059327362 1.8181178703666669 8.5000000000000018 -0.37940952255126059 10.500000000000002 1.7929890277500002 2.0046389606484727 21.500000000000004 3.2872111111000004 0.77857936326045307 2.399357361091667 2.7001924953713892 0.91597561503675351 1.5000000000000002 2.5000000000000004 0.12940952255126045 10.500000000000002 2.233338206020417 27.700000000000006
decision_type=2 2 2 2 2 2 2 2 2 2 2 2 2 2 2 2 2 2 2 2 2 2 2 2 2 2 2 2 2 2
left_child=2 3 10 6 9 16 20 -5 25 -3 -1 -9 24 -4 -10 -8 29 18 -15 27 -2 -21 -17 -18 -13 -7 -14 28 -11 -6
right_child=1 4 13 7 5 8 15 11 14 19 -12 12 26 17 -16 22 23 -19 -20 21 -22 -23 -24 -25 -26 -27 -28 -29 -30 -31
leaf_value=-0.040293570924093955 -0.01897670051311048 0.021823749142802426 0.028659947296995444 0.0015676062230554903 0.01130834937794134 0.09234116355578105 0.04647907993461526 0.023751496187140866 0.065528336083216052 0.033702130802543605 -0.028568044182182919 0.071683221511346734 0.067505959097295995 -0.01097422249591523 0.11733257074575157 0.013002247134856697 0.054540284047003042 0.014054972572656449 0.022998142464516258 0.057104596693708154 0.0032491645962359943 0.0954646667226767 0.049905891382488715 0.088855399058784479 0.038626203563116079 0.068113476697725203 0.10185595424196055 0.032480512084092632 0.075919403067352828 0.047670682050764218
leaf_weight=1449 98 135 81 68 24 75 111 93 31 41 1317 38 50 482 151 203 56 129 52 67 388 39 29 59 144 131 43 94 49 129
leaf_count=1449 98 135 81 68 24 75 111 93 31 41 1317 38 50 482 151 203 56 129 52 67 388 39 29 59 144 131 43 94 49 129
internal_value=2.7182e-10 0.0409073 -0.0273415 0.0213467 0.0637974 0.0766992 0.0104305 0.0421026 0.091745 0.0438832 -0.0347106 0.0495927 0.0583318 5.494e-05 0.108509 0.026956 0.0549166 -0.00343979 -0.00766605 0.0541522 -0.00123259 0.0712182 0.0176152 0.0721454 0.0455282 0.0769342 0.0833882 0.0443207 0.0566871 0.0419668
internal_weight=5856 2346 3510 1265 1081 656 829 436 388 425 2766 368 275 744 182 343 268 663 534 290 486 106 232 115 182 206 93 184 90 153
internal_count=5856 2346 3510 1265 1081 656 829 436 388 425 2766 368 275 744 182 343 268 663 534 290 486 106 232 115 182 206 93 184 90 153
is_linear=0
shrinkage=0.05


Tree=2
num_leaves=31
num_cat=0
split_feature=3 3 8 14 14 7 7 7 13 0 3 9 3 3 8 7 9 7 6 9 7 8 13 7 14 3 14 12 14 0
split_gain=2364.46 379.671 256.549 131.684 76.1039 84.9532 64.1288 54.9107 51.5954 36.1226 31.2677 27.2969 25.1405 24.1752 22.946 21.2233 19.8675 18.9301 18.8222 17.1988 16.9566 13.6764 12.1126 12.9022 11.9477 11.1411 10.8343 10.7619 10.5983 10.504
threshold=1.0296995833250002 2.3457852777916672 0.66494727030189815 0.25881904510252057 1.0000000180025095e-35 1.8389682129581948 1.9961148171265279 1.4943783217634725 -0.37940952255126059 30.700000000000006 0.55546152773333346 10.500000000000002 0.66888680557500013 2.7091620833250003 1.0282021682896567 1.8181178703666669 8.5000000000000018 1.9680025787036113 1.7929890277500002 19.500000000000004 0.99929918055416667 0.77857936326045307 -0.98296291314453399 2.8170540925923615 0.78656609248549303 0.92100263890833334 0.91597561503675351 5.5000000000000009 0.91597561503675351 30.250000000000004
decision_type=2 2 2 2 2 2 2 2 2 2 2 2 2 2 2 2 2 2 2 2 2 2 2 2 2 2 2 2 2 2
left_child=2 3 10 6 14 18 21 20 29 24 -1 -8 26 -11 -3 -10 -14 19 -6 -18 -5 -2 -13 -24 -7 -21 -4 -16 -20 -9
right_child=1 4 12 7 5 9 11 8 15 13 -12 22 16 -15 27 -17 17 -19 28 25 -22 -23 23 -25 -26 -27 -28 -29 -30 -31
leaf_value=-0.037050515162019119 -0.017746640576256644 0.019488661023812408 -0.013466362519993653 -0.0021373622867956825 0.038653401035687651 0.062876379423070949 0.045234421772509817 0.051918103578774369 0.054658884624055083 0.057267118419090712 -0.025561163036099507 -0.014338254875370436 0.033435142777161676 0.10909802281983688 0.021647687721997502 0.087087087810267597 -0.011430340168021975 0.021833495477524899 0.05078815950466127 0.0048869464653902329 0.031073492732376525 0.0029597716492305443 0.016592252255727566 0.056904269619421521 0.086862304408189872 0.046777580767160376 0.022775773805650799 0.054982216775615038 0.081569416379487072 0.0188637278517623
leaf_weight=1832 99 84 329 57 153 131 125 34 104 26 875 28 60 167 28 98 210 96 58 65 118 410 203 22 86 21 22 179 54 82
leaf_count=1832 99 84 329 57 153 131 125 34 104 26 875 28 60 167 28 98 210 96 58 65 118 410 203 22 86 21 22 179 54 82
internal_value=2.98891e-11 0.038862 -0.0259744 0.022033 0.0629034 0.0721181 0.0105181 0.0427504 0.0551292 0.0863787 -0.0333367 0.0261189 -0.00115521 0.102116 0.0415292 0.0703914 0.006641 0.00253986 0.0500545 -0.00371754 0.0202562 -0.00106761 0.0166745 0.0205339 0.0723823 0.0151161 -0.0111948 0.0504732 0.0656291 0.0285521
internal_weight=5856 2346 3510 1380 966 675 887 493 318 410 2707 378 803 193 291 202 452 392 265 296 175 509 253 225 217 86 351 207 112 116
internal_count=5856 2346 3510 1380 966 675 887 493 318 410 2707 378 803 193 291 202 452 392 265 296 175 509 253 225 217 86 351 207 112 116
is_linear=0
shrinkage=0.05


Tree=3
num_leaves=31
num_cat=0
split_feature=3 3 8 14 14 7 7 0 13 0 7 8 7 9 13 9 9 3 12 8 8 8 9 0 7 8 0 5 3 2
split_gain=2133.92 342.656 232.552 93.3075 91.2833 70.5191 51.9633 44.1831 36.6877 36.3391 34.7261 32.0282 26.611 25.9727 24.1218 20.3018 18.3273 17.5149 17.7451 14.5808 12.6176 12.2917 11.7263 19.2665 11.5584 9.23113 8.88493 10.7173 8.3568 8.12106
threshold=1.0296995833250002 2.1935083333500001 0.76692193742561787 0.25881904510252057 0.25881904510252057 1.739166326394028 1.9961148171265279 27.500000000000004 -0.37940952255126059 30.700000000000006 0.53199074724007944 1.0815244766529148 1.8181178703666669 8.5000000000000018 -0.37940952255126059 10.500000000000002 2.5000000000000004 0.37436041664166669 7.5000000000000009 1.3049262232739636 0.77857936326045307 0.78657649771307148 8.5000000000000018 30.700000000000006 2.7001924953713892 0.96912442983029812 30.850000000000005 2.0704181944416669 0.42093319448333338 15.450000000000001
decision_type=2 2 2 2 2 2 2 2 2 2 2 2 2 2 2 2 2 2 2 2 2 2 2 2 2 2 2 2 2 2
left_child=2 3 10 6 11 21 20 -5 26 16 28 25 -10 -4 -11 -8 -7 -15 -19 22 -2 -6 23 -13 -17 -3 -9 -28 -1 -22
right_child=1 4 13 7 5 9 15 8 12 14 -12 19 -14 17 -16 24 -18 18 -20 -21 29 -23 -24 -25 -26 -27 27 -29 -30 -31
leaf_value=-0.037887483847088448 -0.017140533975135458 0.010725322379193341 0.028423494562603437 0.0060998466997889099 0.01545897390179593 0.085006097531077851 0.041893405941113626 0.041033165426766972 0.046122306366839137 0.057615834462922066 -0.023164559919164638 0.032107326181398499 0.083594031652359124 -0.02929693746380508 0.10522038403167566 0.011674889585311786 0.057396764713004728 0.0074926266626282826 -0.010455692859439107 0.077153968995230068 0.012729946374009453 0.050469434822286552 0.035091410833616964 0.080495523108402273 0.045420404035469583 0.033433434002522737 -0.0016250370655122193 0.034570387750864032 -0.03115822381626528 -0.0024054986434020251
leaf_weight=1079 98 78 77 87 29 99 111 59 135 32 921 36 73 55 158 203 153 341 231 45 137 185 113 48 29 105 43 39 806 251
leaf_count=1079 98 78 77 87 29 99 111 59 135 32 921 36 73 55 158 203 153 341 231 45 137 185 113 48 29 105 43 39 806 251
internal_value=-8.94376e-11 0.0369189 -0.0246757 0.0192543 0.0575902 0.069285 0.00940629 0.0379791 0.0459261 0.0806919 -0.0311221 0.0395388 0.0592734 0.00101846 0.0972028 0.0243072 0.0682433 -0.00234707 0.000244267 0.0514748 -0.00111018 0.045725 0.045609 0.0597577 0.0158931 0.0237546 0.0262363 0.0155899 -0.0350101 0.00293872
internal_weight=5856 2346 3510 1265 1081 656 829 436 349 442 2806 425 208 704 190 343 252 627 572 242 486 214 197 84 232 183 141 82 1885 388
internal_count=5856 2346 3510 1265 1081 656 829 436 349 442 2806 425 208 704 190 343 252 627 572 242 486 214 197 84 232 183 141 82 1885 388
is_linear=0
shrinkage=0.05


Tree=4
num_leaves=31
num_cat=0
split_feature=3 3 8 14 14 7 7 7 13 7 0 9 9 8 0 3 6 3 9 7 7 7 9 13 4 7 9 14 12 0
split_gain=1925.87 310.84 209.879 107.463 62.6113 70.3819 52.9303 46.121 42.4917 31.3403 29.5234 23.9289 23.4403 18.8464 18.4565 16.3569 16.0682 15.8072 16.8735 18.9313 14.2215 12.9607 11.8506 10.9808 10.3787 10.3002 9.74968 9.46031 9.27045 8.80549
threshold=1.0296995833250002 2.3457852777916672 0.76692193742561787 0.25881904510252057 1.0000000180025095e-35 1.8389682129581948 2.0227978611119446 1.4943783217634725 -0.37940952255126059 0.53199074724007944 30.050000000000004 10.500000000000002 8.5000000000000018 1.0282021682896567 28.900000000000002 2.7502859722500004 1.7929890277500002 0.37436041664166669 22.500000000000004 2.0142948148123616 0.9419437615755557 1.6149501782400002 2.5000000000000004 -0.98296291314453399 1.7805752777750004 2.8170540925923615 3.5000000000000004 0.91597561503675351 5.5000000000000009 30.250000000000004
decision_type=2 2 2 2 2 2 2 2 2 2 2 2 2 2 2 2 2 2 2 2 2 2 2 2 2 2 2 2 2 2
left_child=2 3 9 6 13 16 21 20 29 -1 -7 -8 -4 -3 -10 -12 -6 -14 19 -19 -5 -2 24 -13 -16 -25 -17 -18 -15 -9
right_child=1 4 12 7 5 10 11 8 14 -11 15 23 17 28 22 26 27 18 -20 -21 -22 -23 -24 25 -26 -27 -28 -29 -30 -31
leaf_value=-0.033259637746045893 -0.0089433466001770465 0.017464325976713251 0.027002319908858121 -0.0045912778356578202 0.034567761080061064 0.063584368554082643 0.043699444733959231 0.047180782127029759 0.038415195098814539 -0.022006331581190579 0.058597250726512257 -0.014382916878632926 -0.027832090541381728 0.018791233310808564 0.072088624992304381 0.10829223566008417 0.045470411548238443 -0.0059430700896328757 0.045347946772817525 0.01748076656171791 0.026960366930160674 0.0066329683394377561 0.060866424672562508 0.015683230818299358 0.11354568806978374 0.051862230422821912 0.085487165668922852 0.074552188558434998 0.04972979085956955 0.016916566392656689
leaf_weight=1885 242 84 77 50 153 188 112 34 53 921 34 27 55 28 36 89 58 445 20 107 125 298 87 186 26 22 99 54 179 82
leaf_count=1885 242 84 77 50 153 188 112 34 53 921 34 27 55 28 36 89 58 445 20 107 125 298 87 186 26 22 99 54 179 82
internal_value=-8.91145e-11 0.0350729 -0.0234419 0.0198456 0.0568263 0.0651843 0.0094435 0.038561 0.0499059 -0.029566 0.0781644 0.0246803 0.00096754 0.0374391 0.0637563 0.0905115 0.0451018 -0.00222971 0.000232054 -0.00140258 0.0179456 -0.000347528 0.0727702 0.0156158 0.0894738 0.0195099 0.0962832 0.059492 0.0455449 0.0257871
internal_weight=5856 2346 3510 1380 966 675 887 493 318 2806 410 347 704 291 202 222 265 627 572 552 175 540 149 235 62 208 188 112 207 116
internal_count=5856 2346 3510 1380 966 675 887 493 318 2806 410 347 704 291 202 222 265 627 572 552 175 540 149 235 62 208 188 112 207 116
is_linear=0
shrinkage=0.05


Tree=5
num_leaves=31
num_cat=0
split_feature=3 3 8 14 14 7 7 7 13 0 3 9 3 7 8 13 14 7 7 9 7 3 7 9 13 7 14 8 9 7
split_gain=1738.09 280.533 190.086 96.9852 56.5067 63.8232 47.7696 41.6242 38.5989 29.2426 25.2869 21.5959 20.2598 17.3878 17.0088 15.8904 15.7348 18.2708 12.9282 12.708 12.7801 12.2314 11.697 10.425 9.91016 9.29593 9.02648 8.64725 8.61806 8.50201
threshold=1.0296995833250002 2.3457852777916672 0.66494727030189815 0.25881904510252057 1.0000000180025095e-35 2.2831771064747226 2.0227978611119446 1.4943783217634725 -0.60355339059327362 28.050000000000004 0.47175722220833333 10.500000000000002 0.66888680557500013 2.0332215092605561 1.0282021682896567 0.12940952255126045 0.25881904510252057 2.0046389606484727 0.99929918055416667 3.5000000000000004 1.6980858634263891 0.92947555554166661 1.6149501782400002 8.5000000000000018 -0.98296291314453399 2.8170540925923615 0.91597561503675351 1.3049262232739636 1.5000000000000002 1.4428981273177779
decision_type=2 2 2 2 2 2 2 2 2 2 2 2 2 2 2 2 2 2 2 2 2 2 2 2 2 2 2 2 2 2
left_child=2 3 10 6 14 9 22 18 -9 -6 -1 -8 26 -10 -3 -15 17 23 -5 20 -11 -18 -2 -14 -13 -26 29 -16 -20 -4
right_child=1 4 12 7 5 -7 11 8 13 19 -12 24 16 15 27 -17 21 -19 28 -21 -22 -23 -24 -25 25 -27 -28 -29 -30 -31
leaf_value=-0.033150168803250571 -0.0084961792989056706 0.016591109403054274 -0.023814428619964301 -0.0025051223079412526 0.029349936994607563 0.090565810258198071 0.041514472961924703 0.018099014689943876 0.048904564557314824 0.048891038375921431 -0.023466684323241459 -0.013663770283434401 0.026039968625727022 0.054821629502943586 0.038657700553466026 0.10246673954384669 0.011475387452678247 0.022767231960645392 0.056404703134903693 0.050545168539356214 0.075623317498278317 0.045411513229565964 0.0063013198615939382 -0.010073991220256468 0.014899069009259875 0.049269118701869792 0.021088619445535271 0.065922092506662019 0.020389344710951711 -0.0065273822442524958
leaf_weight=1437 242 84 104 57 100 151 112 83 165 63 1270 27 22 35 172 35 110 67 20 207 154 35 298 218 186 22 22 35 98 225
leaf_count=1437 242 84 104 57 100 151 112 83 165 63 1270 27 22 35 172 35 110 67 20 207 154 35 298 218 186 22 22 35 98 225
internal_value=1.05049e-10 0.0333193 -0.0222698 0.0188533 0.0539849 0.061925 0.00897132 0.0366329 0.0474106 0.0536717 -0.0286071 0.0234462 -0.000906056 0.0577632 0.0355672 0.0786442 0.00609259 -0.000318717 0.0170483 0.059408 0.0678623 0.0196669 -0.000330152 -0.00676354 0.014835 0.0185344 -0.00991855 0.0432676 0.0264936 -0.011992
internal_weight=5856 2346 3510 1380 966 675 887 493 318 524 2707 347 803 235 291 70 452 307 175 424 217 145 540 240 235 208 351 207 118 329
internal_count=5856 2346 3510 1380 966 675 887 493 318 524 2707 347 803 235 291 70 452 307 175 424 217 145 540 240 235 208 351 207 118 329
is_linear=0
shrinkage=0.05


Tree=6
num_leaves=31
num_cat=0
split_feature=3 3 8 14 7 7 8 9 9 14 3 14 7 9 7 9 13 7 7 0 3 9 6 3 13 7 8 1 5 0
split_gain=1568.63 253.921 171.552 108.351 54.4522 47.8956 42.8126 39.9031 27.2847 27.0055 23.1435 22.1154 20.8021 19.067 16.4376 16.5591 16.2877 26.1721 12.6085 10.9034 10.8263 10.156 9.8824 9.40671 9.31778 9.04538 8.82549 8.29663 7.59912 7.37287
threshold=1.0296995833250002 2.6677436111000001 0.66494727030189815 0.25881904510252057 2.0332215092605561 1.1269360949058334 1.1844201579916771 1.5000000000000002 10.500000000000002 1.0000000180025095e-35 0.55546152773333346 0.60355339059327384 1.8181178703666669 6.5000000000000009 1.9076906296318057 22.500000000000004 -0.60355339059327362 1.7831258194461113 1.5527036087986115 30.700000000000006 0.3021848610666667 2.5000000000000004 0.64965791661666683 0.63376958331666688 -0.98296291314453399 2.8170540925923615 1.1023469731689313 51.600000000000009 0.91228388888333345 30.250000000000004
decision_type=2 2 2 2 2 2 2 2 2 2 2 2 2 2 2 2 2 2 2 2 2 2 2 2 2 2 2 2 2 2
left_child=2 3 10 4 18 -5 9 26 -6 27 -1 -8 22 -4 15 20 29 -18 -2 -13 -15 -14 -11 -16 -10 -26 -7 -3 -29 -9
right_child=1 6 13 5 8 7 11 16 24 12 -12 19 21 14 23 -17 17 -19 -20 -21 -22 -23 -24 -25 25 -27 -28 28 -30 -31
leaf_value=-0.03037184616922306 -0.0097220654719181801 0.056371501735633323 0.027833668793728401 0.00044428226179801507 0.042649844278468456 0.062502741077914842 0.061422974405904045 0.03917776425951161 -0.010112150195345749 0.02401750408229418 -0.020487183885941548 0.062639458540467208 0.079718328638623159 -0.03835458318392436 -0.0069790255961318815 0.033281459511878594 0.028875943988846627 0.057539253171321983 0.0057966255415111594 0.1031350137118031 -0.0074283039381863834 0.056830352998889277 0.049786380676390685 0.016787832121960545 0.014951324759073827 0.044293354079127316 0.09764656333819681 0.045942551061511044 0.014313602245256567 0.010622835812134693
leaf_weight=1832 197 21 54 78 136 80 139 32 32 55 875 22 75 30 60 24 183 141 390 68 499 137 115 136 211 30 23 25 79 77
leaf_count=1832 197 21 54 78 136 80 139 32 32 55 875 22 75 30 60 24 183 141 390 68 499 137 115 136 211 30 23 25 79 77
internal_value=2.4415e-11 0.0316533 -0.0211563 0.0205314 0.0103471 0.0370517 0.0559826 0.0423789 0.0243529 0.047878 -0.0271768 0.0739259 0.0544791 -0.000860753 -0.00292951 -0.00733925 0.0357251 0.0413498 0.000588479 0.0932361 -0.00918216 0.0649275 0.0414494 0.00951226 0.0152379 0.0186039 0.0703504 0.0277051 0.0219167 0.0190059
internal_weight=5856 2346 3510 1610 996 614 736 536 409 507 2707 229 382 803 749 553 433 324 587 90 529 212 170 196 273 241 103 125 104 109
internal_count=5856 2346 3510 1610 996 614 736 536 409 507 2707 229 382 803 749 553 433 324 587 90 529 212 170 196 273 241 103 125 104 109
is_linear=0
shrinkage=0.05


Tree=7
num_leaves=31
num_cat=0
split_feature=3 3 7 14 14 7 7 9 14 7 0 0 9 8 7 13 9 9 7 3 7 9 8 13 14 1 7 12 4 3
split_gain=1415.69 229.485 155.52 79.7253 46.2622 53.8705 37.7489 31.2873 30.245 25.9838 24.5173 21.9382 15.067 14.3024 14.0095 13.0123 11.7668 10.8376 11.1191 10.7252 11.8695 12.271 10.2515 9.46424 8.86177 8.84243 8.29714 7.81305 7.78311 8.64773
threshold=1.0296995833250002 2.3457852777916672 1.3145330069437502 0.91597561503675351 1.0000000180025095e-35 2.2831771064747226 2.0332215092605561 10.500000000000002 0.25881904510252057 0.53199074724007944 28.050000000000004 28.250000000000004 8.5000000000000018 1.0282021682896567 0.91586185879486126 0.12940952255126045 5.5000000000000009 2.5000000000000004 1.6377433356494446 0.37436041664166669 2.0142948148123616 21.500000000000004 0.77857936326045307 -0.98296291314453399 0.1294095225512602 74.660000000000011 2.8170540925923615 5.5000000000000009 1.2285654166916669 3.1879673611250006
decision_type=2 2 2 2 2 2 2 2 2 2 2 2 2 2 2 2 2 2 2 2 2 2 2 2 2 2 2 2 2 2
left_child=2 3 9 6 13 10 8 16 22 -1 -6 -5 -4 -3 -10 -13 -8 18 -12 -14 21 -21 -2 -9 -11 -19 -25 -15 -29 -30
right_child=1 4 12 11 5 -7 7 23 14 24 17 15 19 27 -16 -17 -18 25 -20 20 -22 -23 -24 26 -26 -27 -28 28 29 -31
leaf_value=-0.02865683091028386 -0.014713140511226776 0.014695966610174983 0.022318745715126986 0.020352680367441516 0.026093349546194078 0.082259129714960896 0.075875250697135924 -0.012474974820873251 -0.0097666315508403781 -0.022650954913104412 0.043000715866219258 0.052535350889795357 -0.023241728949634471 0.014597399557741093 0.024544717650958378 0.090855113882571462 0.03787390026375017 0.03549908851925284 0.071407973950301282 -0.0055981089676459955 0.015424683530476282 0.022801519322785596 0.0030727911040551717 0.015447293733974602 -0.012843501538736746 0.054593763668573915 0.043834800350254985 0.026924503633295589 0.03645355273563896 0.062654707633191725
leaf_weight=1885 99 84 76 39 100 151 25 27 34 543 48 72 51 28 238 32 110 100 122 403 110 42 446 229 400 154 29 53 62 64
leaf_count=1885 99 84 76 39 100 151 25 27 34 543 48 72 51 28 238 32 110 100 122 403 110 42 446 229 400 154 29 53 62 64
internal_value=2.46533e-11 0.0300707 -0.0200985 0.0169869 0.0487617 0.0559461 0.0129008 0.0250829 0.00663824 -0.025267 0.0483635 0.0523333 0.00133319 0.0320969 0.0202558 0.064326 0.0449112 0.0536159 0.0633871 -0.00129866 0.000717732 -0.00291769 -0.000158048 0.0156906 -0.0184908 0.0470762 0.0186381 0.0391582 0.0430001 0.0497621
internal_weight=5856 2346 3510 1380 966 675 1237 420 817 2828 524 143 682 291 272 104 135 424 170 606 555 445 545 285 943 254 258 207 179 126
internal_count=5856 2346 3510 1380 966 675 1237 420 817 2828 524 143 682 291 272 104 135 424 170 606 555 445 545 285 943 254 258 207 179 126
is_linear=0
shrinkage=0.05


Tree=8
num_leaves=31
num_cat=0
split_feature=3 3 8 14 7 0 8 13 3 14 9 7 14 7 9 3 12 0 7 9 6 4 13 5 7 7 9 1 3 3
split_gain=1277.66 207.703 140.798 88.4963 44.6648 40.7658 36.0206 35.5301 22.7679 22.1227 21.3152 18.9698 18.8823 17.4583 16.8955 11.9122 12.901 9.5391 9.28789 8.79061 8.34315 8.33005 7.79737 7.79689 7.74509 7.5825 7.49849 7.31802 7.17733 7.09859
threshold=1.0296995833250002 2.6677436111000001 0.76692193742561787 0.25881904510252057 1.9961148171265279 27.500000000000004 1.1844201579916771 -0.37940952255126059 0.5733497222416668 1.0000000180025095e-35 10.500000000000002 2.1213854282375002 0.60355339059327384 1.8389682129581948 8.5000000000000018 0.37436041664166669 7.5000000000000009 30.700000000000006 1.5527036087986115 1.5000000000000002 0.5665836110750001 2.0256309722333334 -0.98296291314453399 0.76611083333333341 2.8170540925923615 1.8066839189855559 2.5000000000000004 51.600000000000009 0.33993847222500001 2.0912104166500005
decision_type=2 2 2 2 2 2 2 2 2 2 2 2 2 2 2 2 2 2 2 2 2 2 2 2 2 2 2 2 2 2
left_child=2 3 8 4 18 -5 9 -7 28 27 23 19 -8 20 -4 -16 -17 -14 -2 -9 -11 -13 -12 -6 -24 -21 -15 -3 -1 -25
right_child=1 6 14 5 10 7 12 11 -10 13 22 21 17 26 15 16 -18 -19 -20 25 -22 -23 24 29 -26 -27 -28 -29 -30 -31
leaf_value=-0.030995346239635825 -0.0090030612207140769 0.051801491076392793 0.023002520590709136 0.0044026881014486768 0.0079965037426778258 0.020946665531003172 0.055476715315150929 0.056931958620381709 -0.017379741823255922 0.019331413954901306 -0.0096969261624370567 0.056897733839494848 0.056254221219569446 0.072216540060176609 -0.024040634489872242 0.0065021314114725491 -0.0088015590213819765 0.094131528334144288 0.0045833308336354428 0.030710994859780578 0.044058856394875688 0.096200660788095915 0.013036011632154638 0.032330340277403592 0.040001246035099032 0.051390294941253405 0.052092416134848496 0.01944245736813173 -0.024732324203333659 0.05688940820594629
leaf_weight=740 197 21 77 101 21 176 139 85 868 46 33 28 22 71 55 341 231 68 348 131 132 26 237 85 30 67 133 104 1198 45
leaf_count=740 197 21 77 101 21 176 139 85 868 46 33 28 22 71 55 341 231 68 348 131 132 26 237 85 30 67 133 104 1198 45
internal_value=-5.57349e-11 0.0285671 -0.0190936 0.0185082 0.00930422 0.0334383 0.0505711 0.0391549 -0.0241096 0.0431371 0.0209437 0.0486643 0.0670297 0.0491117 0.000899184 -0.00181526 0.000321795 0.0848726 -0.000327714 0.0434824 0.0376686 0.0758214 0.0132319 0.0362651 0.0160658 0.0377085 0.0590964 0.0248788 -0.0271238 0.0408316
internal_weight=5856 2346 3510 1610 996 614 736 513 2806 507 451 337 229 382 704 627 572 90 545 283 178 54 300 151 267 198 204 125 1938 130
internal_count=5856 2346 3510 1610 996 614 736 513 2806 507 451 337 229 382 704 627 572 90 545 283 178 54 300 151 267 198 204 125 1938 130
is_linear=0
shrinkage=0.05


Tree=9
num_leaves=31
num_cat=0
split_feature=3 3 8 14 14 7 7 9 8 14 0 3 3 7 14 7 1 7 7 13 3 7 9 9 9 3 13 8 7 0
split_gain=1153.09 187.462 127.458 65.3169 38.9426 33.2649 31.2997 25.7665 24.8619 24.3961 18.4189 18.3519 15.2281 14.2574 12.5442 13.6269 12.2755 14.2349 11.9713 11.261 10.4565 10.3292 9.71844 8.72589 8.08246 8.02819 8.02033 7.55736 8.38853 7.53288
threshold=1.0296995833250002 2.3457852777916672 0.66494727030189815 0.91597561503675351 0.60355339059327384 1.8389682129581948 2.0332215092605561 10.500000000000002 1.0282021682896567 0.25881904510252057 28.250000000000004 0.42093319448333338 0.66888680557500013 2.4426338912112504 0.25881904510252057 2.0046389606484727 74.77500000000002 2.233338206020417 0.91586185879486126 0.12940952255126045 0.92947555554166661 1.3482415601845836 5.5000000000000009 11.500000000000002 8.5000000000000018 0.75447763888333341 -0.91597561503675329 1.2728410112931272 2.0476775925937507 30.850000000000005
decision_type=2 2 2 2 2 2 2 2 2 2 2 2 2 2 2 2 2 2 2 2 2 2 2 2 2 2 2 2 2 2
left_child=2 3 11 6 8 21 9 22 -3 23 -5 -1 -4 -7 15 24 27 -18 -11 -12 -16 -6 -8 -2 -14 -13 -9 28 -10 -20
right_child=1 4 12 10 5 13 7 26 16 18 19 25 14 -15 20 -17 17 -19 29 -21 -22 -23 -24 -25 -26 -27 -28 -29 -30 -31
leaf_value=-0.02806106000239314 0.0064813645485275991 0.019071517922326597 -0.0084586163800995148 0.018003435681263606 0.014693290447158849 0.060787873023815414 0.06884207194298507 -0.0025911264979329549 0.056994948678073434 -0.0096101113033535742 0.047327101579867303 -0.021339082697771 0.023015966537323865 0.089712802669541403 0.0099688478389924236 0.019635453342056988 0.037598520804600549 0.066882072339473991 0.026868454601467792 0.082974954741075635 0.041346304581633637 0.044943237920145852 0.034306336217348209 -0.0061899714748284256 -0.0087826138401805604 -0.0115656179121317 0.018378157836585224 0.051375877484161829 0.022740095710614697 0.0054880908809004812
leaf_weight=1166 258 170 351 39 34 189 25 57 21 34 72 1290 22 55 110 67 83 83 185 32 35 166 110 287 218 251 228 45 120 53
leaf_count=1166 258 170 351 39 34 189 25 57 21 34 72 1290 22 55 110 67 83 83 185 32 35 166 110 287 218 251 228 45 120 53
internal_value=2.30609e-11 0.0271388 -0.0181389 0.0153135 0.044032 0.0549173 0.011615 0.0227078 0.0347733 0.00591243 0.0473069 -0.0233283 -0.000645036 0.0673078 0.00542259 -0.0003019 0.0423566 0.0522403 0.0181426 0.0582957 0.0175427 0.0398007 0.0407018 -0.000191431 -0.00586774 -0.0197472 0.0141843 0.0335356 0.0278419 0.0221073
internal_weight=5856 2346 3510 1380 966 444 1237 420 522 817 143 2707 803 244 452 307 352 166 272 104 145 200 135 545 240 1541 285 186 141 238
internal_count=5856 2346 3510 1380 966 444 1237 420 522 817 143 2707 803 244 452 307 352 166 272 104 145 200 135 545 240 1541 285 186 141 238
is_linear=0
shrinkage=0.05


Tree=10
num_leaves=31
num_cat=0
split_feature=3 3 7 9 0 7 8 7 9 14 14 13 0 13 14 14 3 7 6 6 0 12 4 4 14 3 6 10 0 5
split_gain=1040.66 170.326 115.514 72.823 43.3516 33.4653 29.7435 20.3983 19.464 18.4081 15.7061 15.6438 14.7635 12.4799 11.6259 11.3281 11.7949 11.1905 9.44265 11.0651 8.48759 8.39926 8.18029 7.7122 7.70995 6.81912 6.88393 6.75977 6.60309 6.61372
threshold=1.0296995833250002 2.6677436111000001 1.3145330069437502 5.5000000000000009 28.900000000000002 2.0476775925937507 1.1844201579916771 0.53199074724007944 20.500000000000004 1.0000000180025095e-35 0.60355339059327384 -0.78656609248549303 28.250000000000004 -0.91597561503675329 -0.9159756150367534 -0.78656609248549325 0.5222572221916667 1.5340093657433336 2.3415231944416672 0.99541930557500014 27.500000000000004 6.5000000000000009 2.0714848611166672 1.0614348611000002 0.1294095225512602 2.3230636111083336 0.82841361112500012 1.5000000000000002 35.900000000000006 0.89860402771666681
decision_type=2 2 2 2 2 2 2 2 2 2 2 2 2 2 2 2 2 2 2 2 2 2 2 2 2 2 2 2 2 2
left_child=2 3 7 4 20 8 9 -1 17 28 -8 27 -11 -4 -13 -15 -17 -5 19 -10 -2 -12 -6 -14 -9 26 -16 -7 29 -3
right_child=1 6 13 5 22 11 10 24 18 12 21 14 23 15 25 16 -18 -19 -20 -21 -22 -23 -24 -25 -26 -27 -28 -29 -30 -31
leaf_value=-0.024689818789267824 0.0063564269421383353 0.039729834207333628 -0.010830429910847837 -0.0089781087774657015 0.047588186996208481 0.02358878675629111 0.050127152504613831 -0.019562842557464023 0.023245451348447341 0.0230892628215865 0.096084600431578515 0.013412395743492607 0.035181274691705483 -0.0053276911565501781 0.037345228580423426 -0.011396538562861817 0.014249002385590084 0.0053309974115776596 0.049913310911506414 -0.014792715769726784 0.028561583528062331 0.064752005519853398 0.072480296536327107 0.053385853110871309 -0.010414935702787717 0.049092174619436268 0.018632420480370206 -0.0031790192390222468 0.048628566302359108 0.01026713997762272
leaf_weight=1885 78 25 163 199 142 34 139 543 94 67 35 116 77 175 103 53 291 436 24 24 96 55 43 238 400 50 94 77 20 80
leaf_count=1885 78 25 163 199 142 34 139 543 94 67 35 116 77 175 103 53 291 436 24 24 96 55 43 238 400 50 94 77 20 80
internal_value=2.49239e-11 0.0257818 -0.017232 0.0166728 0.0365234 0.0109763 0.0457078 -0.0216863 0.00458898 0.0389526 0.0606637 0.0214466 0.0444025 0.00123862 0.0264696 0.00502909 0.0102978 0.000846726 0.0213237 0.0155089 0.0186075 0.0769369 0.0533739 0.0489358 -0.0156825 0.0326017 0.0284163 0.00502013 0.0222975 0.0172821
internal_weight=5856 2346 3510 1610 359 1251 736 2828 777 507 229 474 382 682 363 519 344 635 142 118 174 90 185 315 943 247 197 111 125 105
internal_count=5856 2346 3510 1610 359 1251 736 2828 777 507 229 474 382 682 363 519 344 635 142 118 174 90 185 315 943 247 197 111 125 105
is_linear=0
shrinkage=0.05


Tree=11
num_leaves=31
num_cat=0
split_feature=8 9 3 0 3 7 9 0 7 8 9 13 3 3 9 12 2 9 4 1 4 1 13 4 6 0 6 7 0 4
split_gain=940.465 246.423 81.5939 53.7932 36.2864 29.5666 28.0889 19.9454 17.1575 15.7833 14.5534 11.6005 11.5598 11.39 10.3594 9.60065 10.6546 9.52951 9.1818 9.13723 9.12766 7.80985 6.94342 7.73858 7.53844 6.63166 6.55955 6.54235 6.43392 6.25287
threshold=0.76692193742561787 6.5000000000000009 2.2905719444250003 30.850000000000005 0.75447763888333341 2.0046389606484727 21.500000000000004 28.050000000000004 2.0046389606484727 1.2728410112931272 22.500000000000004 -0.91597561503675329 0.38740513894166667 0.92947555554166661 2.5000000000000004 6.5000000000000009 15.700000000000001 4.5000000000000009 3.1879673611250006 88.790000000000006 1.7306916666750003 79.155000000000015 -0.91597561503675329 3.0961218055750006 0.57578861108333346 34.150000000000013 0.41742486111666671 2.8605145069448619 26.100000000000005 1.4628611111250003
decision_type=2 2 2 2 2 2 2 2 2 2 2 2 2 2 2 2 2 2 2 2 2 2 2 2 2 2 2 2 2 2
left_child=4 3 5 7 12 6 15 19 -5 10 22 -7 -1 -8 29 16 26 28 -11 -2 -10 -16 25 24 -24 -4 -3 -13 -6 -9
right_child=1 2 9 8 17 11 13 14 20 18 -12 27 -14 -15 21 -17 -18 -19 -20 -21 -22 -23 23 -25 -26 -27 -28 -29 -30 -31
leaf_value=-0.02594898282772239 0.028509440995191062 0.0043276390564612683 -0.017242904130835086 0.042205001038188736 -0.0046008357120787399 -0.00092619249582007201 0.0037366920210516611 0.040511955204174707 0.057221156064082283 0.037374254074682922 0.052108005583674337 0.016864386237926021 -0.01904613971159809 0.037723897925730963 0.026045111820512404 -0.0064899080547611487 -0.0016395829258994622 -0.01087094847772478 0.075508651082162509 0.0024732506064617118 0.082491907239526374 0.044031677208031 0.0072467527352273464 0.045173613225952508 0.027412299836786197 0.022986955373060138 0.027330536251917243 0.039981267622418028 0.019026201393455268 0.058060850194813433
leaf_weight=1007 126 61 20 60 68 92 39 95 55 38 48 422 1525 67 127 514 275 377 27 46 102 115 64 42 168 21 63 33 50 109
leaf_count=1007 126 61 20 60 68 92 39 95 55 38 48 422 1525 67 127 514 275 377 27 46 102 115 64 42 168 21 63 33 50 109
internal_value=-9.53076e-11 0.0207267 0.0111774 0.0435308 -0.019371 0.00588971 0.000856078 0.0360107 0.0649476 0.0305242 0.0264612 0.0152668 -0.0217915 0.0252192 0.0415889 -0.0019725 0.00384693 -0.00698969 0.0532147 0.0215463 0.0736391 0.0345924 0.0225531 0.0254246 0.0218494 0.00336263 0.0160146 0.018541 0.00541062 0.0498886
internal_weight=5856 2829 1994 835 3027 1566 1019 618 217 428 363 547 2532 106 446 913 399 495 65 172 157 242 315 274 232 41 124 455 118 204
internal_count=5856 2829 1994 835 3027 1566 1019 618 217 428 363 547 2532 106 446 913 399 495 65 172 157 242 315 274 232 41 124 455 118 204
is_linear=0
shrinkage=0.05


Tree=12
num_leaves=31
num_cat=0
split_feature=3 3 7 14 14 8 0 7 9 7 1 7 0 3 9 7 3 13 13 7 8 8 8 14 9 7 7 6 1 6
split_gain=851.765 155.17 74.2478 43.2615 41.7795 35.6925 26.9239 26.1368 19.2578 17.5292 17.6225 13.5609 13.0012 12.5675 11.7629 11.7609 10.7598 9.96701 9.83195 9.29925 8.88752 8.85638 7.60719 7.49647 7.45373 7.77418 7.12422 6.97017 7.5466 6.6132
threshold=0.94147861113333353 2.1131013889083334 0.85551409490541674 0.25881904510252057 0.78656609248549303 1.0922374673182365 28.050000000000004 1.5141912430581945 10.500000000000002 2.233338206020417 74.77500000000002 1.8389682129581948 30.700000000000006 0.66294194445833343 8.5000000000000018 2.7001924953713892 0.38740513894166667 -0.37940952255126059 0.12940952255126045 2.1497338310152783 0.96912442983029812 1.0679886836979464 1.3049262232739636 0.91597561503675351 5.5000000000000009 1.6452545231491669 1.4428981273177779 0.91947472224166693 73.460000000000022 0.52660499998333343
decision_type=2 2 2 2 2 2 2 2 2 2 2 2 2 2 2 2 2 2 2 2 2 2 2 2 2 2 2 2 2 2
left_child=2 4 16 9 7 11 -6 -2 24 20 22 29 -7 23 -15 -10 -1 -14 27 -16 -3 -13 -11 26 -9 -26 -4 -8 -29 -5
right_child=1 3 13 5 6 12 18 8 15 10 -12 21 17 14 19 -17 -18 -19 -20 -21 -22 -23 -24 -25 25 -27 -28 28 -30 -31
leaf_value=-0.02468698290197352 -0.0059619784541628243 0.0005658080241969461 -0.018275676928257031 0.0137012186177978 0.0059571523106078036 0.044725003159794281 0.049564244907270093 0.03585070450503406 0.0035168516274285697 0.0212561540432613 0.057721306679063833 0.051638325617232389 0.035310956818007291 0.024462683051824571 -0.0033382165497441042 0.034366965189463264 -0.018012648842202449 0.072339635413416009 0.064470804289269906 0.022576778577879455 0.02115795127192098 0.023660463410326179 0.050657737699265661 0.017218519472749907 -0.0035499111700214841 0.021213278604588468 -0.004895647780311832 0.0042468568883594817 0.039890534267055272 0.032136711893301161
leaf_weight=986 299 77 183 66 74 107 47 69 484 143 58 132 21 55 308 33 1558 135 39 39 164 36 26 25 38 191 218 27 33 185
leaf_count=986 299 77 183 66 74 107 47 69 484 143 58 132 21 55 308 33 1558 135 39 39 164 36 26 25 38 191 218 27 33 185
internal_value=-1.45676e-11 0.0222176 -0.0163667 0.035677 0.0106146 0.0437105 0.0305262 0.00668238 0.0113212 0.0239702 0.0339408 0.0346482 0.0581481 -0.00336167 0.00297953 0.00548601 -0.0205995 0.067355 0.042979 -0.00042558 0.0145787 0.0456431 0.0257795 -0.00934563 0.0214448 0.0171041 -0.0110017 0.0351455 0.0238509 0.0272891
internal_weight=5856 2484 3372 1150 1334 682 220 1114 815 468 227 419 263 828 402 517 2544 156 146 347 241 168 169 426 298 229 401 107 60 251
internal_count=5856 2484 3372 1150 1334 682 220 1114 815 468 227 419 263 828 402 517 2544 156 146 347 241 168 169 426 298 229 401 107 60 251
is_linear=0
shrinkage=0.05


Tree=13
num_leaves=31
num_cat=0
split_feature=3 3 7 14 14 8 7 7 7 1 7 0 3 9 14 9 3 13 7 10 8 7 8 0 0 5 0 14 0 4
split_gain=768.718 140.041 67.091 39.0435 38.2102 32.2125 28.806 22.7438 15.8201 15.9043 12.2387 11.7335 11.5059 10.472 9.976 9.88593 9.56855 8.99523 8.94558 8.16351 8.02099 7.7838 6.86549 6.76984 11.1332 6.87781 6.15051 6.13776 5.62558 5.45853
threshold=0.94147861113333353 2.1131013889083334 0.82145056481361134 0.25881904510252057 0.25881904510252057 1.0922374673182365 0.99929918055416667 1.6149501782400002 2.233338206020417 74.77500000000002 1.8389682129581948 30.700000000000006 0.66888680557500013 10.500000000000002 0.91597561503675351 8.5000000000000018 0.42093319448333338 -0.37940952255126059 2.1497338310152783 2.5000000000000004 0.96912442983029812 2.4768086527790278 1.3049262232739636 30.850000000000005 28.900000000000002 2.0704181944416669 28.050000000000004 0.91597561503675351 34.900000000000006 1.2285654166916669
decision_type=2 2 2 2 2 2 2 2 2 2 2 2 2 2 2 2 2 2 2 2 2 2 2 2 2 2 2 2 2 2
left_child=2 4 16 8 7 10 -6 -2 20 22 27 -7 -4 -9 23 26 -1 -13 -17 -12 -3 28 -10 24 -8 -25 -14 -5 -15 -16
right_child=1 3 12 5 6 11 14 13 9 -11 19 17 15 21 29 18 -18 -19 -20 -21 -22 -23 -24 25 -26 -27 -28 -29 -30 -31
leaf_value=-0.023043970966995089 -0.0079699599013269042 0.00053751756370599784 -0.0089774055536367674 0.019667111814411636 -0.0058813781808336749 0.042488753356074341 0.015539934243618823 0.018581048849349222 0.020193346397148551 0.054835241344147204 0.027346561704244876 0.033545409011588034 0.0070206313481321562 -0.0029710125472087604 0.026033894230452617 -0.0033515195373090539 -0.016845879034815676 0.068722652633398496 0.022650608925126822 0.050946662516186118 0.020100053681327577 0.022792486136998327 0.048124850727617741 9.0089602268893609e-06 0.040274257757498516 0.026530922222776677 0.039760585000308664 0.035694137388574229 0.010520113338328278 0.049331543551614655
leaf_weight=1150 276 77 457 153 79 107 90 204 143 58 54 21 32 217 41 312 1358 135 37 114 164 51 26 55 92 44 26 98 120 65
leaf_count=1150 276 77 457 153 79 107 90 204 143 58 54 21 32 217 41 312 1358 135 37 114 164 51 26 55 92 44 26 98 120 65
internal_value=-1.73808e-11 0.0211067 -0.0155484 0.0338932 0.0100839 0.041525 0.021633 0.00388358 0.0227717 0.0322438 0.0329158 0.0552407 -0.00353222 0.00940989 0.0272497 0.0025819 -0.0196879 0.0639873 -0.000594847 0.0433609 0.0138498 0.00458794 0.0244905 0.0223192 0.028043 0.0117965 0.0216972 0.0259247 0.00183295 0.0403202
internal_weight=5856 2484 3372 1150 1334 682 466 868 468 227 419 263 864 592 387 407 2508 156 349 168 241 388 169 281 182 99 58 251 337 106
internal_count=5856 2484 3372 1150 1334 682 466 868 468 227 419 263 864 592 387 407 2508 156 349 168 241 388 169 281 182 99 58 251 337 106
is_linear=0
shrinkage=0.05


Tree=14
num_leaves=31
num_cat=0
split_feature=8 9 3 0 7 13 7 9 7 0 8 9 3 3 6 4 1 6 5 10 7 6 13 4 14 2 3 9 7 7
split_gain=696.75 184.849 60.0716 40.5999 27.1326 23.9721 20.256 17.4365 14.7728 13.5855 12.4093 11.1648 11.1037 10.519 10.217 8.16734 8.01458 7.52705 7.28105 7.08568 6.3347 5.94862 5.92253 6.05392 5.90271 5.63486 5.41381 5.05256 5.04414 4.93911
threshold=0.76692193742561787 6.5000000000000009 2.2905719444250003 30.050000000000004 0.62635347916541673 -0.91597561503675329 2.1497338310152783 21.500000000000004 1.8291416203745836 28.050000000000004 1.2728410112931272 22.500000000000004 0.92947555554166661 0.82546694445833346 2.8678494445000005 2.1694055555333338 88.790000000000006 0.81647847225000014 0.73699958335000015 2.5000000000000004 2.1213854282375002 0.45494861110000001 -0.91597561503675329 3.1402604167083337 -0.9159756150367534 9.6500000000000004 0.33993847222500001 2.5000000000000004 1.9850652060188889 1.5964723912079168
decision_type=2 2 2 2 2 2 2 2 2 2 2 2 2 2 2 2 2 2 2 2 2 2 2 2 2 2 2 2 2 2
left_child=4 3 5 9 24 -3 7 17 -5 16 11 21 -9 -6 -10 -12 -2 25 -11 -8 -16 -4 -23 -24 -1 -7 -26 -15 -27 -20
right_child=1 2 10 8 13 6 19 12 14 18 15 -13 -14 27 20 -17 -18 -19 29 -21 -22 22 23 -25 26 28 -28 -29 -30 -31
leaf_value=-0.012758035825214934 0.024999496507798397 -0.0077283939258578314 1.5860040568643145e-05 0.030664960878356448 -0.013006634154984282 0.021288951948798939 0.029489597846986727 0.0025011581530713519 0.066891495813153054 0.023520970386220141 0.025262969290768662 0.045030488275612401 0.033401710881934138 0.01240455242254856 0.019990827480242366 0.06122905790413681 0.0006151946342509726 -0.0025697212784361076 0.026448375566471973 0.013437172786262034 0.055557568263142343 0.00022309125192334942 0.020902061313238414 0.04306360975735718 -0.024497921900966994 0.0013067202067289939 -0.018785911657886751 -0.0044937625481021818 0.015480001769775962 0.042245740575450996
leaf_weight=273 126 298 36 53 570 58 112 46 151 100 27 48 79 55 21 38 46 435 62 178 31 29 214 36 611 279 1292 226 81 245
leaf_count=273 126 298 36 53 570 58 112 46 151 100 27 48 79 55 21 38 46 435 62 178 31 29 214 36 611 279 1292 226 81 245
internal_value=-8.42214e-11 0.0178401 0.00956941 0.0375908 -0.0166732 0.00503242 0.00803141 0.00459016 0.0541717 0.0302597 0.0261697 0.022567 0.0220303 -0.00910355 0.0603089 0.0462893 0.0184781 0.00203445 0.0352386 0.0196367 0.0411941 0.019144 0.0216122 0.0240933 -0.0196335 0.00682587 -0.0206199 -0.00118626 0.00449571 0.0390554
internal_weight=5856 2829 1994 835 3027 1566 1268 978 256 579 428 363 125 851 203 65 172 853 407 290 52 315 279 250 2176 418 1903 281 360 307
internal_count=5856 2829 1994 835 3027 1566 1268 978 256 579 428 363 125 851 203 65 172 853 407 290 52 315 279 250 2176 418 1903 281 360 307
is_linear=0
shrinkage=0.05


Tree=15
num_leaves=31
num_cat=0
split_feature=8 9 3 0 7 13 7 9 7 0 9 8 14 3 6 1 6 7 8 14 10 4 1 7 14 9 6 1 13 4
split_gain=628.817 166.826 54.2147 36.6414 24.5069 21.6348 18.281 15.7365 13.3325 12.2609 11.357 10.3214 10.2714 10.0211 9.22084 7.23316 6.79316 6.68962 6.46808 6.435 6.39482 6.11911 6.00797 5.71706 5.4241 5.39495 5.36863 5.34977 5.34508 5.46366
threshold=0.76692193742561787 6.5000000000000009 2.2905719444250003 30.050000000000004 0.61797705092666677 -0.91597561503675329 2.1497338310152783 21.500000000000004 1.8291416203745836 28.050000000000004 22.500000000000004 1.2728410112931272 0.1294095225512602 0.92947555554166661 2.8678494445000005 88.790000000000006 0.81647847225000014 1.6239846388868058 0.59351237327990425 0.91597561503675351 2.5000000000000004 2.1694055555333338 75.445000000000007 2.1213854282375002 -0.9159756150367534 2.5000000000000004 0.45494861110000001 79.155000000000015 -0.91597561503675329 3.1402604167083337
decision_type=2 2 2 2 2 2 2 2 2 2 2 2 2 2 2 2 2 2 2 2 2 2 2 2 2 2 2 2 2 2
left_child=4 3 5 9 24 -3 7 16 -5 15 11 26 -6 -9 -10 -2 -7 22 -14 -20 -8 -13 -11 -16 -1 -19 -4 -27 -28 -30
right_child=1 2 10 8 12 6 20 13 14 17 -12 21 18 -15 23 -17 -18 25 19 -21 -22 -23 -24 -25 -26 27 28 -29 29 -31
leaf_value=-0.012120133867044252 0.023749521828537425 -0.007341974302454409 1.5067081484529708e-05 0.029131713087828654 -0.013803767912793273 0.0064845779115411022 0.028015117977104511 0.0023761001921704284 0.063546920647931021 0.0078880640434189925 0.046762657967897567 0.022283622522193652 -0.0068018143959771085 0.031731625414111571 0.018991285872956121 0.00058443473409051482 -0.002441235176854949 0.045109676805857035 -0.00016462080758300763 0.026716421030822304 0.012765314250012464 0.054306343612926349 0.032544698668643839 0.052779690113158965 -0.019662293371211295 0.022715609746546239 0.00021193663284567923 0.040010214396043804 0.019856958236179761 0.040910430128375697
leaf_weight=273 126 298 36 53 470 418 112 46 151 42 52 26 294 79 21 46 435 126 79 31 178 35 60 31 1880 87 29 92 214 36
leaf_count=273 126 298 36 53 470 418 112 46 151 42 52 26 294 79 21 46 435 126 79 31 178 35 60 31 1880 87 29 92 214 36
internal_value=-2.9069e-11 0.0169481 0.00909094 0.0357112 -0.0158395 0.0047808 0.00762984 0.00436065 0.0514631 0.0287467 0.0248612 0.0218323 -0.00877838 0.0209288 0.0572935 0.0175542 0.00193273 0.0334767 -0.002932 0.00741095 0.0186549 0.0406573 0.022392 0.0391344 -0.0187059 0.0371837 0.0181868 0.0316045 0.0205316 0.0228887
internal_weight=5856 2829 1994 835 3027 1566 1268 978 256 579 428 376 874 125 203 172 853 407 404 110 290 61 102 52 2153 305 315 179 279 250
internal_count=5856 2829 1994 835 3027 1566 1268 978 256 579 428 376 874 125 203 172 853 407 404 110 290 61 102 52 2153 305 315 179 279 250
is_linear=0
shrinkage=0.05


Tree=16
num_leaves=31
num_cat=0
split_feature=3 3 7 14 8 8 9 8 3 7 14 6 9 14 6 5 3 13 0 7 7 14 14 12 12 9 7 2 4 8
split_gain=570.861 101.823 48.6385 47.1485 26.8566 19.6918 19.0774 16.3831 11.4792 10.9165 10.7576 10.6547 10.0379 9.87231 8.29861 7.82377 7.80958 8.76662 7.31613 7.28844 7.25609 9.07311 7.24362 6.9572 6.78395 5.90378 5.36065 5.13082 5.09628 5.08461
threshold=0.94147861113333353 2.6677436111000001 1.3145330069437502 0.78656609248549303 0.92672301111666322 0.82712355866311138 10.500000000000002 1.1844201579916771 0.47175722220833333 2.0476775925937507 0.60355339059327384 0.57578861108333346 1.5000000000000002 -0.78656609248549325 0.8753255555916668 0.76611083333333341 0.37436041664166669 0.78656609248549325 28.050000000000004 2.7001924953713892 1.0682717037022222 0.25881904510252057 0.78656609248549303 6.5000000000000009 6.5000000000000009 1.0000000180025095e-35 2.6305002222241671 11.300000000000002 1.7805752777750004 0.48895763814444865
decision_type=2 2 2 2 2 2 2 2 2 2 2 2 2 2 2 2 2 2 2 2 2 2 2 2 2 2 2 2 2 2
left_child=2 3 8 4 20 29 9 11 -1 -6 26 -3 25 -13 27 -11 -4 23 -15 -8 -2 -22 -20 -18 -12 -7 -9 -14 -27 -5
right_child=1 7 16 5 6 12 19 10 -10 15 24 13 14 18 -16 -17 17 -19 22 -21 21 -23 -24 -25 -26 28 -28 -29 -30 -31
leaf_value=-0.0192361737483175 -0.011280309443030354 0.015899935258995194 -0.01794397792987654 -0.005594176210134345 0.013708240625107596 0.037053177801759117 0.0045974896184917784 0.026420564344485427 -0.012789486196013142 0.0026912010613490238 0.075565523920314653 -0.00047787191080195571 0.024989308198185071 0.014017078380933717 0.018861187385330196 0.034647780628340022 0.0063790387007671649 0.02485242683843181 0.030403509967583703 0.023632628591232271 -0.0028038237116546657 0.016073041402215008 0.04537330303084329 -0.0054605917356740172 0.047406519177285111 0.047358126322860308 0.046059259529347009 0.055389729341758155 0.081868675164878377 0.018268552511357346
leaf_weight=1464 146 122 58 34 224 42 493 70 1307 22 35 21 23 38 86 148 218 37 178 56 245 86 148 288 55 23 69 35 20 65
leaf_count=1464 146 122 58 34 224 42 493 70 1307 22 35 21 23 38 86 148 218 37 178 56 245 86 148 288 55 23 69 35 20 65
internal_value=-8.50934e-11 0.0181887 -0.0133988 0.01162 0.00767333 0.028706 0.0125639 0.0337896 -0.0161955 0.0209587 0.0448894 0.0287761 0.0367611 0.0328563 0.0287184 0.0305122 -0.000504544 0.00135823 0.0347795 0.00653914 -0.00199493 0.00210074 0.0371996 -0.000359723 0.0583572 0.0503864 0.0361693 0.0433344 0.0634095 0.0100733
internal_weight=5856 2484 3372 1748 1420 328 943 736 2771 394 229 507 229 385 144 170 601 543 364 549 477 331 326 506 90 85 139 58 43 99
internal_count=5856 2484 3372 1748 1420 328 943 736 2771 394 229 507 229 385 144 170 601 543 364 549 477 331 326 506 90 85 139 58 43 99
is_linear=0
shrinkage=0.05


Tree=17
num_leaves=31
num_cat=0
split_feature=3 3 7 14 14 0 8 8 7 9 0 0 3 14 7 7 7 8 8 4 5 9 3 0 3 0 9 1 8 0
split_gain=515.405 93.7259 42.5006 29.3112 28.3781 21.9662 21.2437 16.77 16.6224 11.0986 14.2579 9.14333 8.89123 9.62759 11.1941 8.35758 8.27229 7.76721 7.43524 7.98152 7.31052 7.26225 7.24383 7.18408 11.1718 6.50968 6.13459 5.736 4.99181 4.8652
threshold=0.92947555554166661 2.1131013889083334 0.82145056481361134 0.60355339059327384 0.25881904510252057 27.900000000000002 1.0922374673182365 1.0282021682896567 1.6149501782400002 8.5000000000000018 30.700000000000006 32.050000000000004 0.37436041664166669 0.91597561503675351 1.9076906296318057 1.8389682129581948 2.1653146736122229 1.0679886836979464 1.2306168707649132 2.399357361091667 0.7957523611166667 10.500000000000002 0.33993847222500001 36.500000000000007 2.9546598611250001 36.500000000000007 2.5000000000000004 79.615000000000023 1.252138546621641 30.050000000000004
decision_type=2 2 2 2 2 2 2 2 2 2 2 2 2 2 2 2 2 2 2 2 2 2 2 2 2 2 2 2 2 2
left_child=2 4 22 7 8 -6 15 27 -2 10 -9 16 -4 14 -14 -5 -7 -17 -12 -20 -8 29 -1 -11 -25 -23 -22 -3 -28 -10
right_child=1 3 12 6 5 11 20 9 21 23 18 -13 13 -15 -16 17 -18 -19 19 -21 26 25 -24 24 -26 -27 28 -29 -30 -31
leaf_value=-0.020365192229902396 -0.007016004023058537 0.0049344675005981815 -0.018328854942630077 0.022966935825488515 -0.00090420574476213558 0.023407071630886622 0.023753129335289655 0.021431959751810479 0.0068049227233014766 0.012582341348311994 0.060496523317236164 -0.0056066289621715748 -0.0058089379503881225 0.022420220511266964 0.0099761772289429975 0.046236085282442607 0.047381028966841904 0.015845522529411096 0.02117956945529351 0.058844236436892641 0.06403950156046101 0.0011718762373480716 -0.014413248041401797 0.013969007217221791 0.063273237049579628 0.020163718843384863 0.035466360287996483 0.023412257871158155 0.063961069455200983 0.022245843350409276
leaf_weight=717 284 168 87 204 115 294 22 112 93 152 52 24 585 40 139 95 41 27 39 22 81 341 1781 27 20 52 51 56 22 113
leaf_count=717 284 168 87 204 115 294 22 112 93 152 52 24 585 40 139 95 41 27 39 22 81 341 1781 27 20 52 51 56 22 113
internal_value=-2.88673e-11 0.0171445 -0.012834 0.0276463 0.00824464 0.0181134 0.0367156 0.0206204 0.00294702 0.0264668 0.0340746 0.0242054 -0.00318372 -0.00145907 -0.00277837 0.029158 0.0263412 0.0395103 0.0466053 0.0347635 0.0507142 0.00767072 -0.0161216 0.017865 0.0349495 0.00368479 0.0545658 0.00955392 0.0440538 0.0152749
internal_weight=5856 2507 3349 1150 1357 474 502 648 883 424 225 359 851 764 724 326 335 122 113 61 176 599 2498 199 47 393 154 224 73 206
internal_count=5856 2507 3349 1150 1357 474 502 648 883 424 225 359 851 764 724 326 335 122 113 61 176 599 2498 199 47 393 154 224 73 206
is_linear=0
shrinkage=0.05


Tree=18
num_leaves=31
num_cat=0
split_feature=8 9 3 0 3 13 7 9 8 7 0 8 9 6 3 1 4 6 5 14 10 1 2 7 13 6 6 6 8 6
split_gain=465.483 127.392 39.2874 28.273 18.8708 17.715 13.7462 12.5435 10.5346 10.3082 9.40738 8.2579 8.10327 8.07975 7.89309 6.43122 6.32629 5.93062 5.89021 5.8749 5.17353 5.69559 5.05377 4.8167 4.51269 4.9446 4.4728 6.94667 4.4496 4.71905
threshold=0.76692193742561787 6.5000000000000009 2.2641440277666671 30.050000000000004 0.6149848610833335 -0.91597561503675329 2.1497338310152783 21.500000000000004 1.2728410112931272 1.8291416203745836 28.050000000000004 0.32716778185289985 22.500000000000004 2.8678494445000005 0.92947555554166661 88.790000000000006 1.2910079167083335 0.81647847225000014 0.73699958335000015 0.1294095225512602 2.5000000000000004 53.50500000000001 9.6500000000000004 2.1070538217561112 -0.98296291314453399 1.7929890277500002 0.99541930557500014 2.3415231944416672 1.3126838697420882 1.8885823611166668
decision_type=2 2 2 2 2 2 2 2 2 2 2 2 2 2 2 2 2 2 2 2 2 2 2 2 2 2 2 2 2 2
left_child=4 3 5 10 -1 24 7 17 12 -5 15 -6 -4 28 -9 -2 -10 22 -12 -13 21 -8 -7 -15 -3 -26 -16 -28 29 -11
right_child=1 2 8 9 11 6 20 14 16 13 18 19 -14 23 26 -17 -18 -19 -20 -21 -22 -23 -24 -25 25 -27 27 -29 -30 -31
leaf_value=-0.016167607291967048 0.020898186968452859 -0.015676578574813901 0.014788307985347846 0.025178782525911648 -0.01100600495881607 0.019806894327380829 0.0099775921541731816 0.0022640435915926229 0.015576237570494415 0.044241224521150195 0.01846424228185788 -0.0082691270600795952 0.036788240682896385 0.01369420466478914 0.040970931699298122 -0.00094503902415137583 0.049151398225667636 -0.0025281385798222337 0.032436403111442434 0.0055968200668647166 0.01099560963921249 0.033820763608412956 0.0036573344315298443 0.044973465023213068 0.00034280743241461734 -0.023883871485789618 -0.0039855533838272098 0.037687775129452351 0.077761696027591823 0.06342386856309272
leaf_weight=2141 126 100 327 53 579 56 40 46 20 75 100 143 48 20 37 46 47 433 307 164 178 67 359 32 172 24 20 20 20 56
leaf_count=2141 126 100 327 53 579 56 40 46 20 75 100 143 48 20 37 46 47 433 307 164 178 67 359 32 172 24 20 20 20 56
internal_value=1.4285e-11 0.0145818 0.00771578 0.0309781 -0.013628 0.00397036 0.00656363 0.00372976 0.0208671 0.0448147 0.0248603 -0.00749106 0.0176043 0.0499414 0.0186513 0.0150564 0.039129 0.00156543 0.0290034 -0.000861911 0.0162186 0.0249074 0.00583655 0.032943 -0.00703347 -0.00262372 0.0284412 0.0168511 0.0557951 0.0524414
internal_weight=5856 2829 1994 835 3027 1552 1256 971 442 256 579 886 375 203 123 172 67 848 407 307 285 107 415 52 296 196 77 40 151 131
internal_count=5856 2829 1994 835 3027 1552 1256 971 442 256 579 886 375 203 123 172 67 848 407 307 285 107 415 52 296 196 77 40 151 131
is_linear=0
shrinkage=0.05


Tree=19
num_leaves=31
num_cat=0
split_feature=3 3 14 7 7 8 14 0 7 14 9 0 3 14 7 0 9 7 6 3 13 5 7 14 4 3 9 9 0 5
split_gain=421.35 76.0084 38.2117 34.4342 21.4921 17.0469 12.8855 21.4065 11.8249 12.0399 11.1791 8.51564 8.03256 8.27316 9.61941 8.00436 7.90125 6.64591 6.39274 6.3568 6.18987 5.65056 6.2427 5.216 6.51857 6.90348 5.18907 5.07603 5.56394 4.89747
threshold=0.92947555554166661 2.6677436111000001 0.78656609248549303 0.82145056481361134 2.1744197407441672 0.82712355866311138 1.0000000180025095e-35 30.700000000000006 1.0682717037022222 0.25881904510252057 11.500000000000002 30.850000000000005 0.37436041664166669 0.91597561503675351 1.9076906296318057 36.500000000000007 1.5000000000000002 1.3482415601845836 0.99541930557500014 0.33993847222500001 -0.98296291314453399 0.7010566666500001 2.1993332847236116 0.78656609248549303 1.4628611111250003 3.1402604167083337 1.0000000180025095e-35 10.500000000000002 31.900000000000002 1.2096298611250003
decision_type=2 2 2 2 2 2 2 2 2 2 2 2 2 2 2 2 2 2 2 2 2 2 2 2 2 2 2 2 2 2
left_child=3 2 4 19 8 -4 15 17 -2 27 -6 29 -5 14 -14 21 26 -8 -18 -1 -12 -3 -23 -19 -25 -26 -7 28 -10 -11
right_child=1 6 5 12 10 16 7 -9 9 11 20 -13 13 -15 -16 -17 18 23 -20 -21 -22 22 -24 24 25 -27 -28 -29 -30 -31
leaf_value=-0.018538551768573778 -0.0098976151535633758 0.038233568315349881 0.008005462471617035 -0.017312943367501613 0.027376065092626963 0.032249783161318019 0.001221519413117606 0.04632148334238026 0.0032229313535919023 0.013606074362654577 -0.014994062321341557 -0.00062849171980119804 -0.0053107687367004962 0.020857512790244073 0.0093220591752810021 0.041578624253311464 0.036534640536244431 0.021270369581251558 0.015657176152355484 -0.012962919625739689 0.012509725949273923 -0.0024723784253103333 0.018585661519065742 0.021469243118142495 0.061760368579698188 0.032783455735637394 0.056959372655715969 -0.0019887088713320821 0.021044362546791408 0.030598734822664144
leaf_weight=717 156 21 101 87 150 42 26 194 215 110 23 68 585 40 139 31 70 162 77 1781 185 57 92 61 31 61 43 407 55 69
leaf_count=717 156 21 101 87 150 42 26 194 215 110 23 68 585 40 139 31 70 162 77 1781 185 57 92 61 31 61 43 407 55 69
internal_value=1.19695e-11 0.0155014 0.00988896 -0.0116041 0.00635468 0.0251511 0.0290064 0.0330615 0.00283535 0.00498507 0.0169716 0.0144342 -0.0029177 -0.00127845 -0.00250143 0.0182129 0.0326154 0.0255177 0.0255988 -0.0145633 0.00946844 0.0139521 0.0105299 0.0275231 0.0341437 0.0425474 0.0447499 0.00153762 0.00685322 0.0201563
internal_weight=5856 2507 1771 3349 1438 333 736 535 1080 924 358 247 851 764 724 201 232 341 147 2498 208 170 149 315 153 92 85 677 270 179
internal_count=5856 2507 1771 3349 1438 333 736 535 1080 924 358 247 851 764 724 201 232 341 147 2498 208 170 149 315 153 92 85 677 270 179
is_linear=0
shrinkage=0.05


Tree=20
num_leaves=31
num_cat=0
split_feature=3 3 14 7 7 8 6 9 7 9 3 13 0 6 4 12 4 13 0 14 7 9 4 14 8 6 1 10 4 3
split_gain=380.269 69.1577 43.5886 31.0935 22.4009 20.5088 12.7827 11.2014 10.5992 10.4238 8.11042 7.59773 14.1825 8.02801 7.55924 7.50569 7.43756 6.83902 6.31246 5.934 7.33085 8.41288 5.13809 5.06316 5.90451 4.63479 4.54215 4.29468 4.21707 4.00488
threshold=0.92947555554166661 2.8431944444833337 0.78656609248549303 0.85551409490541674 2.1497338310152783 0.82712355866311138 0.62740180552500013 10.500000000000002 1.0682717037022222 5.5000000000000009 0.37436041664166669 0.12940952255126045 30.050000000000004 0.75705888891666684 1.0614348611000002 7.5000000000000009 3.1402604167083337 -0.98296291314453399 19.300000000000001 0.91597561503675351 1.4636456990776392 9.5000000000000018 2.7817711111500008 1.0000000180025095e-35 1.0890819139965833 1.7929890277500002 75.445000000000007 1.0000000180025095e-35 2.2905719444250003 3.1402604167083337
decision_type=2 2 2 2 2 2 2 2 2 2 2 2 2 2 2 2 2 2 2 2 2 2 2 2 2 2 2 2 2 2
left_child=3 2 4 18 8 -4 16 22 -2 -10 -5 26 13 -13 27 19 -3 -9 -1 20 -12 -22 -6 24 -16 -19 -7 -8 -26 -25
right_child=1 6 5 10 7 11 14 17 9 -11 15 12 -14 -15 23 -17 -18 25 -20 -21 21 -23 -24 29 28 -27 -28 -29 -30 -31
leaf_value=-0.017791400591118469 -0.0095619965114432035 0.012555568546111532 0.0063791162186624638 -0.017357056940827204 0.023347085171597871 0.020477355531495465 0.042283165207620536 -0.01450251007380967 0.015969219114993428 0.0020696509741641948 -0.0064818606973211807 0.055415547053728788 0.071695930102179131 0.017399389614782681 0.0036518041277304293 -0.0078810550483032708 0.043890800796957181 0.015158152264174371 -0.012214318068102931 0.024313308255126079 0.033569670296632326 0.0036684713138810353 0.050542198254261164 0.052576998961516297 0.018357737577500064 -0.0065356149437970348 0.03720615926006484 0.017145369217071809 0.046814721245318658 0.037187252568690918
leaf_weight=702 157 136 104 83 132 114 21 26 163 782 180 21 31 41 22 251 22 204 1830 30 26 247 20 52 23 28 63 89 30 226
leaf_count=702 157 136 104 83 132 114 21 26 163 782 180 21 31 41 22 251 22 204 1830 30 26 247 20 52 23 28 63 89 30 226
internal_value=-1.57565e-12 0.0147263 0.00996107 -0.0110239 0.00618061 0.0252447 0.0291987 0.0161582 0.00246844 0.00446714 -0.00254246 0.0325114 0.0440825 0.0302758 0.0333892 -0.000867243 0.0169187 0.00981473 -0.0137606 0.00277762 0.00135141 0.0065162 0.0269254 0.0369556 0.0254268 0.0125399 0.0264317 0.0219444 0.0344655 0.0400659
internal_weight=5856 2507 1886 3349 1512 374 621 410 1102 945 817 270 93 62 463 734 158 258 2532 483 453 273 152 353 75 232 177 110 53 278
internal_count=5856 2507 1886 3349 1512 374 621 410 1102 945 817 270 93 62 463 734 158 258 2532 483 453 273 152 353 75 232 177 110 53 278
is_linear=0
shrinkage=0.05


Tree=21
num_leaves=31
num_cat=0
split_feature=8 9 3 7 13 7 0 7 9 9 6 14 7 6 5 6 10 14 3 4 3 8 1 1 8 0 2 0 3 1
split_gain=343.771 95.5336 28.9315 21.8638 15.0785 14.9261 12.4828 11.7392 9.33761 8.5786 7.98411 7.59886 7.23756 5.44497 5.37005 5.1366 5.09714 4.7182 4.70784 4.62193 9.17513 4.60291 4.44922 5.31235 4.4045 4.73318 4.34293 4.30021 4.25449 3.94906
threshold=0.76692193742561787 6.5000000000000009 2.3457852777916672 1.8389682129581948 -0.91597561503675329 0.59726241203569452 30.850000000000005 2.1744197407441672 21.500000000000004 1.5000000000000002 2.8678494445000005 0.1294095225512602 2.6305002222241671 1.6030055555333336 1.0251354166833335 0.81647847225000014 5.5000000000000009 -0.98296291314453399 0.92947555554166661 1.7121024999916667 2.8779662500000005 1.0679886836979464 74.950000000000003 88.515000000000015 1.0552219773175684 29.900000000000002 9.6500000000000004 26.500000000000004 3.1879673611250006 79.155000000000015
decision_type=2 2 2 2 2 2 2 2 2 2 2 2 2 2 2 2 2 2 2 2 2 2 2 2 2 2 2 2 2 2
left_child=5 3 4 9 -3 17 -5 8 15 21 19 -7 14 -14 28 26 -16 -1 -10 -8 -21 29 -11 -24 25 -20 -6 -13 -4 -2
right_child=1 2 12 6 7 11 10 -9 18 22 -12 27 13 -15 16 -17 -18 -19 24 20 -22 -23 23 -25 -26 -27 -28 -29 -30 -31
leaf_value=-0.0026306250716035054 0.030412838308672821 -0.0064980634564490661 0.016971861095225905 0.027468955895078109 0.018147590409578949 -0.010562870230362752 0.038188500052395588 0.0149311670959194 0.0030891561761815498 0.0026981444808964927 0.026070200355554171 -0.0061275135284993877 0.024063015267760918 0.05278574539856478 0.0078928318817932646 -0.0022369610248269274 0.027486684747273105 -0.014522634033819128 0.030626022383089993 0.086288109093549711 0.048272759858518838 0.050936078438535343 0.021564452257715291 0.0015996513498383901 0.043328005010262134 0.0036123920177273897 0.0034376672290388232 0.0040205756701605843 0.04073511881213035 0.0078754435508297041
leaf_weight=87 77 302 48 268 58 500 48 282 47 75 44 226 66 22 195 446 40 2020 31 21 65 20 148 43 20 34 372 194 31 26
leaf_count=87 77 302 48 268 58 500 48 282 47 75 44 226 66 22 195 446 40 2020 31 21 65 20 148 43 20 34 372 194 31 26
internal_value=-3.89609e-11 0.0125312 0.0065854 0.02673 0.00355894 -0.0117115 0.0342861 0.00591338 0.00339054 0.0180667 0.0445501 -0.00639811 0.0185708 0.0312437 0.0150191 0.00152247 0.011228 -0.0140316 0.0157877 0.0506181 0.0575556 0.0289859 0.0130176 0.0170698 0.0228093 0.0164958 0.0054218 -0.00144006 0.0262967 0.0247238
internal_weight=5856 2829 1994 835 1592 3027 446 1290 1008 389 178 920 402 88 314 876 235 2107 132 134 86 123 266 191 85 65 430 420 79 103
internal_count=5856 2829 1994 835 1592 3027 446 1290 1008 389 178 920 402 88 314 876 235 2107 132 134 86 123 266 191 85 65 430 420 79 103
is_linear=0
shrinkage=0.05


Tree=22
num_leaves=31
num_cat=0
split_feature=3 14 0 8 7 13 7 7 3 9 13 0 6 9 7 3 6 7 10 7 4 6 9 4 6 12 7 10 3 0
split_gain=311.793 58.1133 33.111 26.443 25.1337 15.8986 11.0556 9.88077 9.0326 8.21622 7.95482 7.4696 7.26926 6.42664 6.78561 6.33905 6.32285 6.30624 6.15796 6.095 5.70708 5.75951 5.20855 6.70096 8.1197 5.13077 4.95318 4.83543 4.78088 5.90738
threshold=0.92947555554166661 0.25881904510252057 28.050000000000004 0.96912442983029812 1.4636456990776392 -0.37940952255126059 2.7001924953713892 1.6239846388868058 0.61901902780000018 7.5000000000000009 0.78656609248549325 30.700000000000006 2.8678494445000005 11.500000000000002 2.0227978611119446 2.2641440277666671 0.64965791661666683 0.99929918055416667 1.0000000180025095e-35 2.1213854282375002 1.3096177777916671 1.8885823611166668 2.5000000000000004 1.4262002778333336 2.1773959722083336 6.5000000000000009 2.7569271574054173 2.5000000000000004 2.9196297222083341 32.050000000000004
decision_type=2 2 2 2 2 2 2 2 2 2 2 2 2 2 2 2 2 2 2 2 2 2 2 2 2 2 2 2 2 2
left_child=4 3 17 13 8 28 15 -7 -1 -8 25 16 18 14 -2 -5 -9 -3 -13 -14 -20 26 -18 -24 27 -6 -22 -25 29 -4
right_child=1 2 5 6 10 7 9 11 -10 -11 -12 12 19 -15 -16 -17 22 -19 20 -21 21 -23 23 24 -26 -27 -28 -29 -30 -31
leaf_value=-0.013291609044282563 0.00081425473099530101 -0.0043935837444302669 0.015406766901118944 0.0059040724753175924 0.0049302455559128901 0.018698171822339942 0.054776198398321867 0.041025231170842981 -0.0066286980407136396 0.019836151880159414 0.025093194385690076 0.071810553559944743 0.0065124983123193191 -0.0078335359666819801 0.031293465108610689 0.015788000372553908 0.033361008999588881 0.011728951714365886 0.022663653236148613 0.040074787120665277 0.049893398588579718 0.062231122081478442 0.028899587789136507 -0.02305952360155061 0.033612081632018086 -0.0058253510654645256 0.01926493200642819 0.0093774001527991563 0.03631540847861249 -0.011027872034658989
leaf_weight=2207 210 92 177 469 198 147 20 77 661 106 31 21 24 278 20 248 98 178 28 31 33 42 72 20 20 252 22 27 23 24
leaf_count=2207 210 92 177 469 198 147 20 77 661 106 31 21 24 278 20 248 98 178 28 31 33 42 72 20 20 252 22 27 23 24
internal_value=-4.20252e-11 0.0133347 0.0215643 0.00629292 -0.0099821 0.0262357 0.0117231 0.0301317 -0.011756 0.0253822 0.00059478 0.0333953 0.0409216 -0.00271823 0.00346462 0.00932278 0.0285775 0.00623535 0.0467577 0.0254294 0.0425488 0.0482888 0.0245333 0.0183094 0.00692897 -0.00109289 0.037642 -0.00442555 0.0147214 0.0122504
internal_weight=5856 2507 1156 1351 3349 886 843 662 2868 126 481 515 201 508 230 717 314 270 146 55 125 97 237 139 67 450 55 47 224 201
internal_count=5856 2507 1156 1351 3349 886 843 662 2868 126 481 515 201 508 230 717 314 270 146 55 125 97 237 139 67 450 55 47 224 201
is_linear=0
shrinkage=0.05


Tree=23
num_leaves=31
num_cat=0
split_feature=3 14 0 8 7 9 3 7 0 9 3 7 14 3 9 7 8 4 3 6 1 0 12 6 5 10 1 4 4 5
split_gain=281.393 52.4473 29.8827 23.8648 23.1013 14.5848 10.5583 9.97765 8.95934 7.41514 6.98248 6.17634 7.03778 5.81157 5.80004 6.12401 5.72289 5.683 5.595 6.24948 5.01865 4.81793 4.34981 5.56411 4.12992 3.95558 3.86238 3.70637 3.67906 7.26872
threshold=0.92947555554166661 0.25881904510252057 28.050000000000004 0.96912442983029812 0.74583435879638904 2.5000000000000004 2.8779662500000005 2.7001924953713892 31.050000000000004 7.5000000000000009 0.37436041664166669 1.9076906296318057 0.91597561503675351 1.9646415277583331 11.500000000000002 2.0227978611119446 0.53899040204292081 1.4628611111250003 3.4393338888750002 1.8885823611166668 75.445000000000007 19.300000000000001 5.5000000000000009 2.6096381944500004 2.0908218055416672 1.5000000000000002 74.805000000000021 0.66839388890833351 1.8004166666666668 1.2880761111000003
decision_type=2 2 2 2 2 2 2 2 2 2 2 2 2 2 2 2 2 2 2 2 2 2 2 2 2 2 2 2 2 2
left_child=4 3 16 14 21 8 20 13 17 -9 -6 12 -12 -5 15 -2 -3 -4 19 -19 22 -1 28 -24 -22 -18 -13 -15 29 -7
right_child=1 2 5 7 10 6 -8 9 -10 -11 11 26 -14 27 -16 -17 25 18 -20 -21 24 -23 23 -25 -26 -27 -28 -29 -30 -31
leaf_value=-0.015528178340712288 0.0007735420243504147 -0.0051958900807715707 0.021689678573779562 0.0046174764153578225 -0.015713164312464577 0.012050558732321057 0.030099059893759564 0.052037388235330585 0.053937146364849933 0.018844344204770543 -0.0045305709647982442 0.0048433503145352006 0.01708776138490066 0.00092431483980344269 -0.0074418591937592945 0.02972879224456847 0.020798093752819116 0.034130129674128422 0.023328163325786591 0.061128190307713604 0.019041676261355129 -0.010616534968579866 0.0022815315825519739 0.024167431241555796 0.040491921361535788 0.0055132447363808752 0.028508625025860969 0.01579958334074642 0.0089675022691891003 0.05110061453147368
leaf_weight=702 210 81 111 380 93 26 188 20 47 106 640 125 40 49 278 20 64 58 50 34 113 1729 135 37 28 125 20 288 37 22
leaf_count=702 210 81 111 380 93 26 188 20 47 106 640 125 40 49 278 20 64 58 50 34 113 1729 135 37 28 125 20 288 37 22
internal_value=1.75633e-11 0.012668 0.0204861 0.00597827 -0.009483 0.0249239 0.0203338 0.011137 0.0338897 0.0241131 -0.00272526 -0.00126117 -0.0032589 0.00885664 -0.00258232 0.00329139 0.00592358 0.0301655 0.0367909 0.0441077 0.0157211 -0.0120349 0.0115624 0.00698954 0.0233013 0.0106891 0.00810753 0.0136367 0.0208156 0.0299485
internal_weight=5856 2507 1156 1351 3349 886 586 843 300 126 918 825 680 717 508 230 270 253 142 92 398 2431 257 172 141 189 145 337 85 48
internal_count=5856 2507 1156 1351 3349 886 586 843 300 126 918 825 680 717 508 230 270 253 142 92 398 2431 257 172 141 189 145 337 85 48
is_linear=0
shrinkage=0.05


Tree=24
num_leaves=31
num_cat=0
split_feature=8 9 3 7 13 3 7 0 9 9 6 7 5 6 10 6 8 14 5 3 12 1 1 8 2 3 5 6 8 1
split_gain=254.582 70.5577 21.1509 16.843 12.5545 11.727 10.4841 9.5152 8.04094 7.01397 6.601 5.76189 4.92453 4.71978 4.61151 4.44282 4.38492 5.29149 4.16833 4.83352 4.55769 3.97657 4.54087 3.84059 3.70191 3.67652 3.63373 4.79126 3.70694 4.9995
threshold=0.76692193742561787 6.5000000000000009 2.3457852777916672 1.8389682129581948 -0.98296291314453399 0.5733497222416668 2.0476775925937507 30.850000000000005 22.500000000000004 1.5000000000000002 2.8678494445000005 2.6305002222241671 1.0251354166833335 1.6030055555333336 5.5000000000000009 1.3373366666500002 0.30374238424445832 0.37940952255126048 0.9276147222083333 0.37436041664166669 7.5000000000000009 74.950000000000003 86.910000000000011 1.0679886836979464 14.350000000000003 3.1879673611250006 0.57129638890833345 0.63391888891666681 1.0715189195184747 78.870000000000019
decision_type=2 2 2 2 2 2 2 2 2 2 2 2 2 2 2 2 2 2 2 2 2 2 2 2 2 2 2 2 2 2
left_child=5 3 4 9 -3 -1 8 26 18 23 -9 12 25 -13 -14 -10 -7 -18 -6 -20 24 -11 -23 -2 -21 -4 -5 -28 -29 -30
right_child=1 2 11 7 6 16 -8 10 15 21 -12 13 14 -15 -16 -17 17 -19 19 20 -22 22 -24 -25 -26 -27 27 28 29 -31
leaf_value=-0.012411341264430541 0.02136257380536459 -0.013708803212144773 0.014884131563788592 0.0072677427367307248 0.0078007171075838572 -0.0082168077988266988 0.01037030312218884 0.044096928135554464 0.033070714287459856 0.0010610064069430034 0.021776318230496888 0.020543782849739674 0.0059500736368891718 0.047285468850962145 0.024587161256931722 0.0030850067291231381 -0.0067207876119525431 0.0053027547751293052 -0.021515975786106929 0.01150731989085519 -0.0050660101556915778 0.019176558649797046 0.0015237445353853459 0.045306080459849907 0.00048531271671235239 0.036974365853764596 0.037430838990258057 0.028813239950740838 0.0017440072970376129 0.02560403627221999
leaf_weight=1938 103 104 48 30 157 716 477 134 30 75 44 66 195 22 40 21 212 161 28 96 310 142 49 20 369 31 64 86 42 46
leaf_count=1938 103 104 48 30 157 716 477 134 30 75 44 66 195 22 40 21 212 161 28 96 310 142 49 20 369 31 64 86 42 46
internal_value=7.6709e-12 0.0107838 0.00567401 0.0229862 0.00308631 -0.0100785 0.00426017 0.0296182 0.00137734 0.0153825 0.0385795 0.0159218 0.0127528 0.0272292 0.00912234 0.0207237 -0.00592681 -0.001531 0.000349568 -0.00110726 -0.00036991 0.010817 0.0146478 0.0252558 0.00276082 0.0235525 0.0236663 0.0257334 0.0214309 0.0142163
internal_weight=5856 2829 1994 835 1592 3027 1488 446 1011 389 178 402 314 88 235 51 1089 373 960 803 775 266 191 123 465 79 268 238 174 88
internal_count=5856 2829 1994 835 1592 3027 1488 446 1011 389 178 402 314 88 235 51 1089 373 960 803 775 266 191 123 465 79 268 238 174 88
is_linear=0
shrinkage=0.05


Tree=25
num_leaves=31
num_cat=0
split_feature=3 14 0 7 7 9 9 0 3 8 4 3 4 3 7 6 7 3 7 8 3 9 6 3 1 12 6 1 10 3
split_gain=230.079 43.9214 25.1625 19.8842 18.942 12.1746 10.2547 8.85517 8.57406 7.73272 7.00423 6.25403 5.63493 6.06589 6.266 5.54037 5.45126 5.1603 4.96331 4.8007 4.69284 4.46594 7.58094 4.36573 4.21734 3.88396 4.98647 3.7358 4.32128 4.32232
threshold=0.92947555554166661 0.25881904510252057 28.050000000000004 1.8066839189855559 0.61797705092666677 2.5000000000000004 10.500000000000002 36.500000000000007 2.8779662500000005 1.2885075105944568 1.0417261110750002 0.66888680557500013 1.4628611111250003 3.4393338888750002 1.6980858634263891 2.1432888889250004 2.224473699072361 2.9546598611250001 1.9168721157376389 0.53899040204292081 0.18142027778333333 1.0000000180025095e-35 1.3069523611333336 2.8431944444833337 75.445000000000007 5.5000000000000009 2.6096381944500004 88.790000000000006 1.5000000000000002 2.2340566667083337
decision_type=2 2 2 2 2 2 2 2 2 2 2 2 2 2 2 2 2 2 2 2 2 2 2 2 2 2 2 2 2 2
left_child=4 3 19 23 -1 9 10 15 24 12 -5 20 -4 14 -14 -8 -12 -9 -13 -3 -6 -16 -23 -2 25 -7 -27 28 29 -21
right_child=1 2 5 6 11 8 7 17 -10 -11 16 18 13 -15 21 -17 -18 -19 -20 27 -22 22 -24 -25 -26 26 -28 -29 -30 -31
leaf_value=-0.011515745165564922 -0.0036212540035866821 -0.0049378740428774447 0.020355617234823653 0.0073224014616168733 -0.030654396936297418 0.019262575897223813 0.0038507709109746264 0.012684835645756343 0.027287816032370987 0.060908984653651715 0.012691840511795721 -0.0018805158357716714 0.020744792608400953 0.021931172542715982 0.032644878672780812 -0.016011286741839006 0.028448935545837651 0.040463385411671236 0.010769089775288756 0.00950202064588666 -0.006097599499825003 0.038134001322090633 0.076696023029776725 0.018682669027728718 0.021279917745388621 0.0017409198462135262 0.022459639981389046 -0.0046368873602635153 0.0077841816944232509 0.041284216774384618
leaf_weight=2078 476 81 117 133 20 85 352 82 188 20 95 443 26 59 27 39 130 21 94 20 714 25 26 23 141 135 37 37 109 23
leaf_count=2078 476 81 117 133 20 85 352 82 188 20 95 443 26 59 27 39 130 21 94 20 714 25 26 23 141 135 37 37 109 23
internal_value=-2.02845e-11 0.0114548 0.0186093 0.00533299 -0.00857488 0.0226816 0.00997522 0.0053055 0.0184879 0.0308732 0.0164189 -0.00376676 0.0287277 0.0347372 0.0420021 0.00186964 0.0217959 0.0183484 0.000333754 0.00524637 -0.00676672 0.0490879 0.0577931 -0.00259322 0.0143312 0.0105189 0.00619785 0.00961105 0.0130793 0.0265018
internal_weight=5856 2507 1156 1351 3349 886 852 494 586 300 358 1271 280 163 104 391 225 103 537 270 734 78 51 499 398 257 172 189 152 43
internal_count=5856 2507 1156 1351 3349 886 852 494 586 300 358 1271 280 163 104 391 225 103 537 270 734 78 51 499 398 257 172 189 152 43
is_linear=0
shrinkage=0.05


Tree=26
num_leaves=31
num_cat=0
split_feature=8 9 13 7 7 14 3 6 0 3 9 0 6 9 12 10 6 4 5 10 1 9 13 6 5 7 2 3 4 4
split_gain=208.677 57.6336 18.3225 16.1632 13.8928 12.8842 9.64922 8.65472 8.04501 6.52078 5.99582 5.97719 5.90327 5.87478 5.02213 6.66928 4.94913 4.54095 4.68828 5.05457 6.91982 4.75602 4.32496 5.43202 4.09734 7.84417 3.853 4.50938 3.79171 3.68905
threshold=0.76692193742561787 6.5000000000000009 -0.91597561503675329 2.4426338912112504 1.8389682129581948 -0.78656609248549325 0.5733497222416668 1.9678986110666665 30.850000000000005 0.66888680557500013 1.5000000000000002 36.500000000000007 2.8678494445000005 22.500000000000004 6.5000000000000009 2.5000000000000004 0.65517152775000009 4.3932476388916673 1.1665630555750004 4.5000000000000009 56.060000000000009 21.500000000000004 -0.98296291314453399 1.7929890277500002 1.7274855555333335 1.7913539606408335 16.850000000000005 1.4262002778333336 3.4805830555500004 0.51283819447500012
decision_type=2 2 2 2 2 2 2 2 2 2 2 2 2 2 2 2 2 2 2 2 2 2 2 2 2 2 2 2 2 2
left_child=6 4 22 5 10 11 -1 14 -6 16 -2 -4 -10 17 -5 -16 -7 18 -11 -20 -21 26 -3 28 25 -15 -22 -28 -24 -8
right_child=1 2 3 7 8 9 29 -9 12 13 -12 -13 -14 24 15 -17 -18 -19 19 20 21 -23 23 -25 -26 -27 27 -29 -30 -31
leaf_value=-0.011240811446865194 0.023014522086435219 -0.013315139216355052 -0.0028578367327317155 0.024880359105300162 0.021342074719549561 0.01213437863870671 -0.0093906774614742859 0.042028487015616255 0.040272502792276337 0.013922905422509266 0.0096646918124156933 0.01569942152903726 0.019164470292162152 0.017042044740879819 0.019965069201690232 -0.0056844630283600789 -0.010116273279569737 0.029380420631227585 0.0018162787757174535 0.037021203089505433 0.01235680353699946 0.029465833270833609 -0.002472925206989442 -0.02204356334259501 0.0079799619119833489 0.054468577674457008 0.0075273847376758412 -0.025276610404253011 0.013399981504306198 -0.0032582765139279077
leaf_weight=1938 123 114 452 80 268 38 373 37 134 231 266 48 44 42 55 47 73 26 327 25 51 21 152 28 34 21 22 20 50 716
leaf_count=1938 123 114 452 80 268 38 373 37 134 231 266 48 44 42 55 47 73 26 327 25 51 21 152 28 34 21 22 20 50 716
internal_value=-1.60177e-11 0.00976329 0.00514509 0.00733355 0.0207916 0.00539759 -0.00912466 0.0199835 0.0268149 0.00887447 0.0138858 -0.00107634 0.0350548 0.010414 0.0155019 0.00814617 -0.00249893 0.00886388 0.00809856 0.00521138 0.0131984 0.00797412 -0.00535183 -0.00140481 0.0219683 0.0295176 0.00312115 -0.00809357 0.00145601 -0.00535872
internal_weight=5856 2829 1994 1650 835 1431 3027 219 446 931 389 500 178 820 182 102 111 723 697 466 139 114 344 230 97 63 93 42 202 1089
internal_count=5856 2829 1994 1650 835 1431 3027 219 446 931 389 500 178 820 182 102 111 723 697 466 139 114 344 230 97 63 93 42 202 1089
is_linear=0
shrinkage=0.05


Tree=27
num_leaves=31
num_cat=0
split_feature=7 9 3 13 7 14 0 6 9 5 3 6 6 14 3 3 3 6 2 0 9 8 3 12 10 5 0 6 8 3
split_gain=189.442 49.0098 19.552 16.1455 12.5744 11.0054 10.0883 7.81089 7.70521 6.09046 7.6968 5.12302 11.4319 5.72547 5.5241 5.075 4.90214 4.83872 6.4271 6.21446 6.16623 4.77361 4.56657 4.53248 6.01903 4.32581 4.1142 4.08561 5.44343 4.42041
threshold=1.4535212245340279 6.5000000000000009 0.75447763888333341 -0.91597561503675329 2.4426338912112504 -0.78656609248549325 30.050000000000004 1.9678986110666665 1.5000000000000002 2.0908218055416672 4.3932476388916673 1.0106304166833338 0.57897819444166676 -0.37940952255126015 0.84844124998333337 3.332958194458334 0.64131666663333353 2.435608055541667 12.750000000000002 30.050000000000004 15.500000000000002 0.9440592847996333 0.33993847222500001 6.5000000000000009 2.5000000000000004 0.54891083332500001 36.500000000000007 2.8678494445000005 1.0039356240146018 2.9196297222083341
decision_type=2 2 2 2 2 2 2 2 2 2 2 2 2 2 2 2 2 2 2 2 2 2 2 2 2 2 2 2 2 2
left_child=2 6 22 -3 5 26 25 23 -4 10 27 12 -7 21 -15 -11 -13 18 19 -18 -19 -14 -1 -6 -25 -2 -5 28 -8 -30
right_child=1 3 8 4 7 11 9 -9 -10 15 -12 16 13 14 -16 -17 17 20 -20 -21 -22 -23 -24 24 -26 -27 -28 -29 29 -31
leaf_value=-0.013179176187724188 0.005009568246331678 -0.0046727511671550747 0.014581328378354606 -0.0017947571037717871 0.023636341423261913 0.0044897624424224663 0.0089857608499005447 0.039927062605558013 -0.0022911740681575386 0.054322500081939833 0.047191163017575088 -0.013496785035187548 0.014149088431792013 -0.0039900632225908341 0.019036339200517564 0.029374999766971208 0.0012681898400187493 0.001228495319839567 -0.0033385137799757953 0.038163472534645172 0.024218359547001977 0.039141602919737908 -0.0085593481950543022 0.018966815624470737 -0.0054002399680184877 0.018679120434886395 0.013821449792607033 0.003808637253720971 0.04659791698368887 0.021068956760259775
leaf_weight=751 67 307 76 411 80 221 40 37 617 36 29 33 29 32 140 47 25 50 145 21 70 56 1859 55 47 425 47 34 30 39
leaf_count=751 67 307 76 411 80 221 40 37 617 36 29 33 29 32 140 47 25 50 145 21 70 56 1859 55 47 425 47 34 30 39
internal_value=-1.51738e-11 0.0102291 -0.00790641 0.00577368 0.00791314 0.00601893 0.0210008 0.0189843 -0.000440799 0.0290719 0.023704 0.00947964 0.0128282 0.0199987 0.0147524 0.0401956 0.00482665 0.00677094 0.0018275 0.0181117 0.0146392 0.0306147 -0.00988866 0.0147268 0.00773886 0.0168176 -0.000192221 0.0189409 0.0236611 0.0321685
internal_weight=5856 2553 3303 1806 1499 1280 747 219 693 255 172 822 478 257 172 83 344 311 191 46 120 85 2610 182 102 492 458 143 109 69
internal_count=5856 2553 3303 1806 1499 1280 747 219 693 255 172 822 478 257 172 83 344 311 191 46 120 85 2610 182 102 492 458 143 109 69
is_linear=0
shrinkage=0.05


Tree=28
num_leaves=31
num_cat=0
split_feature=7 9 3 13 3 9 0 7 14 8 5 3 14 12 5 14 7 3 10 3 3 5 12 6 4 7 6 12 2 13
split_gain=170.972 44.2314 17.6457 14.5713 11.5515 10.5267 9.10472 8.04399 7.03389 5.60934 5.49664 6.94636 5.34777 5.3201 5.80362 4.99722 5.0826 4.74772 4.6931 4.58019 4.12133 3.90404 3.89004 3.97651 11.8361 3.76778 4.3309 4.4171 3.86834 3.65146
threshold=1.4535212245340279 6.5000000000000009 0.75447763888333341 -0.91597561503675329 2.9196297222083341 13.500000000000002 30.050000000000004 2.1744197407441672 0.91597561503675351 0.50612354345178312 2.0908218055416672 4.3932476388916673 -0.78656609248549325 5.5000000000000009 0.82015375002500013 -0.9159756150367534 2.2588181435209731 1.9646415277583331 4.5000000000000009 3.332958194458334 0.33993847222500001 0.54891083332500001 5.5000000000000009 0.5732647222166668 1.6413325000250001 2.3699011064827782 2.8678494445000005 6.5000000000000009 16.850000000000005 -0.98296291314453399
decision_type=2 2 2 2 2 2 2 2 2 2 2 2 2 2 2 2 2 2 2 2 2 2 2 2 2 2 2 2 2 2
left_child=2 6 20 29 7 13 21 12 -4 -10 11 25 -5 -6 -15 -9 -17 -18 -7 -12 -1 -2 23 -14 -25 26 27 28 -8 -3
right_child=1 3 8 4 5 18 10 15 9 -11 19 -13 22 14 -16 16 17 -19 -20 -21 -22 -23 -24 24 -26 -27 -28 -29 -30 -31
leaf_value=-0.012520217583296571 0.0047590898211230743 -0.0121696705584113 -0.0027471877991008999 -0.0014522123119751014 -0.012693014501460962 0.02611405780301132 -0.0020497248241943974 0.0028408022661979247 -0.0021709368555057869 0.019565665160476323 0.051606374772058594 0.044831605139991335 0.004905627310619734 0.036960490868912767 0.0080105253175965386 0.028991899899897519 0.0055578430414037865 0.021141491271076066 0.05454530786900294 0.027906249947053319 -0.0081313807735885878 0.017745164339851779 0.0038132238268244116 0.047677124208874176 0.0079150253960282597 0.032525646982385831 -0.0030925560630215652 0.034232728444640675 0.026338725732195947 -0.00059269005205573114
leaf_weight=751 67 102 571 348 21 47 28 101 51 71 36 29 84 23 70 58 115 85 21 47 1859 425 438 27 61 34 29 31 21 205
leaf_count=751 67 102 571 348 21 47 28 101 51 71 36 29 84 23 70 58 115 85 21 47 1859 425 438 27 61 34 29 31 21 205
internal_value=-4.07796e-11 0.00971763 -0.00751109 0.005485 0.00751749 0.0193247 0.0199508 0.00588582 -0.000418759 0.0104791 0.0276183 0.0225188 0.00349373 0.0100375 0.0151702 0.0122692 0.0159601 0.0121809 0.0348943 0.0381858 -0.00939422 0.0159767 0.00631535 0.012687 0.0201148 0.0179939 0.013461 0.0194617 0.0101168 -0.00443911
internal_weight=5856 2553 3303 1806 1499 182 747 1317 693 122 255 172 958 114 93 359 258 200 68 83 2610 492 610 172 88 143 109 80 49 307
internal_count=5856 2553 3303 1806 1499 182 747 1317 693 122 255 172 958 114 93 359 258 200 68 83 2610 492 610 172 88 143 109 80 49 307
is_linear=0
shrinkage=0.05


Tree=29
num_leaves=31
num_cat=0
split_feature=3 14 7 7 7 9 0 9 6 3 7 8 8 13 5 4 4 2 2 3 9 6 6 14 12 4 1 1 14 5
split_gain=154.89 28.2151 25.017 13.3298 11.7369 8.52132 11.7038 7.51631 6.41534 6.05233 5.98146 5.81174 5.47865 4.67243 4.56848 4.36777 4.03317 3.74685 4.54277 3.70479 5.02926 3.82098 3.69333 3.16532 3.688 3.16311 3.01428 2.93778 2.92833 4.35401
threshold=1.2156897222083336 0.60355339059327384 1.4535212245340279 2.0476775925937507 2.6305002222241671 11.500000000000002 38.500000000000007 9.5000000000000018 1.7203686111083336 0.37011319444166674 1.8066839189855559 1.252138546621641 0.79609867795758726 -0.98296291314453399 3.0436169444666672 0.66839388890833351 0.45554861112500006 19.100000000000005 13.350000000000003 0.37436041664166669 14.500000000000002 2.6096381944500004 1.7929890277500002 0.1294095225512602 3.5000000000000004 0.73066875002500009 55.105000000000011 36.025000000000013 0.91597561503675351 0.73699958335000015
decision_type=2 2 2 2 2 2 2 2 2 2 2 2 2 2 2 2 2 2 2 2 2 2 2 2 2 2 2 2 2 2
left_child=2 4 9 12 5 10 8 17 27 -1 -2 14 -3 -9 -5 -12 -11 18 -4 -15 -21 26 -6 -18 -25 -17 -22 -7 -14 -30
right_child=1 3 7 11 22 6 -8 13 -10 16 15 -13 28 19 -16 25 23 -19 -20 20 21 -23 -24 24 -26 -27 -28 -29 29 -31
leaf_value=-0.011463524785495859 0.0027573525677612345 0.0028245470237875867 0.020916073573088008 0.027525134136371272 0.01663483829196433 -0.016422147924701373 0.035557183030654083 -0.015669078456068582 -0.016602456689413108 -0.0094060778787898036 0.00044210880129997221 0.044775704617819025 0.012573114279834156 -0.013820601793888368 0.00279767672930445 0.03121319778263569 -0.0071083291966425061 0.030230815591359581 -0.0017122150478052333 -0.0038025309685835607 0.014020253337178974 0.021372063729811361 0.039646964035928253 -0.006032660163916825 0.001985385027281674 0.012827457316542189 0.0015383976705859162 0.0016123994538795245 0.0060588125139474872 0.025019341792392503
leaf_weight=932 289 88 42 169 136 24 22 44 63 800 70 45 211 38 21 25 714 27 47 203 62 37 20 294 280 364 220 382 38 149
leaf_count=932 289 88 42 169 136 24 22 44 63 800 70 45 211 38 21 25 714 27 47 203 62 37 20 294 280 364 220 382 38 149
internal_value=-2.35628e-11 0.0108108 -0.00611651 0.0188419 0.00666002 0.00503265 -8.53192e-05 0.00225856 -0.00175725 -0.00811321 0.00839218 0.0286187 0.0141144 1.97574e-05 0.0247921 0.01194 -0.00661777 0.0139158 0.0089663 0.00125245 0.00234972 0.00626479 0.0195851 -0.0048859 -0.00212142 0.0140091 0.00428264 0.000546318 0.0166107 0.0211664
internal_weight=5856 2116 3740 721 1395 1239 491 720 469 3020 748 235 486 604 190 459 2088 116 89 560 522 319 156 1288 574 389 282 406 398 187
internal_count=5856 2116 3740 721 1395 1239 491 720 469 3020 748 235 486 604 190 459 2088 116 89 560 522 319 156 1288 574 389 282 406 398 187
is_linear=0
shrinkage=0.05


Tree=30
num_leaves=31
num_cat=0
split_feature=3 14 3 0 7 7 13 4 13 3 6 0 1 2 7 4 7 3 7 13 3 14 14 14 3 5 9 5 3 0
split_gain=139.962 27.9761 18.8341 13.1562 11.5372 10.5386 5.82837 5.79517 5.34729 8.35429 5.28846 4.86756 7.3621 4.71901 4.64524 4.64289 4.58116 4.50998 4.52088 4.82259 4.40274 4.24634 3.6422 3.55057 4.21943 4.42819 3.50347 4.51144 5.94062 5.753
threshold=0.92947555554166661 0.78656609248549303 2.8431944444833337 28.050000000000004 0.58769923379569455 2.1497338310152783 -0.98296291314453399 1.8417831944416669 0.12940952255126045 3.3909108333416671 1.8205870833833335 36.500000000000007 70.320000000000007 18.750000000000004 1.0682717037022222 1.7121024999916667 1.9168721157376389 0.18142027778333333 1.9076906296318057 0.37940952255126054 2.0489993055416673 0.91597561503675351 -0.98296291314453399 0.25881904510252057 2.4733488889166675 1.270220555566667 10.500000000000002 1.0738941666500004 2.0912104166500005 30.700000000000006
decision_type=2 2 2 2 2 2 2 2 2 2 2 2 2 2 2 2 2 2 2 2 2 2 2 2 2 2 2 2 2 2
left_child=4 2 5 -3 22 14 -7 10 -9 -10 -5 12 -4 16 -2 23 20 -6 -19 -20 -12 -22 -1 -16 25 -25 27 -8 -29 -30
right_child=1 3 11 7 17 6 26 8 9 -11 13 -13 -14 -15 15 -17 -18 18 19 -21 21 -23 -24 24 -26 -27 -28 28 29 -31
leaf_value=0.0013098468584364948 -0.0070808076913688031 0.0035794008592497715 0.002350707198881234 0.011038582188254958 -0.025534513954665852 -0.012637000093952969 0.0025384540471399355 0.021998896596154997 0.05309322198260237 0.02036081153367247 0.042170069095763291 0.036632644947474972 0.018471783947143532 0.0026622961461544039 0.0025060832269046818 -0.0018227170354655786 0.047366963194396636 -0.0038272296130107833 0.0017560190162366281 0.027382103979055373 -0.0020309124230628926 0.026260447357263829 -0.0095125419125856904 0.0088736954311087243 -0.0054120983387674062 0.028092759708736349 0.0079587703301952171 0.012466328556183726 0.014433954468695449 0.048829840370003257
leaf_weight=81 157 121 96 152 22 26 37 126 44 35 22 26 270 20 369 407 26 1146 146 21 21 36 1933 94 31 44 232 64 20 31
leaf_count=81 157 121 96 152 22 26 37 126 44 35 22 26 270 20 369 407 26 1146 146 21 21 36 1933 94 31 44 232 64 20 31
internal_value=-1.64715e-12 0.00893419 0.00596176 0.0183198 -0.00668797 0.00342969 0.0102733 0.0220201 0.0283931 0.0385915 0.0173037 0.0157283 0.0142433 0.024922 0.000883526 0.0022067 0.029162 -0.00308342 -0.00270724 0.00497846 0.0231705 0.0158373 -0.00907728 0.00525498 0.011257 0.0150015 0.0118245 0.0177248 0.0226109 0.0353413
internal_weight=5856 2507 1904 603 3349 1512 410 482 205 79 277 392 366 125 1102 945 105 1335 1313 167 79 57 2014 538 169 138 384 152 115 51
internal_count=5856 2507 1904 603 3349 1512 410 482 205 79 277 392 366 125 1102 945 105 1335 1313 167 79 57 2014 538 169 138 384 152 115 51
is_linear=0
shrinkage=0.05


Tree=31
num_leaves=31
num_cat=0
split_feature=7 9 3 13 14 7 0 7 9 0 2 0 4 3 7 2 6 13 9 5 8 1 6 1 0 5 6 6 6 4
split_gain=126.711 33.9896 13.198 11.5108 9.29626 9.4023 7.47107 5.98685 5.82824 5.27357 4.53623 4.40578 5.84661 3.78009 4.80004 3.64105 3.37014 4.41956 3.31986 5.24519 4.84908 3.84091 5.5472 3.28953 3.23511 3.20778 3.59772 3.91333 3.0773 3.78369
threshold=1.4535212245340279 6.5000000000000009 0.75447763888333341 -0.91597561503675329 -0.9159756150367534 2.1993332847236116 31.050000000000004 2.6305002222241671 1.5000000000000002 37.300000000000004 8.5500000000000025 28.050000000000004 0.5729427777416668 2.0912104166500005 2.2588181435209731 11.100000000000001 1.7929890277500002 -0.98296291314453399 21.500000000000004 2.1131013889083334 1.0552219773175684 74.660000000000011 0.76573722221666674 82.860000000000014 19.300000000000001 0.91228388888333345 0.5665836110750001 0.73722236112500017 2.435608055541667 2.8431944444833337
decision_type=2 2 2 2 2 2 2 2 2 2 2 2 2 2 2 2 2 2 2 2 2 2 2 2 2 2 2 2 2 2
left_child=2 6 24 16 10 9 7 11 15 18 -5 -2 -13 14 -7 -4 17 -3 23 20 21 22 -20 25 -1 26 -6 -28 29 -15
right_child=1 3 8 4 5 13 -8 -9 -10 -11 -12 12 -14 28 -16 -17 -18 -19 19 -21 -22 -23 -24 -25 -26 -27 27 -29 -30 -31
leaf_value=-0.0110025596560611 0.0057747258921153847 -0.011084894776301094 -0.0015965675772999283 0.017623046138323845 0.0013485775721308432 0.027837873466553226 0.032415945384953473 0.036122472466462677 -0.0019417532408450599 0.028824228979647162 -0.0027624966238339321 -0.0093015636006991073 0.017626880622441988 0.012443103884941928 0.0059424797968509113 0.021091127588200229 -0.020385056284481083 0.0021419652511278238 0.021185596234032086 -0.0057713211787974138 0.031256540051024212 0.023360606469213965 -0.012097070270007657 -0.0054562838952151244 -0.0070290989091789172 0.0031919770428128764 0.039029626622796063 0.011578190163079953 0.037840960401555768 0.029235882750328852
leaf_weight=700 116 97 28 30 38 31 74 34 617 24 302 21 502 98 130 48 29 181 21 34 38 32 31 89 1910 470 20 37 23 51
leaf_count=700 116 97 28 30 38 31 74 34 617 24 302 21 502 98 130 48 29 181 21 34 38 32 31 89 1910 470 20 37 23 51
internal_value=1.01111e-12 0.00836575 -0.00646617 0.00465536 0.00646184 0.00856202 0.0173362 0.0156781 -0.000332455 0.00572612 -0.00092043 0.0145903 0.0165456 0.0156645 0.0101584 0.0127325 -0.00416517 -0.00247316 0.00504173 0.0115958 0.0164359 0.00973128 0.00134401 0.00347837 -0.00809478 0.00488577 0.0132656 0.0212103 0.0208186 0.018191
internal_weight=5856 2553 3303 1806 1499 1167 747 673 693 834 332 639 523 333 161 76 307 278 810 156 122 84 52 654 2610 565 95 57 172 149
internal_count=5856 2553 3303 1806 1499 1167 747 673 693 834 332 639 523 333 161 76 307 278 810 156 122 84 52 654 2610 565 95 57 172 149
is_linear=0
shrinkage=0.05


Tree=32
num_leaves=31
num_cat=0
split_feature=3 14 8 7 7 0 9 13 14 2 3 6 8 7 7 2 1 8 5 4 6 13 0 7 8 6 4 14 5 1
split_gain=114.883 21.6923 18.513 10.3852 9.34736 7.04016 9.26916 5.90384 6.55748 6.15362 5.80643 5.72981 4.96912 4.92242 4.91644 4.91172 6.56984 4.28021 4.0364 3.90456 3.89068 3.73059 3.69314 3.52577 3.09013 2.88256 2.686 3.50679 3.27375 3.97414
threshold=1.2156897222083336 0.60355339059327384 0.59351237327990425 2.0476775925937507 2.6305002222241671 38.500000000000007 11.500000000000002 -0.98296291314453399 -0.78656609248549325 33.050000000000004 0.66888680557500013 1.7203686111083336 1.252138546621641 2.2111491550898621 1.6239846388868058 12.350000000000001 83.805000000000021 0.79609867795758726 3.0436169444666672 0.5729427777416668 0.70935625005000014 -0.60355339059327362 21.100000000000005 1.4535212245340279 1.1620537361742349 0.47367277780000006 2.5298731944583337 0.91597561503675351 0.73699958335000015 70.66500000000002
decision_type=2 2 2 2 2 2 2 2 2 2 2 2 2 2 2 2 2 2 2 2 2 2 2 2 2 2 2 2 2 2
left_child=2 4 22 17 5 6 14 -4 -9 10 20 -8 18 15 -2 16 -12 -3 -5 -16 -10 -17 -1 -23 -6 -21 27 -19 -29 -30
right_child=1 3 7 12 24 -7 11 8 9 -11 13 -13 -14 -15 19 21 -18 26 -20 25 -22 23 -24 -25 -26 -27 -28 28 29 -31
leaf_value=-0.0099246155028494092 -0.00045243404692772666 0.0022006534129931509 -0.01384773214153056 0.024012591289742105 -0.00063680589553855721 0.032251099852675741 0.00037827184253195621 -0.0048325570731979324 0.0044793962576443807 0.029092080827225194 0.025944382581351833 -0.015828377389467307 0.039921868079238469 0.02528796979390523 -0.0024320612264712091 -0.002626567903300462 -0.0049686069749295715 0.011127126136412606 0.00076966155542149443 -0.0012019696645438672 -0.0081319403662907744 -0.0054953554272651681 -0.0060647467257730001 0.014504960337190901 0.019981064577069548 0.011907734749381891 0.0013607884808960889 0.0074038214076842584 0.044003366120159627 0.020724001228809359
leaf_weight=953 165 88 67 169 21 22 406 285 108 24 55 63 45 34 63 163 25 195 21 46 141 30 1772 83 135 474 36 35 22 110
leaf_count=953 165 88 67 169 21 22 406 285 108 24 55 63 45 34 63 163 25 195 21 46 141 30 1772 83 135 474 36 35 22 110
internal_value=-8.45681e-12 0.00931056 -0.00526769 0.0163524 0.00567103 0.00421874 0.00371199 0.000496297 0.00151006 0.00423653 0.00330299 -0.00179874 0.024982 0.00711138 0.00716725 0.00537541 0.0162841 0.0121796 0.0214436 0.00932377 -0.00266196 0.00221348 -0.00741464 0.00919514 0.0172056 0.010748 0.014386 0.0156813 0.0209991 0.0246039
internal_weight=5856 2116 3740 721 1395 1239 1217 1015 948 663 639 469 235 390 748 356 80 486 190 583 249 276 2725 113 156 520 398 362 167 132
internal_count=5856 2116 3740 721 1395 1239 1217 1015 948 663 639 469 235 390 748 356 80 486 190 583 249 276 2725 113 156 520 398 362 167 132
is_linear=0
shrinkage=0.05


Tree=33
num_leaves=31
num_cat=0
split_feature=3 14 7 7 7 0 9 13 6 8 3 7 4 0 3 5 14 4 8 10 5 0 4 2 4 13 14 2 3 6
split_gain=103.682 19.5773 16.7418 9.40812 8.43599 6.35375 8.36542 5.72642 5.17115 4.8739 4.75393 4.43709 3.75595 4.99051 4.40991 4.71544 4.60163 4.40119 4.6987 6.38104 4.03508 4.8864 3.62315 4.08275 3.52387 3.34603 3.50762 5.54142 4.06605 5.00228
threshold=1.2156897222083336 0.60355339059327384 1.4535212245340279 1.9850652060188889 2.6305002222241671 38.500000000000007 11.500000000000002 0.37940952255126054 1.7203686111083336 1.252138546621641 0.37011319444166674 1.6239846388868058 1.1592830555250002 29.900000000000002 1.8417831944416669 0.7957523611166667 0.91597561503675351 2.4733488889166675 0.86068223940184352 3.5000000000000004 1.2880761111000003 27.900000000000002 0.64120819443333354 11.300000000000002 0.5729427777416668 -0.98296291314453399 -0.78656609248549325 33.050000000000004 0.66888680557500013 2.6096381944500004
decision_type=2 2 2 2 2 2 2 2 2 2 2 2 2 2 2 2 2 2 2 2 2 2 2 2 2 2 2 2 2 2
left_child=2 4 10 12 5 6 11 25 -8 -5 -1 -2 20 14 -14 -16 -17 18 -15 -20 21 -3 -23 -24 -13 -4 -27 28 -28 -30
right_child=1 3 7 9 -6 -7 8 -9 -10 -11 -12 24 13 17 15 16 -18 -19 19 -21 -22 22 23 -25 -26 26 27 -29 29 -31
leaf_value=-0.0096069959636896074 -0.00042981213015137303 -0.0037537472239798971 -0.013483428709547629 0.019849805344073546 0.016345303225366828 0.030638544646684418 0.00035935830183813505 0.01148241209654563 -0.015036958611259858 0.037362401001155378 -0.005312357581166151 -0.002310457991598736 0.041835782482572227 -0.0083418509346388642 0.0040344200376421216 0.010489482879638672 0.036128816460924494 -0.010724776245653629 0.0060922861018258591 0.034657821949461806 -0.0065269868277634188 0.030623743172424535 -0.0051090527591960769 0.018737725564045831 0.010210628582840751 -0.0049714948506417306 -0.0045403715093354034 0.027934692613780499 0.0033767074566580114 0.025736129540821603
leaf_weight=932 165 45 44 210 156 22 406 127 63 49 2088 63 23 21 40 30 42 25 46 34 48 30 28 50 520 176 140 22 182 29
leaf_count=932 165 45 44 210 156 22 406 127 63 49 2088 63 23 21 40 30 42 25 46 34 48 30 28 50 520 176 140 22 182 29
internal_value=-1.61532e-11 0.00884503 -0.0050043 0.0155348 0.00538748 0.0040078 0.00352639 0.00184699 -0.0017088 0.023163 -0.00663772 0.00680889 0.0112583 0.0152146 0.021894 0.0177989 0.0254458 0.00805804 0.0127072 0.0182326 0.00612105 0.0100891 0.0158569 0.0101773 0.00885758 -0.000216584 0.000846697 0.00359201 0.00206626 0.0064498
internal_weight=5856 2116 3740 721 1395 1239 1217 720 469 259 3020 748 462 261 135 112 72 126 101 80 201 153 108 78 583 593 549 373 351 211
internal_count=5856 2116 3740 721 1395 1239 1217 720 469 259 3020 748 462 261 135 112 72 126 101 80 201 153 108 78 583 593 549 373 351 211
is_linear=0
shrinkage=0.05


Tree=34
num_leaves=31
num_cat=0
split_feature=3 14 0 8 9 3 7 13 8 13 7 3 0 9 5 9 4 3 7 9 6 7 9 7 0 0 14 5 6 8
split_gain=93.9003 21.7581 12.2581 11.8372 7.32736 6.77101 5.50912 7.28467 4.73718 4.6823 5.69942 4.41361 5.29296 3.79866 3.5355 3.40637 3.24195 5.1252 4.20379 4.08308 5.87246 3.168 3.00397 3.91731 2.81934 2.76686 2.78645 3.48721 7.74481 3.90534
threshold=0.82546694445833346 0.25881904510252057 28.050000000000004 0.96912442983029812 2.5000000000000004 0.46832833337499996 1.5240664375048614 0.78656609248549325 1.2885075105944568 -0.98296291314453399 2.7001924953713892 2.8779662500000005 32.70000000000001 7.5000000000000009 1.3043131944750004 14.500000000000002 1.4628611111250003 3.4393338888750002 1.6980858634263891 1.0000000180025095e-35 1.3069523611333336 1.6029974791683335 11.500000000000002 2.0227978611119446 32.050000000000004 38.500000000000007 -0.9159756150367534 3.332958194458334 1.2202073611583335 1.0606944708673098
decision_type=2 2 2 2 2 2 2 2 2 2 2 2 2 2 2 2 2 2 2 2 2 2 2 2 2 2 2 2 2 2
left_child=5 3 -3 22 8 -1 -7 15 16 -5 25 12 -6 -12 -13 -8 -4 18 -18 -20 -21 -17 23 -2 -23 26 -11 -28 29 -29
right_child=1 2 4 9 11 6 7 -9 -10 10 13 14 -14 -15 -16 21 17 -19 19 20 -22 24 -24 -25 -26 -27 27 28 -30 -31
leaf_value=-0.0082638898252296155 -0.00047335943319679551 0.0033357780258902606 0.013014593478134377 -0.009001281126303242 0.0099362873896155432 -0.0049709503594833303 -0.0070041556410918322 0.031803246103227142 0.044516973830759532 -0.00072855558168290679 0.037225418016314508 0.027439246622088832 -0.01640408281236887 0.013334879036898714 0.012969083775017005 0.022495172985575417 0.013068918305305908 0.012090635913724113 0.02090629183554224 0.027367359459400178 0.06130708034795064 -0.0038084292462805197 -0.0058417738727103291 0.022617531439755114 0.010314453090922755 0.02259139535219773 0.005026381944584761 0.044307345439764584 -0.0035877932235598565 0.015927864662888976
leaf_weight=1532 225 326 118 47 411 1327 96 20 20 164 20 64 20 99 124 22 26 59 28 25 26 84 342 20 61 23 448 22 30 27
leaf_count=1532 225 326 118 47 411 1327 96 20 20 164 20 64 20 99 124 22 26 59 28 25 26 84 342 20 61 23 448 22 30 27
internal_value=-8.79924e-12 0.00681242 0.0116682 0.00268485 0.0146175 -0.00588444 -0.00362026 0.00271319 0.0210025 0.00635309 0.00721942 0.0115024 0.008714 0.0173501 0.0178951 0.000501021 0.0193348 0.0238822 0.030508 0.0362474 0.04467 0.00481537 -0.00281438 0.00141161 0.00213292 0.00553098 0.00496312 0.00673434 0.01642 0.0286697
internal_weight=5856 2714 1247 1467 921 3142 1610 283 302 880 833 619 431 119 188 263 282 164 105 79 51 167 587 245 145 714 691 527 79 49
internal_count=5856 2714 1247 1467 921 3142 1610 283 302 880 833 619 431 119 188 263 282 164 105 79 51 167 587 245 145 714 691 527 79 49
is_linear=0
shrinkage=0.05


Tree=35
num_leaves=31
num_cat=0
split_feature=8 9 8 9 12 9 0 1 13 1 7 5 0 3 6 6 14 3 9 6 2 9 1 1 9 14 7 4 8 2
split_gain=85.117 25.8322 11.3152 8.52241 8.6706 6.81759 6.33689 5.48286 5.45662 4.95324 4.52064 4.49197 4.48361 4.72015 3.95073 4.90201 3.93682 3.7585 3.73031 4.33868 3.69736 3.79426 4.37889 4.61874 4.55391 3.63635 3.51879 3.44835 3.40918 3.62033
threshold=0.76692193742561787 7.5000000000000009 1.3303273717230713 22.500000000000004 7.5000000000000009 19.500000000000004 30.050000000000004 70.66500000000002 -0.98296291314453399 74.480000000000004 0.59726241203569452 1.7531512500083335 36.500000000000007 2.9546598611250001 0.52119527779166674 0.85509263888333342 0.1294095225512602 0.92947555554166661 10.500000000000002 0.28842930554166663 8.9500000000000011 2.5000000000000004 79.155000000000015 83.895000000000024 6.5000000000000009 -0.9159756150367534 1.6239846388868058 2.2905719444250003 1.2812003892237589 12.350000000000001
decision_type=2 2 2 2 2 2 2 2 2 2 2 2 2 2 2 2 2 2 2 2 2 2 2 2 2 2 2 2 2 2
left_child=10 2 6 4 8 -6 20 -5 -3 -9 25 -8 18 14 -14 -16 -12 -7 19 -10 26 -22 -23 24 -24 -1 -2 -21 29 -13
right_child=1 3 -4 7 5 17 11 9 12 -11 16 28 13 -15 15 -17 -18 -19 -20 27 21 22 23 -25 -26 -27 -28 -29 -30 -31
